//<![CDATA[

// a few things don't have var in front of them - they update already existing variables the game needs
lanesSide = 4;
patchesAhead = 20;
patchesBehind = 10;
trainIterations = 60000;

var num_inputs = (lanesSide * 2 + 1) * (patchesAhead + patchesBehind);
var num_actions = 5;
var temporal_window = 0;
var network_size = num_inputs * temporal_window + num_actions * temporal_window + num_inputs;

var layer_defs = [];
layer_defs.push({
    type: 'input',
    out_sx: 1,
    out_sy: 1,
    out_depth: network_size
});
layer_defs.push({
    type: 'fc',
    num_neurons: 100,
    activation: 'relu'
});
layer_defs.push({
    type: 'fc',
    num_neurons: 100,
    activation: 'relu'
});
layer_defs.push({
    type: 'regression',
    num_neurons: num_actions
});

var tdtrainer_options = {
    method: 'adagrad',
    batch_size: 100,
    l2_decay: 0.002
};

var opt = {};
opt.temporal_window = temporal_window;
opt.experience_size = 10000;
opt.start_learn_threshold = 100;
opt.gamma = 0.9;
opt.learning_steps_total = 10000;
opt.learning_steps_burnin = 1000;
opt.epsilon_min = 0.02;
opt.epsilon_test_time = 0.04;
opt.layer_defs = layer_defs;
opt.tdtrainer_options = tdtrainer_options;

brain = new deepqlearn.Brain(num_inputs, num_actions, opt);

learn = function (state, lastReward) {
    brain.backward(lastReward);
    var action = brain.forward(state);

    draw_net();
    draw_stats();

    return action;
}

//]]>
/*###########*/
if (brain) {
brain.value_net.fromJSON({"layers":[{"out_depth":270,"out_sx":1,"out_sy":1,"layer_type":"input"},{"out_depth":100,"out_sx":1,"out_sy":1,"layer_type":"fc","num_inputs":270,"l1_decay_mul":0,"l2_decay_mul":1,"filters":[{"sx":1,"sy":1,"depth":270,"w":{"0":-0.0712822770860611,"1":-0.1251653229005527,"2":0.0384403735027726,"3":0.01187159409834579,"4":0.11697720285466415,"5":-0.04776456213407662,"6":0.04415408251984965,"7":0.010005772506879085,"8":-0.016100573106459508,"9":0.09536478325157716,"10":-0.008456250817316926,"11":0.06289383545858827,"12":0.13111740092872298,"13":-0.07562252626904618,"14":-0.018726388318377994,"15":0.009517456622397846,"16":-0.024333482350522104,"17":-0.0027706226500971045,"18":0.05099888002274812,"19":0.0635498339831472,"20":-0.09230304762497034,"21":0.137307792334915,"22":0.054289691358251325,"23":-0.03784774402961137,"24":0.03511598986558679,"25":-0.05235908901991398,"26":-0.057432606514777246,"27":0.050868842050758006,"28":-0.07866971287213131,"29":0.14440315415579363,"30":-0.05776944073498712,"31":-0.0019220608422731867,"32":0.17737601710953557,"33":-0.02684237175761984,"34":-0.048166022223694226,"35":-0.07498930448923112,"36":0.014780013657634608,"37":-0.016797171200217512,"38":-0.11400923306785435,"39":0.08304520330189456,"40":0.02370075183921865,"41":-0.04543211990481517,"42":0.044405269287319776,"43":-0.018748061396748027,"44":0.07676844372940257,"45":-0.05596182194124815,"46":-0.10607894235166247,"47":0.052683579657355234,"48":0.0270422157352911,"49":-0.051576240501884654,"50":-0.05974899024439715,"51":0.01828095585193743,"52":0.10112603863130004,"53":0.038707466226895956,"54":-0.09088585259354472,"55":-0.048354516714205785,"56":-0.006981376261026465,"57":0.03795808209048915,"58":-0.08431673895884852,"59":0.12605547175388299,"60":-0.025989201278159187,"61":0.10947024498798272,"62":0.03413631007990971,"63":-0.07869968545498238,"64":0.024979576008515473,"65":-0.0665496124377776,"66":0.10637651567371091,"67":-0.0008275579121654391,"68":0.033084939644566866,"69":-0.052523607422103095,"70":0.042860364760704976,"71":-0.03743196990521509,"72":0.00712825256832711,"73":0.05917327953353704,"74":0.1189645476118377,"75":-0.007226084538751546,"76":-0.002959802659357475,"77":0.18499970466858998,"78":0.013480372745145613,"79":-0.01035626097494579,"80":0.046328152149111734,"81":0.021157560591553923,"82":0.000706487847287649,"83":0.048545247876754204,"84":0.05970925827925771,"85":-0.14674629476759807,"86":0.11909089638192065,"87":0.04040727310142421,"88":0.06794128929019616,"89":-0.021508240720128073,"90":0.08095805001800446,"91":0.036238168599858386,"92":0.054105033862835786,"93":0.08320812794836899,"94":0.0752023583610499,"95":0.07470103535256876,"96":0.13231353467179052,"97":0.09258813277478592,"98":-0.1741969312673027,"99":0.0930819631230272,"100":0.011845075076939136,"101":-0.08089633653756546,"102":0.030104495275622957,"103":0.029159926982398315,"104":0.1908369056109717,"105":0.03233823172234523,"106":-0.028719876428293725,"107":-0.08223884879551807,"108":-0.06981717431086504,"109":0.08760516959866903,"110":0.0320652684692107,"111":0.038101497197515426,"112":0.0803396973066071,"113":0.17205284222874967,"114":0.0021278514267545506,"115":0.024709743011709296,"116":0.06271170937267877,"117":0.0957924438140681,"118":-0.031581816240074924,"119":0.015249114649676522,"120":-0.032841147471082306,"121":-0.16679415127220318,"122":0.14246477345140834,"123":0.012173696186685876,"124":-0.028015636470914287,"125":-0.03002619309642907,"126":-0.05523943398789308,"127":0.11142058605656303,"128":-0.07791596402761672,"129":0.07819752481989928,"130":-0.06744210847116448,"131":0.003276785648503361,"132":-0.01294344846223639,"133":-0.05558365143488929,"134":-0.07112745479417804,"135":0.045600219797448376,"136":0.015214792037253361,"137":0.0007525190351087563,"138":0.050812952091828435,"139":-0.005965071921565645,"140":0.04470413701831015,"141":-0.08698398596211825,"142":-0.02823908559334342,"143":-0.032512795391723436,"144":-0.03292377778847083,"145":-0.08586934488684995,"146":0.04868146348670719,"147":0.06208049309050423,"148":-0.1528178739622871,"149":0.08205455729363653,"150":0.06515252420715331,"151":0.027850005744633838,"152":-0.04776940548159031,"153":-0.025017351684648567,"154":0.029125935851708393,"155":0.05872072327862731,"156":-0.0028524096879366254,"157":-0.022970640418479245,"158":0.17556840759408615,"159":-0.02819427234138205,"160":-0.02031220458868832,"161":0.01837320467190685,"162":-0.1328059921913362,"163":0.06781793900350132,"164":-0.011170543019320944,"165":-0.008777722179544298,"166":0.01191520175773485,"167":0.1575737622013584,"168":-0.027298723795229404,"169":0.0387730854627999,"170":-0.019270673711282802,"171":0.12692527916077964,"172":-0.05717520055768108,"173":0.10306764482851043,"174":-0.08284930641918795,"175":-0.05409869583766919,"176":0.16680684290790734,"177":-0.049370808602671436,"178":-0.019544316499348395,"179":0.03201002704566467,"180":-0.02442195593524451,"181":0.14175643412780375,"182":0.013817759445074074,"183":-0.026480589299510592,"184":0.2441624165976288,"185":0.05262027050051278,"186":-0.21017243486364562,"187":-0.1333816596163668,"188":0.02853707495800092,"189":0.0781367774803236,"190":-0.027067779380586854,"191":0.06739739843760802,"192":-0.101506454923259,"193":0.11950214443603789,"194":0.1364097271532056,"195":0.04459124078031352,"196":0.029885976362556445,"197":0.0008796302878035336,"198":-0.09206671335684825,"199":-0.06946775798486492,"200":0.023543489442170464,"201":0.04433597520162122,"202":0.09256052780896083,"203":0.004100890860744284,"204":-0.02869660063142263,"205":0.016180016201777853,"206":0.05480670229428299,"207":-0.024863415789228648,"208":-0.0867405104187662,"209":0.0004324487894622333,"210":-0.12728500274880122,"211":0.08226898057035673,"212":0.1763287177550346,"213":-0.08078539933844874,"214":-0.03505467185673116,"215":-0.038060728964866085,"216":0.022068999971022317,"217":-0.017541970213228997,"218":0.06600055953499165,"219":-0.09485751765507668,"220":0.008910237009868116,"221":0.13703160311076434,"222":-0.062334085626246795,"223":-0.03578432119436807,"224":0.026612367385102465,"225":-0.08967575660586026,"226":-0.02122846346405658,"227":0.02098340983666081,"228":-0.044959896465340585,"229":0.034327924420008704,"230":-0.007019282798780031,"231":-0.10031543674521654,"232":-0.05565336797125893,"233":-0.06850236119648197,"234":0.08531605020734272,"235":-0.03662809237391404,"236":0.04238776315150161,"237":0.10989403919385546,"238":-0.0442643932553315,"239":0.052741704434380046,"240":-0.2090380292445384,"241":0.04627666176192355,"242":-0.10252114595065875,"243":0.11391159166117139,"244":-0.09323827732143627,"245":0.015368262256654315,"246":0.08029272439874474,"247":0.15621356997800565,"248":0.004764392742408278,"249":0.0314483219028986,"250":-0.07494371235977884,"251":-0.010618210117025835,"252":0.047803154691202374,"253":0.025416645492849076,"254":0.07963368844712271,"255":-0.004552398253415093,"256":-0.04359177086736116,"257":-0.15703534035358419,"258":0.02269388048183914,"259":-0.014490460854754214,"260":-0.023675184992259735,"261":-0.11201799047678362,"262":0.031938534925811286,"263":-0.042434645503666504,"264":0.005769878483323736,"265":-0.08896802487715515,"266":-0.12486882782682929,"267":-0.08975044641824134,"268":0.05545319435149814,"269":-0.014468279056739622}},{"sx":1,"sy":1,"depth":270,"w":{"0":-0.12959247579831165,"1":-0.11897249617383622,"2":-0.1356264338099133,"3":-0.05849068136924705,"4":-0.00733620966316893,"5":0.13547577229699026,"6":0.0656448455098634,"7":0.030102341354764063,"8":0.12003425793845952,"9":-0.0878686100857734,"10":0.0007030843884592887,"11":0.0408651750884574,"12":0.006446733040756044,"13":-0.02203916768945235,"14":0.10309787300007509,"15":0.0035629727393716826,"16":0.034871106252252294,"17":0.00916034774904958,"18":-0.0530833824481978,"19":-0.13948051397079203,"20":-0.018158918245329135,"21":-0.046183548865910556,"22":-0.02722944048301951,"23":0.012439380219782196,"24":-0.08239850825640098,"25":-0.03340553285473094,"26":-0.0879884430702262,"27":0.052107525573232776,"28":-0.013421560892444579,"29":-0.08304877046955332,"30":0.09671709523826838,"31":-0.03183786143913736,"32":0.11304939503027116,"33":-0.07857993484644528,"34":0.05915969880861407,"35":0.08267632854772208,"36":-0.07797597671000721,"37":-0.008445708898074538,"38":-0.02394426221940236,"39":-0.09801329331683371,"40":0.1149358473710332,"41":0.09603262740273172,"42":0.18915914179236631,"43":-0.0661470531188308,"44":0.0010988531466817188,"45":-0.11501518886837478,"46":-0.06292098732261048,"47":0.009427813227511635,"48":-0.13889120424471724,"49":0.037814280197191734,"50":0.10099788979218541,"51":-0.029666463659834406,"52":0.08972295872058456,"53":0.08210850079465878,"54":-0.07572177519993807,"55":-0.053549599095664396,"56":-0.1698967946138978,"57":-0.12890040676566666,"58":-0.1709406418582161,"59":0.034866959543776686,"60":0.013188290244433683,"61":0.02948408974995934,"62":-0.0378835058132764,"63":0.0073329159982151604,"64":-0.03360890261905229,"65":-0.011095552973365813,"66":-0.137315243232449,"67":-0.02983231700324594,"68":0.10444755791882036,"69":0.06896652405337211,"70":0.0372948766434734,"71":0.18002490952285605,"72":-0.0821728944767947,"73":-0.00905743298996372,"74":-0.12077461606275938,"75":-0.06734640283031298,"76":-0.11222034282650738,"77":0.15276163575406593,"78":0.007177363736841297,"79":0.07154501191492839,"80":-0.024328595242526122,"81":-0.06906762627944842,"82":-0.011691602834465175,"83":-0.13020742956977432,"84":-0.1379595956982691,"85":-0.14506750866417845,"86":0.13746481042617442,"87":-0.015240505956592815,"88":-0.05919891812511113,"89":-0.023585051554353142,"90":0.027379229938853795,"91":0.00853297190548165,"92":-0.13109143421605426,"93":-0.0986065341310159,"94":-0.07899913322032132,"95":0.10624502360720148,"96":-0.007198351427082943,"97":-0.011588484657034237,"98":0.03258676152244954,"99":0.03579084233983136,"100":-0.06582481073045275,"101":-0.13479186198169987,"102":-0.18166985923553802,"103":0.039953629980593694,"104":0.04927300256339821,"105":-0.018821510440737748,"106":-0.07388813337922798,"107":0.09436252761715995,"108":0.07065684493528752,"109":0.0356118368511562,"110":-0.12948342119282616,"111":-0.04334935406955729,"112":0.04070461544950706,"113":0.11275307512526409,"114":-0.005631980589086047,"115":0.045842854370245906,"116":0.17772517313772018,"117":0.02129104669300698,"118":-0.03917259571900306,"119":-0.02707469970288148,"120":-0.15594294766449512,"121":-0.22943133782686514,"122":0.23912324860224485,"123":0.023643463431313728,"124":-0.019901451639772742,"125":0.07140119128753455,"126":0.022069364501437698,"127":0.016641632657206612,"128":0.02905810691121292,"129":-0.05745265806854982,"130":-0.08876846532969014,"131":0.38319995957087616,"132":0.054463747325448016,"133":-0.013544265763437298,"134":0.05467103146291334,"135":0.05272002579575295,"136":0.009216547463067945,"137":-0.110250237830096,"138":-0.1164711118177573,"139":-0.21856734472773134,"140":0.3305797410358014,"141":-0.06583165578907162,"142":0.09168609156275755,"143":0.09007904628244297,"144":-0.008913540494007405,"145":0.004680485153314052,"146":-0.009693588846132908,"147":-0.17939239908710639,"148":-0.3359617489893054,"149":0.27803914451307093,"150":-0.05063351646877149,"151":-0.06978950901188073,"152":0.07753113681764466,"153":0.11741161678605903,"154":0.013628259756439583,"155":-0.03412114630788586,"156":-0.22275396518386423,"157":-0.08926575600159882,"158":0.2093055406970383,"159":-0.0656812144805351,"160":-0.00031799433708105387,"161":0.045403044975789605,"162":-0.022964713997838383,"163":0.11435512667746116,"164":-0.07858140207802947,"165":-0.19545695970448218,"166":-0.12103971960263392,"167":0.3015979780098968,"168":0.1455311284614155,"169":-0.00945690642141236,"170":0.06155931765806312,"171":-0.047531117741351166,"172":0.00035197102501674304,"173":-0.06563650425535973,"174":-0.014785678859085688,"175":0.0009062705766798319,"176":0.3181247162734823,"177":0.00811821605246195,"178":-0.0722896172204279,"179":0.10373371488056242,"180":0.10216302757778736,"181":-0.05982602644417776,"182":0.09412971658577765,"183":-0.025557308728175583,"184":-0.04162621174466495,"185":0.10344586870182025,"186":0.07716262433817853,"187":-0.05690371876018424,"188":0.10265236040990579,"189":0.04086597262698972,"190":0.015853949292719282,"191":-0.060118926725827096,"192":-0.09958206046965376,"193":0.003519587538249863,"194":0.4065171692085751,"195":0.02381601459412151,"196":0.0019298308926460244,"197":0.07401438403367147,"198":-0.04375106192062559,"199":-0.025652601393814863,"200":-0.08126906973267585,"201":-0.007601354875203995,"202":0.09734944935332024,"203":0.18973054316871601,"204":0.10260200430935466,"205":0.052184664364490714,"206":0.13981940275176202,"207":0.061725374528745436,"208":-0.05235398637325182,"209":-0.008107299860813688,"210":0.017469340988329304,"211":0.07846113537043174,"212":0.1765079435722569,"213":-0.03393682005034632,"214":0.013147443774908693,"215":0.13727628061509017,"216":-0.03600419141488594,"217":-0.026843187924400127,"218":0.07692393897431335,"219":-0.05970239843159077,"220":-0.006032617741049094,"221":0.10683134996772814,"222":-0.023320150515558104,"223":0.06079342118922094,"224":0.05911241879939934,"225":-0.11421668156795357,"226":0.07011818039207104,"227":0.06976923180131053,"228":0.1635811903521067,"229":-0.026740028931282786,"230":-0.011165894125941569,"231":0.05397445297397959,"232":-0.020119218498557,"233":-0.02374541379092381,"234":0.015358474932875853,"235":-0.08291704846038904,"236":0.09336682474853045,"237":0.14922555267872867,"238":-0.0038167205391794723,"239":-0.057312948730668466,"240":-0.07021825756594152,"241":-0.04305023275646618,"242":0.0996787509933735,"243":0.05300542195652335,"244":0.06763363087604811,"245":0.06603601961952517,"246":0.07656791815883891,"247":0.022486551897687137,"248":0.05293155228095869,"249":-0.025171202516109135,"250":0.04692241647508973,"251":0.02406797093524639,"252":-0.03299148014280345,"253":-0.033773950769492224,"254":0.03138132879161985,"255":0.005975763962604751,"256":-0.0013177979411332264,"257":0.07215963301931426,"258":-0.0635492648576134,"259":-0.06475431418216644,"260":0.10942100153099704,"261":-0.10699239065301197,"262":0.046656842830195056,"263":0.039020567834508496,"264":-0.05215380730442604,"265":0.01724471369335981,"266":0.056210882444962716,"267":-0.15941029452134126,"268":0.07596660871352562,"269":0.09216463821701018}},{"sx":1,"sy":1,"depth":270,"w":{"0":0.054334769505651526,"1":0.10905987220306747,"2":-0.007289246216750946,"3":-0.14414355856030725,"4":-0.16559279618049147,"5":-0.0521184989007096,"6":-0.06226524481736606,"7":-0.03228263440984847,"8":-0.00391955025087144,"9":0.04625622090666106,"10":0.061833797019535064,"11":-0.009669242426847819,"12":-0.11556648080257334,"13":-0.10092076700600654,"14":-0.045581027226262616,"15":0.024918493681063636,"16":-0.03185418861617461,"17":-0.0024189317303508727,"18":0.05322545514537424,"19":0.0554606909192539,"20":0.008159742242887713,"21":-0.08285134305185532,"22":-0.013080688033286112,"23":-0.0791665489536003,"24":-0.09069789798827034,"25":-0.03249145630351569,"26":-0.002297727995340514,"27":-0.02964654964260136,"28":0.05154952113421054,"29":-0.03173040298712907,"30":-0.12344506852123499,"31":-0.013706556792715834,"32":-0.03667349911137923,"33":-0.17760231286752162,"34":-0.03301105622228892,"35":-0.0024450425267198424,"36":0.06441817760726896,"37":0.060070834105862454,"38":-0.06326181136055757,"39":-0.10455902549838973,"40":-0.06869385089176527,"41":-0.0375951721780518,"42":-0.13914416766384266,"43":-0.03394125027943628,"44":-0.0023753813153093903,"45":-0.015628139339855754,"46":0.039817356194038644,"47":-0.04989535880714023,"48":-0.15955980826349453,"49":-0.06035921047898821,"50":-0.0035085375909914254,"51":-0.18472242185778914,"52":-0.03469335250004388,"53":-0.0038396256590995056,"54":-0.0072470925408366456,"55":0.07314403177007171,"56":-0.08956209436709943,"57":-0.10523151820190978,"58":-0.13623810816251808,"59":0.026675348202530376,"60":-0.05757890040691991,"61":-0.03264380598456915,"62":-0.004018703011182239,"63":-0.024392197626783473,"64":0.024676423783257642,"65":-0.0567148863150023,"66":-0.10974363183565286,"67":-0.11889990392769727,"68":-0.03300740444550757,"69":0.026558233881963628,"70":-0.03037930033185159,"71":-0.004724132768241814,"72":-0.056339922344450774,"73":0.03207899210342102,"74":-0.013182191584005354,"75":-0.10668928640434741,"76":-0.0668202929979991,"77":0.00005985562452610697,"78":-0.0500662466847094,"79":-0.01902785294827686,"80":-0.003746437712277277,"81":-0.009770653990716091,"82":0.03820321071502725,"83":-0.06998917311629325,"84":-0.018649380097446523,"85":-0.08736878876682874,"86":-0.013143138363106642,"87":-0.08014650125632468,"88":-0.019180369892405964,"89":-0.004107561718712306,"90":-0.014202860233747823,"91":-0.05307268799622081,"92":-0.049067666324543374,"93":-0.07490082160854242,"94":-0.06784678731225774,"95":0.009878391169661473,"96":-0.08265503642380226,"97":-0.019992909522523715,"98":-0.0035223347964779307,"99":0.01565393099606921,"100":0.011133874030693469,"101":0.009515793754109955,"102":-0.0531930892260869,"103":-0.005424297205456145,"104":0.044439607444269766,"105":-0.0803275839846113,"106":-0.02039688988740813,"107":-0.0027464630853139297,"108":0.022399690305474923,"109":0.013306983262899532,"110":0.02248536524609264,"111":-0.10436134317919464,"112":-0.026688603229515877,"113":0.040993208169850616,"114":-0.01969480963158532,"115":-0.03279983767148848,"116":-0.0030978339178930714,"117":-0.0011558395312558072,"118":-0.009724726463418694,"119":0.07503087028225737,"120":-0.007136933080593797,"121":0.024840138368574485,"122":0.019673412139272477,"123":-0.01975710881983858,"124":-0.03260014111684006,"125":-0.003980957570687863,"126":0.020251560622037736,"127":-0.02022170162968451,"128":0.07126650057691296,"129":-0.027973758369715006,"130":0.0814882112356087,"131":-0.010277598673918338,"132":0.03333523943987709,"133":-0.033722349860804475,"134":-0.0030925693931010507,"135":0.052929563024801216,"136":0.009882407897588671,"137":0.07241816831171324,"138":0.03044174029555052,"139":0.05629073434661176,"140":-0.014614699712208232,"141":-0.020631528677429692,"142":-0.02067121904070662,"143":-0.003682688268870932,"144":0.04585957210182085,"145":-0.010055061610239446,"146":0.029608671396945587,"147":0.04594879449791453,"148":0.06123208754166565,"149":-0.09935111728156638,"150":-0.04409781386742811,"151":-0.020804274421664805,"152":-0.0026561091159415123,"153":0.08642992410754538,"154":-0.009482560718517332,"155":0.0603297945465315,"156":0.007240528269534007,"157":0.07990799272031696,"158":-0.12005002160374498,"159":-0.0449369483620947,"160":-0.020970034816140036,"161":-0.0020382810660662747,"162":0.05153925662990327,"163":0.008924997589007552,"164":-0.007540475247074375,"165":0.037297644426618225,"166":0.0738385045449599,"167":-0.046986767148470235,"168":-0.017037461067925315,"169":-0.019910759300579423,"170":-0.002755972351429871,"171":0.07118965637484138,"172":-0.013270683384614235,"173":0.03557255841965563,"174":0.01983185503188669,"175":0.05982789314784185,"176":-0.08338873101548341,"177":-0.0200864718033439,"178":-0.03179159800272252,"179":-0.0026447160010599257,"180":0.047315557013419184,"181":0.01565004718254286,"182":0.0108955816168643,"183":0.09976192342720346,"184":-0.002453752177013252,"185":-0.040400293472370355,"186":-0.0831767011450859,"187":-0.03151795972492819,"188":-0.0026530231742194544,"189":0.018394651233762722,"190":0.02477289465186769,"191":0.07978598983769736,"192":0.026059000418420634,"193":0.0022610326861479384,"194":0.009495458579066177,"195":-0.03339157212722594,"196":-0.03137081856727433,"197":-0.0027314992434600226,"198":0.05934399949248141,"199":0.005932735616880153,"200":0.1571782992294439,"201":0.057125919542529977,"202":0.002501789633178959,"203":-0.037562084496162114,"204":-0.0696012412438562,"205":-0.0318942770196725,"206":-0.002564524930223328,"207":0.023587284740763666,"208":0.06403394159074609,"209":0.1456155773679976,"210":0.13789412830116146,"211":0.00071259035061822,"212":-0.06041298976288562,"213":-0.12490107001480984,"214":-0.03263111972621449,"215":-0.00328581349475724,"216":-0.016132661139692337,"217":0.028136015267199877,"218":0.1485423793314571,"219":0.07375272494595535,"220":0.06470993288820681,"221":-0.025436015670249106,"222":-0.000847611946103183,"223":-0.031609380448615255,"224":-0.003754854688517094,"225":0.028156458897580304,"226":0.02327799461708937,"227":0.07140896918549416,"228":0.04001122688771898,"229":0.05790516633410974,"230":0.012595483631743128,"231":-0.047681380422179835,"232":-0.030308092507422252,"233":-0.0037015249932682783,"234":-0.008218011161776662,"235":0.007349438153744325,"236":0.07195801305732148,"237":0.06923070595880221,"238":0.05853006207854628,"239":0.01862187393113084,"240":-0.08600595840291152,"241":-0.029600875444199905,"242":-0.0034957045015689492,"243":0.03738554007728679,"244":-0.0248280821635463,"245":0.03175654109225544,"246":0.0285798403489628,"247":0.027854029673284205,"248":0.048472304426196204,"249":0.0054493536667141575,"250":-0.029134858930811327,"251":-0.0032104915328324247,"252":0.04895907771922416,"253":-0.02156506213774567,"254":0.06751246034127328,"255":0.055488344926497145,"256":-0.001715989727761554,"257":0.05745218210757697,"258":-0.05141790298957163,"259":-0.029408760412401782,"260":-0.003464071240384354,"261":-0.012898370075332437,"262":-0.009436542858370863,"263":0.08636149058719382,"264":0.18149679236919586,"265":0.0281090122529695,"266":-0.03086512470114157,"267":-0.03146581127464083,"268":-0.030134515308392094,"269":-0.0029855534695647362}},{"sx":1,"sy":1,"depth":270,"w":{"0":-0.07223938496758348,"1":0.052004250091228325,"2":-0.003407195101581482,"3":0.015301139610687714,"4":0.06861467472057575,"5":0.11840146543650085,"6":0.10398308952708188,"7":-0.008678456811509938,"8":0.12259801024428288,"9":0.04495633347208164,"10":0.02111692593348596,"11":0.005631283008301637,"12":-0.04994652822746536,"13":0.0016865336197048081,"14":0.09112116161443462,"15":0.09383154557556951,"16":-0.08896542545058951,"17":0.0874392167703934,"18":0.18067690240335332,"19":0.04114396932835073,"20":0.01717249424938664,"21":-0.027393867865398488,"22":0.11298334542999183,"23":0.13584662926191637,"24":-0.0627160457981792,"25":0.016863297678697674,"26":-0.04711779517539785,"27":0.07041282256364434,"28":0.030641105530006773,"29":0.12168782355245557,"30":0.16603654437069337,"31":0.1390615229388962,"32":-0.017359165547720202,"33":-0.05881507813989438,"34":-0.07039744941470072,"35":0.051653779328740615,"36":0.023001713967803504,"37":-0.08312443022732159,"38":0.052457243483886605,"39":-0.022697331460604347,"40":0.11098817060523916,"41":0.012526139645293932,"42":-0.13415546945636356,"43":0.01306454323533204,"44":0.11746488454159597,"45":0.16607159071241495,"46":-0.009042416314969633,"47":0.10748796308058604,"48":-0.006619206941602458,"49":0.1006893336699723,"50":-0.043799277317237456,"51":-0.11340990580233651,"52":0.010453683382826042,"53":0.08209759868663849,"54":0.06367723794690938,"55":-0.06998287916855422,"56":0.0543822379358445,"57":-0.11654395282305378,"58":0.03367780481476571,"59":0.07657354613367472,"60":0.0478260145636995,"61":-0.04787621128881384,"62":0.0423204674888438,"63":0.049285871277988696,"64":-0.13126878042628135,"65":0.10114550764104763,"66":0.075668204839941,"67":0.02393051357998124,"68":0.048642740469807856,"69":0.14469416582121664,"70":0.11854191298916049,"71":-0.018571289999551734,"72":-0.03724492680201928,"73":0.051321377375658686,"74":-0.05654036017389223,"75":0.04808016237128289,"76":0.08558426110428169,"77":0.2030521211831535,"78":0.030915625838825223,"79":0.004790708917977083,"80":0.07679238343970175,"81":0.01774427523906792,"82":0.00106634200880296,"83":0.03612146207341007,"84":0.09596505226822047,"85":-0.0034833459676091223,"86":0.07189989702880725,"87":-0.07325519700154913,"88":-0.0787780700449324,"89":-0.04395176489233488,"90":0.03266635793192051,"91":0.035219327261847136,"92":0.041373777361419395,"93":0.10828299638098189,"94":0.03578879660004853,"95":0.08558027678559658,"96":0.07130397277606629,"97":0.04906815951067571,"98":0.12007827088756487,"99":0.0432453828613971,"100":0.07031565476559314,"101":-0.019200403970473057,"102":0.1301877679058979,"103":0.20466979051014425,"104":-0.09235729168940134,"105":-0.01741020162555736,"106":-0.016624529692745724,"107":-0.08115182187362302,"108":-0.10859051530555915,"109":-0.06376461981387338,"110":0.058129582858096315,"111":0.12622324953176253,"112":0.06524277802482488,"113":0.053716885545684344,"114":0.039889767603840616,"115":-0.03906509171608078,"116":0.08586365099628922,"117":-0.08816663803387195,"118":0.03474738708623258,"119":-0.10027065445934395,"120":0.0589642616877335,"121":-0.025285217524109834,"122":-0.14134847207185464,"123":0.04713875335115876,"124":0.05661466791588818,"125":0.09740242933933235,"126":0.019724741167364307,"127":0.01358583708804884,"128":0.004867369913858415,"129":0.012838212502973319,"130":-0.016697554793309085,"131":-0.08623509928844855,"132":-0.04273206216127978,"133":-0.08546508210210657,"134":0.2364782160129561,"135":-0.01761666757867094,"136":0.13056962002750813,"137":-0.08222629930480861,"138":0.05474606298746146,"139":-0.0249642410491028,"140":-0.06005528288699709,"141":0.08150003970116675,"142":0.030299495824995703,"143":0.21757147330810134,"144":0.06525538956388578,"145":-0.04666515812977068,"146":0.1107486333728334,"147":-0.10226333048683146,"148":0.03545564024616915,"149":-0.16168493062475622,"150":0.0837099738134185,"151":0.023128849454444628,"152":0.1555494511738548,"153":-0.041403526357401785,"154":0.0032018570007803938,"155":0.00677652346724337,"156":-0.18214950446827635,"157":0.1184054761202589,"158":-0.03811862934357339,"159":0.04932926875405113,"160":-0.032272588049407816,"161":0.06664609370482341,"162":0.03322833830330086,"163":-0.09368689044528615,"164":0.06504696558535412,"165":-0.18287438851651056,"166":0.05658935423023872,"167":-0.014302466220498546,"168":0.05644039115004146,"169":0.020909110299853335,"170":-0.025050161511095625,"171":-0.008475686076366824,"172":-0.029776225567823396,"173":0.08339005502978179,"174":-0.10679790320406712,"175":-0.006777179022403021,"176":-0.0014427105642050796,"177":0.03355829568858029,"178":-0.05222897799167085,"179":0.05973164512497744,"180":0.11680513585608396,"181":0.01609916955352196,"182":0.11715991703308143,"183":-0.02605142528509098,"184":-0.3735564782985839,"185":0.0980475521448554,"186":0.05324667704150347,"187":0.06210489072457382,"188":0.13603534875509543,"189":0.0633360352516808,"190":0.025513843517188786,"191":0.024595075432286232,"192":-0.07244449163003115,"193":-0.3070350021573482,"194":0.12402743412225246,"195":-0.00023551022992410103,"196":-0.08040054562789312,"197":0.021521783562119735,"198":0.07266426575097301,"199":0.05720727540247112,"200":0.03432602324557818,"201":-0.04666940777090976,"202":-0.30764274047452583,"203":0.06310963900750399,"204":0.05892103064780814,"205":-0.04667368895926035,"206":-0.08893630390003829,"207":0.1054667179554447,"208":0.06386876666965575,"209":0.03352782804089505,"210":0.006666065536276493,"211":-0.38301988650937396,"212":0.11061659585569932,"213":0.061600655627609385,"214":0.032297683814933975,"215":0.054836352828902146,"216":0.07652200586943253,"217":0.065388903101942,"218":-0.14909685872940182,"219":0.06958970098649732,"220":0.05869972219051513,"221":0.0822229202394607,"222":0.06421068414643143,"223":0.061082860929261795,"224":0.15610581620516423,"225":0.03508250520911205,"226":0.04088521959037504,"227":0.1435912919827526,"228":0.014222161629599285,"229":-0.11245788595533748,"230":0.0031517079020348805,"231":-0.027186201578817844,"232":0.07082266534649946,"233":0.12592694082185787,"234":0.06156201342179183,"235":0.18425307600058158,"236":0.06004029682095688,"237":0.031366670402824405,"238":-0.12230428840494861,"239":0.03594502367394018,"240":-0.0507154272873561,"241":0.009166038593204666,"242":0.10458126760458958,"243":0.10193952048414208,"244":0.09498681265515051,"245":0.08832704512872785,"246":0.014605391254233751,"247":-0.10277188101528847,"248":0.027273363615053954,"249":-0.04874384417037962,"250":-0.000030188185825065733,"251":0.062290867948128145,"252":0.1393904732241542,"253":0.04800437436028388,"254":0.08421915317767292,"255":0.04191366830204281,"256":-0.11873366826231017,"257":-0.05102135493672038,"258":0.04683531315884687,"259":0.08043048456875596,"260":0.09807437952388731,"261":0.048934393748852986,"262":0.08745683077425237,"263":0.055065510429762356,"264":0.04359301674537141,"265":0.043321382241274714,"266":0.05130344929941745,"267":0.021453447025370553,"268":-0.033737954380192545,"269":0.26153280211331414}},{"sx":1,"sy":1,"depth":270,"w":{"0":0.09463334344831566,"1":0.0054897835367223305,"2":-0.03712536874042069,"3":-0.05245336242999265,"4":-0.021344781236921764,"5":-0.0883605202915372,"6":0.07792517536622509,"7":0.07004750589148721,"8":-0.0016165604552750327,"9":-0.026055891179462724,"10":-0.0471164157720015,"11":-0.07551016475546743,"12":-0.18220485450414067,"13":-0.09688281052338978,"14":-0.11597348921751548,"15":-0.010266205018495105,"16":0.018144366117926147,"17":0.026951560398865336,"18":0.0534272602445383,"19":-0.003100485615164082,"20":0.024150451219815704,"21":0.04905815644913436,"22":0.045386702531972516,"23":0.039320452921363755,"24":-0.0006756098180620365,"25":0.06374113460231376,"26":0.0118945460090886,"27":0.07902737287776072,"28":-0.010594717176470016,"29":-0.07121064039127706,"30":-0.06997763574630338,"31":0.03803125826940146,"32":0.02744526304972067,"33":-0.1260437903436757,"34":-0.007567648306433501,"35":0.017600780915657605,"36":0.1520140816425743,"37":-0.009042173324616064,"38":-0.011851486273028811,"39":-0.06771125209026903,"40":0.013141525395999725,"41":0.006756852865863831,"42":0.003067452814123475,"43":0.007764208214040943,"44":0.017820861134781995,"45":0.14188320537585355,"46":-0.04602998411821801,"47":0.10982573188811993,"48":-0.0402595159980716,"49":-0.022224587824746928,"50":0.12560900501879915,"51":0.018080274277731328,"52":0.07283926747765365,"53":0.024239534096394,"54":0.010762792557672818,"55":0.03889376195259127,"56":0.0899762158747391,"57":-0.06858895228742788,"58":-0.024348281272362035,"59":0.04471382753836571,"60":0.07920217197119041,"61":0.0169360454634056,"62":0.02679837519457804,"63":0.07931918030473689,"64":-0.04420189291807183,"65":-0.006597911625825112,"66":0.03588754857613577,"67":-0.08095175477974452,"68":-0.023992893205738348,"69":-0.0037851603593705716,"70":0.0691624373070011,"71":0.0465730135240304,"72":-0.0362621910812387,"73":0.07348229989564668,"74":-0.023170755642068285,"75":0.035578921340607694,"76":-0.10245446746248792,"77":-0.014112693791901986,"78":0.030974188180092687,"79":0.018788926372649856,"80":0.044439303275129315,"81":0.06947666561835815,"82":0.0676422528606616,"83":-0.04707458626314719,"84":0.0019669811331303375,"85":-0.07433716614040728,"86":0.0449845308447371,"87":0.06871876383479805,"88":-0.04286290315785535,"89":0.0293925532383304,"90":0.13190085435172622,"91":-0.013649332343819098,"92":0.09429273744028031,"93":-0.22570889451438225,"94":0.01376042992919254,"95":0.04341931721307323,"96":-0.00651332573723859,"97":-0.007546762885478419,"98":0.07431071205509933,"99":0.0662082408337129,"100":0.025142751999213397,"101":0.005947952992158983,"102":-0.09491991030310762,"103":0.03536958132148176,"104":0.06557043107158607,"105":-0.002289403800169496,"106":-0.1320039659769859,"107":0.053312109991152934,"108":-0.04384591359883826,"109":0.09171971719260914,"110":0.09524558701861237,"111":-0.14948191517574824,"112":-0.04847051748503136,"113":0.16858823125012198,"114":-0.10639623852462801,"115":-0.0621131456216305,"116":0.04338153819833422,"117":-0.12060643071628452,"118":0.04531716480289825,"119":0.05004158502050911,"120":-0.1924061887381632,"121":-0.10361266680129344,"122":0.14866153937772852,"123":-0.04655325433932308,"124":0.023067099435075716,"125":0.05324845707653409,"126":-0.16884078746653536,"127":0.01680006303486003,"128":0.06721842416700165,"129":-0.07430521738218537,"130":-0.2282794012732924,"131":-0.09248458486301823,"132":-0.08053556469194934,"133":-0.03505630168061832,"134":0.025571746155717168,"135":-0.17816696293415585,"136":0.11944519344063516,"137":-0.001825285937665372,"138":0.018693045745521053,"139":-0.12038265060160006,"140":-0.1056546509906051,"141":-0.050200186807050136,"142":0.09778443509271521,"143":0.03468771593279583,"144":-0.08104245735552167,"145":0.007819642580689888,"146":0.038235781584742945,"147":-0.1267987893762518,"148":-0.08476226308581061,"149":-0.11645267634685773,"150":-0.10330645020228506,"151":0.06024018361572235,"152":0.04333346023783689,"153":0.02059138980666566,"154":0.1309269235600062,"155":0.10568351905911721,"156":0.06144429502939297,"157":-0.11960472323855868,"158":0.068996414157099,"159":-0.10064079093037293,"160":-0.0443443607191502,"161":0.03691156039283899,"162":0.03715552900837073,"163":0.14353102643456295,"164":0.028516561204003452,"165":0.08805942800898739,"166":-0.025276117448001238,"167":0.047531636058683706,"168":-0.03831380996451096,"169":0.07859850085877901,"170":0.02809186944582355,"171":0.045709863113106056,"172":0.06496919284898864,"173":0.13461199082503217,"174":0.23885561117128906,"175":0.020016718702079134,"176":-0.13619747359994852,"177":0.07134924458677855,"178":0.026732349522708292,"179":0.0047395398677434674,"180":-0.06280121218592004,"181":-0.011068684633541664,"182":0.046349028136175065,"183":0.13377652812800317,"184":-0.11103854129755748,"185":-0.08785307748528795,"186":0.09416824548020057,"187":0.0474578321525801,"188":-0.003696613343311982,"189":0.09069837533875982,"190":0.10200687976822656,"191":0.14937988898077004,"192":0.08791875552192004,"193":-0.15693328167465928,"194":-0.16045374027073542,"195":0.08904475704709339,"196":0.0690717857130663,"197":-0.020976296904143762,"198":0.06042346312673735,"199":0.1145051286266062,"200":0.17598331461822472,"201":0.2551336578660706,"202":-0.05323515462042123,"203":-0.17998416309786985,"204":0.015198696331588492,"205":0.06848096618612322,"206":-0.026866797918595094,"207":-0.039628547460713814,"208":0.09699822472429331,"209":0.04737714632773857,"210":0.14599991442803478,"211":-0.19506658927606862,"212":-0.07659813851137809,"213":0.12871382584767027,"214":0.037604137085413825,"215":-0.021188221757209108,"216":-0.03173988870145265,"217":-0.06402640963508768,"218":-0.007240214735643301,"219":0.2150340112407553,"220":-0.05544519157775637,"221":0.008771964418342045,"222":-0.03285926532118115,"223":0.0545696924113227,"224":-0.007419337464382898,"225":-0.006969011354728289,"226":-0.05196726700419792,"227":0.01951375140151094,"228":0.18930395343731898,"229":0.017142982186719568,"230":-0.07012616021110815,"231":-0.08611506014299725,"232":0.01437813360584807,"233":0.03478838160842305,"234":-0.04452978049710205,"235":0.04238483909448894,"236":0.013126433708550551,"237":0.1433618905283724,"238":0.01580437990655542,"239":-0.09673503213658996,"240":-0.08805676181779473,"241":0.013276794671310167,"242":0.06483317378907796,"243":0.11240440342968162,"244":0.0017819173826611981,"245":0.028590737233386034,"246":0.2421114347914694,"247":0.07128649047053563,"248":-0.07767111736796818,"249":0.013034882504176375,"250":0.0868901771284488,"251":0.07475130924176984,"252":0.20541913735845768,"253":-0.133770390540867,"254":-0.03860266688322992,"255":0.04976559586085347,"256":-0.011978607859970411,"257":0.06349884477895064,"258":0.025633054109055513,"259":0.0551633665944427,"260":0.06344830003272259,"261":-0.024073252073868543,"262":0.09986324532343041,"263":-0.09676033275309395,"264":-0.01339467440003062,"265":0.08547465562058766,"266":-0.035759049338151924,"267":0.011573770101023204,"268":0.07255516067074753,"269":0.053771305439610055}},{"sx":1,"sy":1,"depth":270,"w":{"0":-0.003256463133325694,"1":0.02608225088924926,"2":-0.007528958237869,"3":-0.0477313641131034,"4":-0.1887798344201315,"5":0.09635171241834276,"6":-0.0624285643446323,"7":0.17255327273148446,"8":0.023474754876198312,"9":0.10625604028849954,"10":0.05755884418430951,"11":0.04172678358669863,"12":-0.11218923191726535,"13":0.002931547259712733,"14":0.004317947939937306,"15":0.02042849489626682,"16":-0.035889100869553395,"17":-0.0660646812636717,"18":0.05589932385479178,"19":-0.03648582690407491,"20":-0.041490273799659166,"21":0.06629452834563809,"22":-0.040890981055859775,"23":0.07528554285888911,"24":-0.18917673475079372,"25":0.03991022870673886,"26":0.004503255549560427,"27":0.025791597904850735,"28":-0.01659050613569818,"29":0.08857846005952019,"30":-0.0948699153480071,"31":0.09124563843838868,"32":0.22588247747109683,"33":0.07203444807375643,"34":0.01931836156504394,"35":0.10636964049671199,"36":0.013068688357765342,"37":0.02493372470984308,"38":0.14467130905483672,"39":-0.06519668769428542,"40":-0.018363280906111782,"41":-0.020629549767120163,"42":0.003966754018086631,"43":0.054124788525407544,"44":0.024239748635549126,"45":0.13601260479867172,"46":-0.0741077748107812,"47":0.0009414556689629758,"48":-0.04678074915975952,"49":0.02001818535368027,"50":0.028421089926238045,"51":0.0200514594928853,"52":0.020318053648073278,"53":0.021242343220777806,"54":0.08596131608742197,"55":0.04094059176531486,"56":0.044763456856336946,"57":-0.06330264268787365,"58":0.019739972654042752,"59":-0.056546676455598785,"60":0.04354125205710053,"61":-0.033731015976453727,"62":-0.017711174965690534,"63":0.035905398943805615,"64":-0.04570200525690741,"65":-0.08460580098983811,"66":0.025306738553887927,"67":0.0406519236417361,"68":-0.04255620703813495,"69":0.07149672801587478,"70":-0.01669952539227623,"71":0.04345980222423073,"72":0.07693564493630749,"73":-0.0014571376636479628,"74":0.08502206666464486,"75":-0.09138451717401103,"76":-0.008512192458089807,"77":0.020395175477984,"78":0.017427055689411764,"79":0.1355759464780369,"80":0.07854381209833383,"81":0.0016216679782586317,"82":0.054015213927565094,"83":0.1287300764187363,"84":-0.0832842878190978,"85":-0.09805030513217672,"86":0.007518203109590842,"87":0.00200923239401297,"88":-0.006823209358890041,"89":0.0013371447737372992,"90":0.06928699406301014,"91":0.01677147939434217,"92":0.01999297826096515,"93":-0.04550603834087192,"94":-0.06630226804680912,"95":-0.1305167943484417,"96":0.02132301906952917,"97":0.10804631148907926,"98":0.005997592582541088,"99":0.1153225907577065,"100":-0.03164730188024714,"101":0.11260844178933212,"102":0.05227171536192785,"103":-0.19048002953705764,"104":0.15951784816608133,"105":0.0664487598270409,"106":0.004517198894791993,"107":-0.103448708082188,"108":-0.027134504740570237,"109":0.12341152821380348,"110":0.06448202060109483,"111":-0.003190008691481229,"112":-0.0028741262194900484,"113":0.02362443770629886,"114":-0.08254316724122235,"115":-0.02086748977280202,"116":0.018943585114082766,"117":-0.004693828176470737,"118":0.04115534331024408,"119":0.07021661096864562,"120":-0.11984748553955656,"121":-0.2794534341206488,"122":-0.04125875878895563,"123":-0.05543806831806053,"124":0.06223034925913222,"125":0.07700988161478071,"126":-0.10628953470190261,"127":0.07241885529405011,"128":-0.05847684190346151,"129":-0.16260389973970327,"130":-0.3242737979844067,"131":0.09823953346585086,"132":0.008284610366029725,"133":-0.06675103953790855,"134":0.15407230632099878,"135":-0.0048438681033829934,"136":0.025854970094654706,"137":-0.00777907772115234,"138":-0.22604214814283838,"139":-0.21076127288509686,"140":-0.016410403629040775,"141":0.08673719281159169,"142":0.00531526270040612,"143":0.029486436694892225,"144":0.14415179447102935,"145":-0.07010973084202994,"146":-0.049586582164732204,"147":-0.07547379696498495,"148":-0.22552719686732559,"149":0.08749582682526208,"150":0.03134895038312354,"151":-0.1364229545692452,"152":-0.0005245824132324548,"153":0.03278728019753435,"154":-0.010856439850341352,"155":0.06125028015691477,"156":-0.13999798801602562,"157":0.047699568282906786,"158":-0.05900358864414741,"159":0.09396186813299146,"160":-0.01971583483588092,"161":0.07272219846963712,"162":-0.10443638905850279,"163":0.010395683137520569,"164":0.02481459375064958,"165":-0.08513049454899235,"166":0.10516734446891535,"167":0.059463515011225286,"168":-0.016783082884677277,"169":0.1579247165530821,"170":-0.05498716114902202,"171":-0.0035974961642219073,"172":0.0017509926798835948,"173":0.034385981564689576,"174":-0.12707263194456223,"175":0.020833605882299835,"176":0.0341656872533152,"177":0.051660088752031555,"178":-0.022162207905662878,"179":0.036706453864461676,"180":0.04960164546340657,"181":0.08422925716131217,"182":0.08985958720031918,"183":-0.08803799690691157,"184":-0.09709362908868273,"185":0.036106450502272444,"186":-0.01885394110063074,"187":-0.05685611081252893,"188":0.06436166748741393,"189":0.0312943144596061,"190":-0.03015347543229563,"191":0.006005220558514777,"192":-0.010940551824531877,"193":0.07422169931817964,"194":-0.018215741750097506,"195":-0.1515155524995526,"196":0.032718609831265004,"197":-0.08273229565545141,"198":0.05116519436869603,"199":0.10334705124120798,"200":0.0880803587226653,"201":-0.09124058369390453,"202":0.09460398950297699,"203":0.11414770881335345,"204":-0.04487882735816701,"205":-0.05094445981177758,"206":-0.058233128655976865,"207":-0.02762008427264975,"208":0.10252203607910805,"209":0.018809345379226985,"210":-0.0014071074685743847,"211":0.013012906746177447,"212":-0.000015954309998446946,"213":0.01793966161967873,"214":0.013807180529428958,"215":0.06489420344474013,"216":0.020332088082806607,"217":0.07852950451255665,"218":0.012388848969477645,"219":0.11561101337950865,"220":0.0742500160331715,"221":0.06295298595983237,"222":-0.0032563122229839307,"223":0.06773353520021488,"224":-0.042945354385501885,"225":0.05165518216403964,"226":0.1124527447956837,"227":0.11011117797514712,"228":-0.013611611735887994,"229":-0.057005316711664054,"230":0.030002933147487136,"231":-0.08113328498223352,"232":-0.08877585332615015,"233":-0.0002806030442175239,"234":0.03406741064780688,"235":0.05945749830717469,"236":0.15388909405326695,"237":0.011680294241042775,"238":0.1509913390411431,"239":0.057668230638104855,"240":-0.00004206243155346449,"241":-0.042531408640333494,"242":0.05334415341380347,"243":0.06330923531379805,"244":-0.058186349040709705,"245":0.09950516460820176,"246":-0.026003806663990672,"247":0.1310648321767129,"248":0.002863331103493579,"249":0.07369552055906606,"250":0.06682151419914598,"251":-0.07978778487245312,"252":0.06889528836386219,"253":0.042526084854768914,"254":0.08911469955071646,"255":0.19455173840948706,"256":0.22993216262819516,"257":-0.017205356262163136,"258":0.011978167556800293,"259":-0.10826621334631423,"260":0.05836559862629068,"261":0.05441404397905106,"262":0.06143926495033153,"263":0.08279985528600142,"264":0.051586279237287404,"265":0.12296767761832662,"266":0.06297907120282614,"267":0.09796472173859824,"268":0.07536919119784062,"269":0.20964699669891335}},{"sx":1,"sy":1,"depth":270,"w":{"0":0.04523075652176925,"1":-0.10427426465209216,"2":-0.00861864265399041,"3":0.13242738704009818,"4":0.0925131045902052,"5":0.020107579220008668,"6":0.00547917511644358,"7":-0.05965746716789578,"8":0.04031151341054043,"9":-0.14185169221533803,"10":0.057527735579986486,"11":0.11342653385105178,"12":-0.05601316949971681,"13":-0.03114359650209128,"14":-0.054066908548871216,"15":-0.01947066365550232,"16":-0.04756415201505899,"17":-0.048806625104422185,"18":-0.15031094438039133,"19":0.03858668539710826,"20":0.09702796772488592,"21":0.12829310791251589,"22":0.07967050508492697,"23":0.06716814825673696,"24":0.02343801996642157,"25":0.13104345908009873,"26":-0.047292771220241454,"27":0.01347760169129623,"28":0.0517212059362782,"29":-0.03955164613038221,"30":0.01836617380499284,"31":-0.018111072863166003,"32":0.10828967731280796,"33":-0.0077047884166006764,"34":0.031517471626890566,"35":-0.0910733007165125,"36":-0.018877159200013014,"37":0.08789339009191727,"38":0.006716031359471693,"39":-0.009781766225182401,"40":0.0692262387867196,"41":0.010367317741921877,"42":-0.10874127437433656,"43":0.0700075620366978,"44":-0.019636887590691248,"45":-0.12107151738879833,"46":0.017900939911817584,"47":0.09122805766118207,"48":-0.028177987068570654,"49":0.0014545048754851361,"50":-0.04049116498076611,"51":0.006161327462147888,"52":-0.06056044022875105,"53":-0.08593532559666467,"54":0.026364115311734722,"55":-0.06775697425020837,"56":0.006819855254822509,"57":0.06659444220762269,"58":0.09006826047022468,"59":0.024164686696972797,"60":0.05761965550850803,"61":-0.03050304987244049,"62":-0.1184108755709588,"63":0.1038032142918404,"64":-0.03793488273620312,"65":-0.003928353974111993,"66":0.09341072838083812,"67":0.028315209496529152,"68":0.04970128019954275,"69":-0.10120778533022003,"70":0.017576607647547676,"71":-0.09948213612200604,"72":0.037572918825345386,"73":0.07421832364768342,"74":0.05463100202500958,"75":-0.04245831102233793,"76":0.06270265850645643,"77":-0.02253718695493683,"78":0.006151876637748737,"79":-0.07512665692104933,"80":-0.013110043519736159,"81":0.097078377690286,"82":-0.03523670831690079,"83":0.08602687920810476,"84":0.052430949328320486,"85":-0.03171182727884121,"86":-0.01641033232224273,"87":-0.061610341373059846,"88":0.02092088648210465,"89":0.0390597244051076,"90":0.08380757881696632,"91":-0.11891649625289838,"92":-0.007840835235253685,"93":0.06780613268754015,"94":0.06404212223553798,"95":0.10405547357486887,"96":0.061622521520867196,"97":0.048737653107487636,"98":-0.07686325911218872,"99":-0.006074143658999187,"100":-0.05844864765319199,"101":-0.05160261119781842,"102":0.02054363352777451,"103":0.13784242743499775,"104":0.1041576895371278,"105":-0.08456840298198649,"106":0.04787389335788952,"107":-0.01609087628981982,"108":-0.010942907010999056,"109":-0.061416679092788515,"110":0.009933006092344444,"111":0.12028253943920375,"112":0.19759157384675424,"113":0.02086899768865676,"114":-0.06155640143770351,"115":-0.022785961604601127,"116":0.0032455241404777896,"117":-0.09019789737335385,"118":0.04720226531593169,"119":-0.05631517230123456,"120":0.006873342331239243,"121":0.24779203918527937,"122":0.06878833513972755,"123":-0.05670028095509564,"124":0.07881450538549793,"125":-0.12996231253977017,"126":-0.000787210350498112,"127":-0.05956195378445229,"128":-0.051249987460571855,"129":-0.1188957279841933,"130":0.11514917136537235,"131":-0.02400097699968835,"132":0.01363650883087527,"133":-0.026176790464027183,"134":-0.12985357572354744,"135":-0.03550102676926726,"136":-0.16285067348959223,"137":0.013710207053526756,"138":0.07467509919641573,"139":0.031291403613554064,"140":0.13186678738506794,"141":-0.027805873855498896,"142":-0.014279277970665378,"143":0.05367073335975604,"144":-0.014452780831754877,"145":0.006578399475196806,"146":-0.009545082299234309,"147":0.14145431725626126,"148":-0.05028259669000221,"149":-0.10974688178870338,"150":0.07480897997427693,"151":-0.013012472778670995,"152":-0.014487182709779124,"153":-0.039392882535427436,"154":-0.10657279316352507,"155":0.06117638041062594,"156":0.11590028917745396,"157":-0.06194954611277888,"158":-0.08476826919793592,"159":-0.11173834272737326,"160":-0.03576236617340733,"161":0.0028474523319226906,"162":0.0404640065922636,"163":-0.07270877397280978,"164":0.05461915544967916,"165":0.06000635337327512,"166":-0.10289290411546498,"167":-0.042449835497026724,"168":0.000048276521745118894,"169":0.01624874554135602,"170":-0.054541275191081345,"171":-0.1335803705073484,"172":0.045464146951957,"173":0.02097215628801982,"174":0.0022329100636093494,"175":0.0005966788339896925,"176":-0.05394400175683101,"177":0.03204217948455421,"178":-0.004399666612715713,"179":-0.020809852127864355,"180":-0.006197168148273561,"181":-0.03853330948971707,"182":0.11441904331755544,"183":-0.00981343767262202,"184":0.0966313931145919,"185":0.03076317602237105,"186":0.0035395968998448656,"187":0.03750023017764824,"188":-0.1487290453186183,"189":0.0909996128500354,"190":-0.07355791112952961,"191":-0.08649847036354578,"192":0.039144905383102335,"193":0.15117128933530358,"194":-0.014591873025266305,"195":-0.09234789513122964,"196":0.04106260045434427,"197":-0.04723049225628535,"198":0.06237442517173312,"199":-0.04360400270416623,"200":-0.11521790074620852,"201":0.13917370665685416,"202":0.07086894236034778,"203":-0.08690778501491227,"204":-0.02564601178006804,"205":-0.11800860524015458,"206":-0.08133468066324237,"207":-0.09565629953827445,"208":-0.10226952982397029,"209":0.021744205426255856,"210":-0.04512993566665453,"211":0.07085199060104701,"212":-0.14841556697395794,"213":-0.0444683963878511,"214":-0.014615896336016355,"215":-0.05458845208435096,"216":-0.06248007292371824,"217":-0.08584236047860251,"218":-0.021823711070745384,"219":-0.06072701664052351,"220":0.008459816641690166,"221":-0.036704318905406264,"222":0.01590258587690898,"223":-0.008421741536037343,"224":0.13796008844620444,"225":-0.04305553628558206,"226":-0.07045211507622624,"227":-0.018936662133988213,"228":0.021682415089832142,"229":-0.18837806326559794,"230":-0.016771031016395342,"231":-0.07617880116259435,"232":-0.08870459885583247,"233":0.020130610060684135,"234":0.025906591388620098,"235":-0.09176699237212368,"236":0.11131460886586005,"237":0.004582517497090641,"238":-0.06462268396141667,"239":-0.07593310893975921,"240":-0.04121121841042779,"241":-0.004155488640129946,"242":-0.12401135413114078,"243":-0.052497549471201256,"244":-0.04125396010791596,"245":-0.018134340235373397,"246":0.0012229602540670547,"247":0.00601111215495422,"248":0.04900200684281542,"249":-0.021402910836597438,"250":-0.0017329024172384024,"251":-0.0027283438833127713,"252":0.06340195753080521,"253":-0.07616479172280258,"254":0.046272853748277505,"255":-0.10029168734024509,"256":-0.008865135051766233,"257":0.08694309214758086,"258":-0.07650291223222917,"259":0.036657358531248706,"260":-0.025982382684813475,"261":0.09998029964797504,"262":0.08130663015442188,"263":0.045591469260510435,"264":-0.007474410437769075,"265":-0.08530721138135414,"266":-0.04268139965806184,"267":0.014470104682428578,"268":-0.11627864665496807,"269":-0.07783892709870902}},{"sx":1,"sy":1,"depth":270,"w":{"0":-0.0022429848858789604,"1":0.052092494926044744,"2":-0.03135716859617966,"3":0.1745425170925756,"4":-0.0951078380546871,"5":-0.03725756039990552,"6":-0.05455419271428016,"7":0.12210551665842014,"8":0.08268120275131727,"9":0.13320053445437333,"10":0.11348466825026804,"11":0.008552371426039623,"12":0.10413553139352309,"13":0.028391495405404598,"14":-0.02455326055281608,"15":0.055463162890595406,"16":0.10457458334849808,"17":0.056427404536584,"18":-0.04233896883064059,"19":0.08285767746436055,"20":-0.03294674853253887,"21":-0.010953105656302706,"22":0.049944423794105464,"23":-0.12149000143237489,"24":0.027791843622040954,"25":0.11463067326947377,"26":-0.04356835175279741,"27":0.07981982636430889,"28":0.013370452038829167,"29":0.10225336020021474,"30":0.1983157699393803,"31":0.07554795153971217,"32":-0.07404671145941547,"33":0.09139959126204959,"34":0.0039628879898148854,"35":-0.07976041996362657,"36":0.10923249378941854,"37":-0.010007950242215246,"38":0.13129362025429694,"39":0.210965082907824,"40":0.09386709327839945,"41":-0.10066206856237067,"42":0.0288013390262172,"43":-0.03202413188418825,"44":-0.031420677553892815,"45":0.0048936135063955884,"46":0.10368181753852347,"47":-0.0211212110533479,"48":0.0450938593363848,"49":0.055499330087216664,"50":-0.04862937084839717,"51":-0.1307191050007065,"52":-0.07343223235257397,"53":0.030392145452535078,"54":0.03777473389285784,"55":0.08806696484750451,"56":-0.016617011689014177,"57":0.010290805072418733,"58":0.09712878665510016,"59":-0.10509775382390638,"60":-0.05325624950680876,"61":-0.011927507410702212,"62":-0.0392485452730509,"63":-0.029900393576203093,"64":0.08116549955781706,"65":0.09166110386926252,"66":0.13383457146576333,"67":0.05167258643477547,"68":-0.009822191932631629,"69":-0.08312940078315115,"70":-0.031176546671161258,"71":0.057912662654500194,"72":-0.07510509558072861,"73":0.01974985831292518,"74":-0.10961323857937315,"75":0.1980766450724356,"76":0.058261583005920284,"77":-0.03568856833972838,"78":-0.0637016799253623,"79":-0.029322919730047033,"80":-0.07243000347741405,"81":-0.0459431515098506,"82":0.008875002259283766,"83":-0.017049247872971095,"84":0.049527764824673484,"85":-0.040941152362338716,"86":-0.03773469525394887,"87":-0.08338014498920128,"88":0.11477670411325633,"89":-0.0685635758953296,"90":0.031557712317345325,"91":0.03906190149448642,"92":0.06574019601100872,"93":0.17232046894439665,"94":-0.022250621919091343,"95":-0.13428691244597749,"96":-0.005822569348654587,"97":0.10278326613086325,"98":-0.1446667320934901,"99":0.07739092476501838,"100":-0.15286665122048515,"101":-0.04452413038388774,"102":0.1851865038824059,"103":0.09878878449445701,"104":-0.07926761018539091,"105":0.05371596341153047,"106":0.03580062960780473,"107":-0.05878565877342663,"108":-0.02297512366603185,"109":0.02284144661111942,"110":-0.0007950504642053981,"111":0.05162252120297636,"112":0.2177385326338674,"113":-0.2173940686341416,"114":-0.01601604256567102,"115":-0.01609840506020651,"116":-0.026755188632688297,"117":0.01032203688547769,"118":-0.03877955960240419,"119":-0.03495663549965953,"120":-0.002915344300835996,"121":0.23746090503266018,"122":-0.12026415567169578,"123":0.03013662867439869,"124":-0.003912390340894553,"125":0.019581599046384002,"126":-0.06109727690215941,"127":0.060426243537035886,"128":-0.012854811665000361,"129":-0.029747736620054168,"130":0.037008073365741065,"131":-0.1738573485293266,"132":-0.0016949917505319288,"133":-0.06354839727019523,"134":0.13599006309533024,"135":0.003530232525465335,"136":0.09074071015698944,"137":-0.010292365622626731,"138":0.1530103484082349,"139":0.0621920214942554,"140":-0.15444510717814997,"141":-0.06178481840361736,"142":-0.017684759144997467,"143":0.002841760178537749,"144":0.05166741962788542,"145":-0.056766915607540144,"146":0.0020100576767101367,"147":0.13253721010385866,"148":-0.047514220841300324,"149":-0.2814116190260687,"150":0.021584112717657807,"151":0.19756145367275407,"152":0.017264172578485455,"153":0.0234015203964924,"154":0.047869800042203085,"155":0.0009123781185198668,"156":0.21748283972272203,"157":-0.055831762882545405,"158":-0.11371601395729712,"159":0.03778999633046379,"160":0.09673385615724704,"161":0.008167852701283803,"162":0.0381702968111055,"163":0.009577255500221494,"164":0.060033065572801615,"165":0.22137494935715438,"166":-0.04307345061125963,"167":-0.12668894231247116,"168":0.038354073475086806,"169":-0.057748288072598845,"170":-0.052246012910726496,"171":0.0008275124639428508,"172":-0.006109945238153797,"173":-0.003983884584122683,"174":0.15981170004385625,"175":-0.011699342233734993,"176":-0.19934354718944297,"177":0.020357903974933263,"178":-0.018254857001657587,"179":-0.10867986966187111,"180":-0.11453550362320541,"181":0.10587183658820908,"182":0.01613176874795792,"183":0.08100571422501862,"184":0.11243256273334015,"185":-0.07936706931584882,"186":0.002060186257106964,"187":0.13472592636423894,"188":-0.022642977472780736,"189":-0.06890491348690309,"190":-0.018247570450144964,"191":-0.07333704005782216,"192":0.0960310664582485,"193":0.0285523884611311,"194":-0.1365383390269967,"195":-0.018050566150243044,"196":0.08435146774571262,"197":-0.0020071157898081953,"198":0.013446070876774404,"199":-0.02065996822816852,"200":-0.05156852366946239,"201":0.04110693509240579,"202":0.08185655232309291,"203":-0.04045637360960209,"204":-0.14715504977102517,"205":0.013774540314769296,"206":-0.04378980021736503,"207":0.052186115643675764,"208":-0.03287082291339001,"209":0.009848359854524544,"210":0.06298857273629777,"211":-0.03424210905374073,"212":-0.10852608553639378,"213":0.09889995501444449,"214":0.03354948677370478,"215":0.008073207927779541,"216":0.0499690838460512,"217":-0.02603862257157329,"218":0.006656353832033304,"219":0.007171538435648498,"220":-0.027861169131133144,"221":-0.0034476255677127927,"222":0.034693841245054535,"223":0.017156068858588072,"224":-0.07213276852540951,"225":0.013465424987553543,"226":0.05022890427402464,"227":-0.02589485667400347,"228":0.023152312437481358,"229":0.03198935482656797,"230":0.0043319390600129746,"231":0.1450478979274167,"232":0.03036262270449679,"233":-0.16631173218975337,"234":0.0017050737025506918,"235":0.01625114020436285,"236":0.040599319630795654,"237":-0.044061192522436614,"238":-0.02094679821639614,"239":0.038789143057227186,"240":-0.03441693492280934,"241":0.1127334880510725,"242":-0.05804261995778258,"243":0.009274774333358117,"244":0.061171763337232475,"245":0.04216644651768303,"246":0.011420737152067458,"247":-0.037665507577059706,"248":0.053068567211848564,"249":0.15243259826558433,"250":0.07850172899234312,"251":0.00795901591269758,"252":0.002077354994140793,"253":0.10021883155070409,"254":-0.0677593647197662,"255":-0.041937213357111175,"256":0.09290847869450568,"257":0.05323798231097724,"258":0.07601936965001224,"259":0.032465468366838564,"260":-0.027887493030992895,"261":0.048670858357531835,"262":-0.0323115581891428,"263":-0.06196969777208988,"264":0.0033392469288073623,"265":0.06291376105135053,"266":-0.05408318482455072,"267":0.07432103972721706,"268":-0.03181847108539929,"269":-0.02735997180729948}},{"sx":1,"sy":1,"depth":270,"w":{"0":0.04895971722365015,"1":-0.031224697846242783,"2":-0.03133294552189472,"3":0.04510679560710205,"4":-0.016829871489122596,"5":-0.054387932025815176,"6":-0.07892244902494945,"7":0.05258505686712376,"8":-0.01011564596470862,"9":-0.03848771270042193,"10":-0.01676948904202843,"11":-0.002591768763774896,"12":0.021669886682911563,"13":0.04928114874714442,"14":-0.009160643987324892,"15":0.007979854781202065,"16":0.008708201561749373,"17":0.023391131525683083,"18":-0.021926383985536504,"19":-0.0917621404142005,"20":-0.04911373874408226,"21":-0.024620603885019042,"22":-0.03227846361101072,"23":0.01883700106475057,"24":-0.031529590819968624,"25":0.015493326972897362,"26":0.04711574773222763,"27":-0.029257162755633535,"28":-0.0632383747378748,"29":-0.034615129749563336,"30":-0.12873496501080525,"31":0.0598016546632784,"32":-0.005326080533514462,"33":0.03604661130181763,"34":0.00993393661932208,"35":0.07221578047173532,"36":0.033187616053914286,"37":-0.037923918450044246,"38":-0.03145335039667746,"39":-0.044714462241323166,"40":-0.0075217159180519105,"41":0.05936140593719595,"42":0.04190533744049429,"43":-0.010418287734980295,"44":0.010494549598732306,"45":0.008859959192272483,"46":-0.010168131775265708,"47":-0.055479825311190174,"48":0.0443204564697381,"49":-0.035461176211502445,"50":-0.020056423076576534,"51":-0.03616206117549963,"52":-0.03219744597788251,"53":0.056193095206613884,"54":0.01058325467347756,"55":-0.049947084979971086,"56":-0.08016214084997432,"57":-0.05559090544350917,"58":0.022513938548300153,"59":0.0016465441846708643,"60":-0.03947110805657204,"61":-0.02462743443489548,"62":0.03563598572429716,"63":-0.016219306627190528,"64":-0.002422364470184337,"65":-0.05915365273415316,"66":-0.06983777687341003,"67":-0.001775561176863062,"68":-0.020256629389323134,"69":-0.02347774526657145,"70":-0.013904730122842976,"71":0.07273325957651167,"72":-0.05394018248196817,"73":-0.0899602244016335,"74":-0.08511704675243992,"75":-0.07628014117150951,"76":0.040757113541577836,"77":-0.14519302923847752,"78":-0.03607925620613129,"79":0.026000741401718448,"80":0.10172676110127944,"81":0.06460586015819157,"82":-0.1416527115114568,"83":-0.017568792366482632,"84":-0.04205611383952843,"85":0.023656928469362126,"86":-0.10413869189979764,"87":-0.011089141635781893,"88":0.051818430332896695,"89":0.013531945848465298,"90":-0.0117380294112049,"91":-0.06922762337308394,"92":-0.0007071053405582472,"93":-0.02453277535396258,"94":0.08335576930935629,"95":-0.011217939703864777,"96":-0.01741668316892013,"97":0.11615668567299905,"98":0.03426826368198026,"99":0.04611724111987829,"100":-0.0740377326774771,"101":-0.005973069440870612,"102":-0.028225201950450765,"103":0.13045966056300637,"104":-0.060518349503474476,"105":-0.007481185243435014,"106":0.03700983495731218,"107":0.06950794158469063,"108":0.059772304361269936,"109":-0.005686346723052967,"110":-0.037539257812869896,"111":-0.010416729183452895,"112":0.2208244639606178,"113":0.006897834006013756,"114":0.010349489432769471,"115":0.029400748662238244,"116":0.0427883255187915,"117":0.000011987605441204162,"118":-0.03057198487592894,"119":-0.037528814615173246,"120":0.01446177162487834,"121":0.12632211434856308,"122":-0.06756612056562686,"123":-0.06260521027168547,"124":0.05082248705739245,"125":0.0488256764282705,"126":0.06009233804429657,"127":-0.11757117641738815,"128":0.006644833254842092,"129":-0.04569571780990373,"130":0.07171778695336144,"131":-0.1684786980853485,"132":-0.02685419470603703,"133":0.034955901155954906,"134":0.07449251336337766,"135":0.07249715436649731,"136":-0.1783633151437043,"137":0.06284729364316152,"138":-0.07843324338205328,"139":0.05518104840947026,"140":-0.1695184114905717,"141":0.003474999978941552,"142":0.09835427186368502,"143":0.05318199683851371,"144":0.10061965269267745,"145":-0.11730580961547316,"146":-0.006817142459432168,"147":-0.035757271086672475,"148":-0.023035119956857194,"149":-0.1721344139403679,"150":0.0013955898543708259,"151":0.00043387992671444745,"152":0.032600022613066215,"153":0.04249809121946817,"154":-0.0695759864623653,"155":0.042272549134241943,"156":-0.023884898435082402,"157":0.13742801488329007,"158":-0.1557164427740874,"159":0.012348833090631115,"160":0.05286219171627617,"161":-0.0054650373291405575,"162":0.023694430885388907,"163":0.02284935950348751,"164":-0.044013872583330386,"165":0.07021133264467788,"166":0.12526916878828173,"167":-0.2530466922241792,"168":0.013720484180953705,"169":0.09138416502869727,"170":-0.005249318141339593,"171":0.07370393659719439,"172":0.0006660535771618371,"173":-0.07550418820167905,"174":0.1355592185111535,"175":0.11454553480337193,"176":-0.18120836447719632,"177":-0.020713432020278682,"178":0.031581109876528284,"179":0.05034407013461071,"180":-0.00760646023111637,"181":0.03368815866805058,"182":0.03529178385827141,"183":0.14495006669141228,"184":0.03987248296927108,"185":-0.18759088854593634,"186":0.02782741070962759,"187":-0.013297132902499993,"188":0.06634645757263166,"189":0.05278644108254486,"190":0.027407950585361773,"191":-0.108986761696533,"192":0.057686711412543404,"193":0.038986078528083924,"194":-0.12440623831003349,"195":0.01096464821210004,"196":0.024899188769539927,"197":0.06949940950541551,"198":0.04886335560306792,"199":-0.010746983040372651,"200":-0.030517645462595677,"201":0.04392087348253519,"202":0.006586090119759075,"203":-0.07751398306949207,"204":0.04738865218251876,"205":-0.0033533187184295768,"206":0.059890397153401796,"207":0.0688804084992829,"208":0.04131765431251269,"209":0.010275585538771453,"210":0.05903841367421274,"211":0.025452854961525585,"212":-0.04094118383619236,"213":0.045492761064334704,"214":0.024564291891615967,"215":0.0565834346683561,"216":0.0340034468336931,"217":-0.005458571786619336,"218":-0.005341351448142773,"219":-0.0006862314290839467,"220":0.09516130358417974,"221":-0.04163712507296379,"222":0.10525102135104282,"223":0.014689132370566974,"224":0.12290428542469888,"225":0.09193293729939156,"226":0.010041342819986991,"227":0.009138051059717683,"228":0.04044742780347164,"229":0.13752809357590787,"230":-0.024886790541084773,"231":0.056805296560918275,"232":0.03735950309005412,"233":0.056668780948115324,"234":-0.00810501899867456,"235":-0.03667446999310362,"236":-0.004898601169533233,"237":-0.041999759960957644,"238":0.10456292085763501,"239":0.020015642957116376,"240":-0.026831370280696657,"241":0.010877989001866798,"242":0.03890719861862244,"243":-0.06780012211949886,"244":-0.10087128222277675,"245":-0.045519327881693834,"246":-0.01582034198817742,"247":0.04955332966410942,"248":-0.03320544713284249,"249":-0.09731060840121393,"250":-0.012084027754575953,"251":-0.008747213317760976,"252":0.0034727709365995696,"253":-0.05640065229755219,"254":-0.09204801847272687,"255":-0.034208491367997154,"256":0.02758861124221818,"257":0.034862975758286834,"258":0.030123465978399912,"259":0.04505465633036424,"260":0.00901938518170106,"261":-0.08510514234332837,"262":-0.07389858041652318,"263":-0.0027847116458054556,"264":-0.11868849989249339,"265":0.05112254205013025,"266":0.012108865265805369,"267":0.0492909320569003,"268":0.004092430702429828,"269":0.030038134646000986}},{"sx":1,"sy":1,"depth":270,"w":{"0":-0.051614531444323965,"1":-0.0004509905945547257,"2":-0.15184946901747667,"3":-0.0034063510684962006,"4":-0.06133616972744878,"5":-0.06935254974150631,"6":0.06290690974297554,"7":-0.005687257298795944,"8":0.12625334274003963,"9":-0.08033208737861645,"10":0.03626369798867145,"11":0.18517227828624444,"12":0.07984015687107635,"13":-0.05820609407540445,"14":0.053717828077728146,"15":0.03463386189415392,"16":-0.030587989199325687,"17":0.04964686928130462,"18":-0.004778221066506924,"19":0.04872228605337962,"20":0.08512492592168938,"21":-0.033294250499758295,"22":0.023705554519562473,"23":0.0023732595146271135,"24":0.0999624754184936,"25":0.13649682446438438,"26":-0.05284930356995181,"27":0.02513609563127416,"28":0.0875035020095075,"29":-0.07834786885589788,"30":-0.010460653589358347,"31":-0.056638118538345474,"32":-0.16242367183602657,"33":0.01956814401171508,"34":0.05113652232128808,"35":0.035303849199339876,"36":0.08695643184649497,"37":0.07271986794711487,"38":-0.014006496250887637,"39":0.01369371544850018,"40":-0.10501090384120504,"41":-0.06413213684443088,"42":-0.00031922724997541325,"43":0.18640405819575073,"44":-0.06527947914604851,"45":-0.004133184114652832,"46":-0.03791226945151271,"47":0.07545926143910181,"48":-0.009053409258991093,"49":-0.21547012303466934,"50":-0.082821536972363,"51":0.10947788152926795,"52":0.08660660418390988,"53":-0.05521882790143911,"54":0.0021395102856392764,"55":0.044381646657935606,"56":0.10019669726023972,"57":0.017100824106463262,"58":-0.10501897656662493,"59":-0.028904595607314478,"60":-0.03675019130345361,"61":0.09614616432743936,"62":-0.009034910443114028,"63":-0.05473594716487561,"64":-0.018989427261532403,"65":0.1155860950155519,"66":-0.028623482619610563,"67":-0.1075661419804549,"68":-0.09175901687277563,"69":0.08840173250604201,"70":0.029665288545409747,"71":-0.1120603480578336,"72":0.007524813431574105,"73":0.05898402126127316,"74":0.10567779317388601,"75":-0.10605401020707553,"76":-0.03254883355722677,"77":-0.034960831391086765,"78":-0.017307886951886915,"79":-0.022335250499361928,"80":-0.027164043018114103,"81":0.01484143417287963,"82":0.048587043858963806,"83":0.06204354919497841,"84":0.03666372784436006,"85":-0.19069638593234892,"86":0.043440565378940685,"87":0.016661723934355575,"88":0.028450975110597628,"89":0.04086669122184889,"90":0.0681713829277866,"91":0.0994368914414491,"92":-0.057746528607917375,"93":-0.05514344305069799,"94":-0.30676883771562957,"95":0.1276508655179395,"96":-0.030070405619607887,"97":0.033434506344328194,"98":-0.0712378159205824,"99":0.019383901144010902,"100":0.09133734431801106,"101":0.11871047249840064,"102":-0.06780503800048175,"103":-0.20913969387312809,"104":0.07778965455181991,"105":-0.025655006776075302,"106":0.04496676463319835,"107":-0.050763020791444693,"108":0.0424279143452448,"109":-0.011598587167316035,"110":0.06144485987596061,"111":0.011781033598718018,"112":-0.15146013400359654,"113":0.07830118422619267,"114":0.051629305089253716,"115":-0.010722574900058523,"116":-0.05408715159113581,"117":-0.05532237430069406,"118":0.011164424962699537,"119":0.03115643328218414,"120":0.02027040066103578,"121":-0.30088369410586563,"122":-0.022612480393471097,"123":0.009886941749100963,"124":0.06500774181667078,"125":0.057938221205037416,"126":0.013622290741233023,"127":0.006925158245406139,"128":0.11906819468287086,"129":0.04152276545460328,"130":-0.3637466424587943,"131":-0.04134049177561051,"132":0.0637736190591466,"133":0.08974513101945512,"134":-0.1217243629336637,"135":0.11732129855339272,"136":0.04018055164134379,"137":-0.07369763249776823,"138":-0.0035988441155407457,"139":-0.2161486815228244,"140":0.09938706388276587,"141":0.09467899439280128,"142":0.013718121807892326,"143":-0.01842582106178503,"144":-0.05452920622258498,"145":-0.010623681536493712,"146":0.046858256061248715,"147":-0.055694984594014625,"148":-0.06871619553037052,"149":-0.0884205678222425,"150":0.12741763445579207,"151":0.11613874700769806,"152":0.01938015240846912,"153":-0.07223100520503589,"154":0.02071301420622876,"155":0.017584660776884573,"156":-0.019837237905193362,"157":0.021812961799297183,"158":-0.024575084470488263,"159":0.05301527312616811,"160":-0.023376167296519725,"161":-0.08609204928311026,"162":-0.03254864588499189,"163":0.09857837830100871,"164":-0.012766738384002965,"165":-0.03483516321143125,"166":0.09692162576172396,"167":0.05600119304469051,"168":0.011425966537824512,"169":0.14099266878633043,"170":0.07351032040075453,"171":0.007986090549924807,"172":0.14668403829557095,"173":0.01255116361375774,"174":0.05373159969969314,"175":-0.033507193163168573,"176":0.07299373558856408,"177":-0.06056357646550387,"178":0.011617077156611337,"179":0.0017838007058692926,"180":0.05551089828107379,"181":0.03495960389734831,"182":0.12025236012874192,"183":-0.0011474225897387216,"184":0.15401780107357618,"185":-0.053257775078644126,"186":0.00909758817424326,"187":0.11658688614273974,"188":0.03958378110529466,"189":-0.08930175384487153,"190":-0.04246795334852297,"191":0.07680632025721955,"192":0.03798808137552138,"193":0.15537981130732414,"194":0.10482212944676696,"195":0.03337364857381786,"196":-0.0005278290548892836,"197":0.05667019591370185,"198":-0.026207657259789817,"199":-0.031516011958159555,"200":0.053252517048972124,"201":-0.055225708640303794,"202":0.17717443153518836,"203":0.06442249334614197,"204":0.060174042442030666,"205":0.055733627982329066,"206":-0.043126760997608246,"207":0.031030126223963263,"208":-0.11089759041843018,"209":-0.07636670277940488,"210":0.03121720700491162,"211":0.05716696960336303,"212":0.047902906553729606,"213":0.06182525789046592,"214":0.0010915984677181405,"215":0.052340427808948924,"216":-0.013827724220609594,"217":-0.0005608696630028713,"218":0.04752108275318789,"219":-0.04489993891121404,"220":0.058823017289300936,"221":0.12777985200406983,"222":0.06919117875591815,"223":0.010493388334417169,"224":0.01841648261199919,"225":-0.02009089421285666,"226":-0.026807046384437008,"227":-0.03150455515487915,"228":0.04841390426671538,"229":0.08943387836884294,"230":-0.02981641850685396,"231":0.17652980386885356,"232":0.01608340682787092,"233":0.025650056898034318,"234":0.0446916654202012,"235":0.0759549940838265,"236":0.04148345625692132,"237":0.01765898687394854,"238":-0.026683846253547767,"239":0.09957413474745108,"240":0.10542036172630187,"241":0.09399399466125419,"242":0.0028858859122475257,"243":0.04740036365141794,"244":0.0713077992008194,"245":0.08213470341019696,"246":0.03138229611606393,"247":0.059682776622073316,"248":0.07906957951043991,"249":-0.15684122315354582,"250":0.07073618473380602,"251":0.06753504795505164,"252":0.017763035254146697,"253":0.10579189282502532,"254":-0.030113738020129534,"255":0.13741187472178548,"256":-0.029113265835687976,"257":0.03125471813310313,"258":0.03843574543880189,"259":0.07098258771319838,"260":-0.041302464961347894,"261":-0.02705041985041239,"262":0.0443904449929073,"263":0.0054184609056208855,"264":-0.0785115025013474,"265":0.061065366683957144,"266":-0.019478932925870836,"267":-0.0292770460274115,"268":0.04634082051837188,"269":0.01575498313726101}},{"sx":1,"sy":1,"depth":270,"w":{"0":0.0055029859346259246,"1":-0.0019147794278858439,"2":-0.016487519583082234,"3":0.0046754877694007956,"4":0.003390095139160335,"5":-0.0006641692444834781,"6":-0.0007710391888684884,"7":-0.0006252553800823755,"8":-0.0006220107646879153,"9":0.002519479904526753,"10":0.000862549366733507,"11":7.097940457794919e-8,"12":-0.002967480384112763,"13":-0.0011881300930368906,"14":-0.0006680679383487924,"15":-0.0007696977221946297,"16":-0.0006225836166138382,"17":-0.0006227246719193248,"18":-0.001715804035327405,"19":-0.003947357924512678,"20":8.054550858332942e-8,"21":-0.010432912777512812,"22":0.010138775406536335,"23":-0.0004780866803280913,"24":-0.0008888943615830517,"25":-0.000644848274072263,"26":-0.0005131085667190042,"27":0.004308654940798098,"28":0.0028981424800650223,"29":1.1908641143136492e-7,"30":0.017881577036879585,"31":-0.01040214710174279,"32":-0.0005664499716236915,"33":-0.0008912607265587139,"34":-0.0006454765882022036,"35":-0.0005132301637358028,"36":-0.001138109116222982,"37":0.00379808941431853,"38":-5.624514311703196e-7,"39":-0.028766869992285844,"40":0.009990728751755095,"41":-0.00046835797072808746,"42":-0.0008897196149733832,"43":-0.0006445868302116688,"44":-0.0005135647210578263,"45":0.002045208835800269,"46":-0.008358720873458611,"47":-0.006354117973088772,"48":-0.0032909973315093486,"49":-0.002322375647993668,"50":-0.0003854301017597828,"51":-0.0008939530628793861,"52":-0.0006494722160611112,"53":-0.0003992121642631284,"54":0.00009802188336858003,"55":-0.01387479461672749,"56":0.006484222453904511,"57":-0.009702807832503475,"58":-0.01140413036998165,"59":-0.0005881753080772874,"60":-0.0007581319139896236,"61":-0.0006218509840404341,"62":-0.000507960856098569,"63":0.003909290539644004,"64":0.007836398061429082,"65":0.0024296640181855917,"66":0.003333221243178894,"67":0.008788854474762586,"68":-0.0007599248045363963,"69":-0.0004955708167627718,"70":-0.0005928173250915972,"71":-0.000502409198458763,"72":0.010978493734341838,"73":-0.01493236673313054,"74":0.003964967426985099,"75":0.0013647872827503601,"76":-0.008210993282796784,"77":-0.0008669126748434548,"78":-0.000493972110194445,"79":-0.0005944413822353672,"80":-0.0005030147063185881,"81":0.012659751359481022,"82":0.006763948749504399,"83":0.007219470576361097,"84":-0.012143869250087798,"85":-0.0147988611445778,"86":-0.000792126558557983,"87":-0.0006242831180385776,"88":-0.000593151010035191,"89":-0.0006251044216924431,"90":-0.004442004915957127,"91":0.004331874763510484,"92":-0.01265688892922404,"93":0.0021192172278543513,"94":-0.010159785936663316,"95":-0.0005775578265205396,"96":-0.0004934810685339196,"97":-0.0005927021548446517,"98":-0.0006264932782679346,"99":-0.005946689198316938,"100":-0.012053396465516154,"101":0.006892011711538624,"102":-3.292300178203017e-7,"103":-0.0036617970277259145,"104":-0.000879374404569114,"105":-0.0007580270177922104,"106":-0.00013289149612924055,"107":-0.000623525130817354,"108":-0.004978674287836724,"109":-0.002304630924832918,"110":0.0007021572535445555,"111":-0.000050986222494148684,"112":-0.007593214608924636,"113":-0.00020167755916545977,"114":-0.0007560505501301165,"115":-0.00013389996323880324,"116":-0.0006219376528302857,"117":-0.0011143637485285694,"118":0.011469646715755117,"119":0.015120146036265818,"120":-0.0000028857856466986076,"121":-0.001307331392997436,"122":-0.0001817290128009766,"123":-0.000628896677843763,"124":-0.00013163568640649795,"125":-0.0006225218786437296,"126":5.629456455390266e-8,"127":0.0010469686540457918,"128":-0.004378713814105038,"129":-0.000016584985904640234,"130":-0.000465641497967975,"131":-0.00033009891449789367,"132":-0.0006262047585862747,"133":-0.00013448014526271668,"134":-0.0006223541775402767,"135":-6.335007697327713e-7,"136":-0.00639403982971695,"137":-0.004129605323113821,"138":-0.00973668392855248,"139":0.0022626641515048553,"140":-0.0003278308312539067,"141":-0.0003246562750703787,"142":-0.000530497407574715,"143":-0.0006236017829951232,"144":-8.758723448999729e-7,"145":0.005312371905788774,"146":0.010154963682881435,"147":0.005136268584672381,"148":-0.0012779294418472679,"149":-0.0006372935511772216,"150":-0.00044255570163084855,"151":-0.0005280012493563694,"152":-0.0006237563295264419,"153":9.951965199258972e-7,"154":0.00018709545917866042,"155":0.004438196859326711,"156":0.000967312597150226,"157":-0.005719042178322121,"158":-0.0008475848930739314,"159":-0.0004430355286571844,"160":-0.0005293930933224201,"161":-0.0006224017251364206,"162":0.005262349260769075,"163":0.008628791633797032,"164":0.001058648580749999,"165":-0.006926786572779121,"166":-0.012511843968043867,"167":-0.0006153667440151311,"168":-0.00044054325735724814,"169":-0.0005278060407451462,"170":-0.0005961093413613406,"171":-0.0047829952453369105,"172":0.01143503354455104,"173":-0.01150939397670142,"174":-0.008691489838429054,"175":-0.005215389729230898,"176":-0.0006415220032282911,"177":-0.0007367480425940214,"178":-0.0006224065164512543,"179":-0.0005976151471261913,"180":0.0037968128221381094,"181":-0.0034647938872909823,"182":-0.012189628192501108,"183":-0.004400707677257042,"184":0.009799647434959823,"185":-0.0005101657950205938,"186":-0.0006246561270656194,"187":-0.000622199817757724,"188":-0.0005150137869371968,"189":-0.010067110790383109,"190":0.013558972855837664,"191":-0.0005253965068213869,"192":-0.0011907534889444144,"193":-0.00912349268152828,"194":-0.0006455369422865891,"195":-0.0006243724534091186,"196":-0.0006219535257118533,"197":-0.0005130086925923947,"198":-0.011826543262190462,"199":-0.008042293556045228,"200":-0.007348997552565315,"201":0.008268500324806687,"202":-0.014579361044681393,"203":-0.0010023068915797665,"204":-0.0006279191317682414,"205":-0.0006251243215792188,"206":-0.0005380044993358834,"207":-0.0019814732973194625,"208":0.006274655309531087,"209":0.0024899783526133173,"210":0.002851002291376111,"211":-0.00711087804367444,"212":-0.0006377663967714683,"213":-0.0005738533606098359,"214":-0.0005352365165571257,"215":-0.00046184913969878375,"216":-0.00389847324235039,"217":0.001200561842580215,"218":-0.0033554603473705566,"219":-0.00042017682715491197,"220":0.00720546084870009,"221":-0.0006109253458795592,"222":-0.0005819811699801889,"223":-0.00025365143144835754,"224":-0.00026248549184149144,"225":0.008643801218828902,"226":-0.007066267033687989,"227":0.0014365003956346158,"228":-0.011425627626168151,"229":-0.0049737013305232065,"230":-0.000396959119296867,"231":-0.0005755899683083554,"232":-0.0002509841564153541,"233":-0.00039039941440352374,"234":-0.0071811057546412975,"235":-0.012119185411466298,"236":-0.0015093023126835847,"237":0.010717136358143505,"238":0.005906559428613073,"239":-0.000637119667539256,"240":-0.0005760072408703473,"241":-0.00025168582381160604,"242":0.00008281702480222159,"243":-0.01303995589793748,"244":0.01016961857880431,"245":0.003753423841339397,"246":0.01386092706005366,"247":-0.0007411527647007639,"248":-0.0006857785651325543,"249":-0.000627999704566893,"250":-0.000592085927386429,"251":0.000006017619645628939,"252":-0.0023897132899788442,"253":-0.004762859320136986,"254":-0.008074023264704832,"255":-0.021751192679431586,"256":-0.0007409673928309699,"257":-0.00043884060272087784,"258":-0.0005968691781686845,"259":-0.0008418135474481532,"260":-0.000294599749232865,"261":-0.0073032818249795005,"262":-0.006253657823085138,"263":-0.004148993265669983,"264":0.0027675252988729132,"265":-0.0007460529409627028,"266":-0.0007718450741628869,"267":-0.0005975230154680943,"268":-0.000841699594024379,"269":-0.00016802096855223983}},{"sx":1,"sy":1,"depth":270,"w":{"0":-0.027643609274040665,"1":-0.041793519884614785,"2":0.1405947253663728,"3":0.16972377977107536,"4":0.15642549540441045,"5":0.12966011552743026,"6":-0.008268118969656497,"7":-0.057841935731365854,"8":-0.0531970007703115,"9":-0.013426060736666969,"10":0.20413794851815004,"11":0.13423714151811053,"12":-0.05944298532704369,"13":0.09964766746008603,"14":-0.0019340741933936327,"15":-0.000719760474562665,"16":-0.08636862099857343,"17":-0.08046428348026528,"18":0.051559787001190203,"19":0.0556985375632217,"20":0.04544828444152259,"21":0.1705655628884697,"22":0.12276447941346662,"23":0.058133907178571705,"24":-0.058323632569075745,"25":0.04233537401095879,"26":0.08784812332379173,"27":0.0478880399750292,"28":-0.06081834543738589,"29":0.01518898915397292,"30":0.0933178433509047,"31":0.12654432046168376,"32":0.11699153008546281,"33":0.16540549755489892,"34":-0.006970185917609842,"35":-0.004304395477292548,"36":-0.013371396155461108,"37":-0.01673423160138783,"38":0.05120878371487726,"39":0.08612077130895937,"40":0.12283434414775096,"41":0.04066651808616275,"42":0.013554247835952396,"43":0.03533470454603315,"44":0.018639390574657536,"45":-0.01663917162304787,"46":0.08368942159467066,"47":0.15212380354407112,"48":0.039290044704034986,"49":-0.048839277446183674,"50":0.0628849591903935,"51":0.11146673271061185,"52":0.007891875531712056,"53":-0.04169761779925371,"54":0.0157710407983349,"55":-0.0022235273273876898,"56":0.07325489237725474,"57":0.045498067123090236,"58":0.15865351344494263,"59":0.04051159037337521,"60":0.08939067940447824,"61":0.07353628671012118,"62":-0.033290642921804524,"63":0.09559527045439324,"64":-0.05001785481415563,"65":0.057515371052999406,"66":0.05817364028969947,"67":0.0052903073211042866,"68":0.09595614584826552,"69":0.13143598874221288,"70":0.002672584178658493,"71":0.10064710552253862,"72":0.00342387802898627,"73":0.03210623118952918,"74":0.08030655210810916,"75":0.1481810662478697,"76":0.15849616289284071,"77":0.046087008631238824,"78":-0.07906669564516042,"79":-0.13015210291387969,"80":-0.0035344037401529777,"81":-0.05086902732163971,"82":0.07247176101737166,"83":-0.023691406739868543,"84":0.09604097091449526,"85":0.14545450838482854,"86":0.028480368091380544,"87":0.10598545182611394,"88":0.004345661684709184,"89":-0.10026503633494119,"90":0.05103206893852582,"91":-0.10613035579861077,"92":-0.08726828138399757,"93":0.188575039468678,"94":0.12629387430587677,"95":0.05657969168609498,"96":0.01798302199453598,"97":-0.09942593781777476,"98":-0.02995289445635974,"99":-0.008406821770410952,"100":0.04005663915716123,"101":-0.015895173270772917,"102":-0.038369962497745984,"103":0.22008213810720922,"104":0.0283307763447055,"105":-0.019675460350563553,"106":0.004362600416023866,"107":0.06026957569530626,"108":0.09986877018418172,"109":0.021975805523950304,"110":0.04044653332483591,"111":-0.016072659832076088,"112":0.13544014067937513,"113":0.059423767024692396,"114":0.08079863714492633,"115":0.002608567208346705,"116":0.021616457479574847,"117":-0.04778680962839856,"118":0.09025253743404284,"119":-0.05133693485338099,"120":0.044952099927546105,"121":0.25439833956217783,"122":0.05010237319771545,"123":0.03713077935216992,"124":-0.06278830621901287,"125":-0.04464688844818856,"126":0.09858208435159994,"127":0.04162475109394748,"128":0.09678362724652799,"129":0.06695276348564633,"130":0.07466062624269544,"131":0.056924482405132704,"132":0.07179967420231252,"133":-0.045377907622006185,"134":-0.032232411433955804,"135":0.09098210883577781,"136":0.05394248709383531,"137":0.008864126828328794,"138":0.05814857508291436,"139":0.17110998653695836,"140":-0.01909080139321848,"141":0.05173837712499531,"142":0.1993427072976186,"143":0.06295998868113835,"144":0.012940911493154805,"145":-0.02521306008848918,"146":0.12236653906330533,"147":0.022230363523567186,"148":0.10755781120785946,"149":-0.0006866926821132739,"150":0.013380083402378356,"151":-0.02176753359581259,"152":-0.036069309707131195,"153":-0.01983280616158084,"154":0.09427369235143897,"155":0.04404211012586265,"156":0.10434974009214573,"157":-0.15988395753154758,"158":0.08193222893791245,"159":0.004328312217254348,"160":0.0791827617315129,"161":0.10260997912885311,"162":0.04592662410260658,"163":-0.010956801969980062,"164":0.04319333853888621,"165":0.11917531617228223,"166":0.003191358286754943,"167":-0.05661631068218843,"168":0.10068653280580896,"169":0.1072096311754646,"170":-0.05312165798989234,"171":0.04070031160137311,"172":0.003450166246189606,"173":0.06675826065149311,"174":0.022298336667618334,"175":-0.019644842440474156,"176":-0.082438730468867,"177":0.012934705003626673,"178":0.01674803947559831,"179":0.06781649668726487,"180":-0.04359179514729787,"181":0.06370320735439333,"182":0.04020672131135285,"183":0.04353255367547788,"184":0.09876708438618531,"185":-0.05276331866212455,"186":0.010930861160649468,"187":0.02597303653098327,"188":-0.010013533626780004,"189":-0.024071245895015032,"190":-0.07621328460600954,"191":0.10026852711211814,"192":0.0323050631306769,"193":0.030758272063396194,"194":0.10551109021410222,"195":-0.08241461327827201,"196":0.045734053045065295,"197":-0.01830605278475251,"198":-0.046979045787811556,"199":-0.07825184726287437,"200":0.08522053775581455,"201":0.11325736939093466,"202":0.11479734681043116,"203":0.046811008059162544,"204":0.06559235559262835,"205":-0.06851087289382235,"206":0.14345055607665044,"207":-0.027737264248417076,"208":0.01951268402638773,"209":0.023110128015353705,"210":0.059538461319334886,"211":0.025684864910710443,"212":-0.024049648544243227,"213":-0.005682383466362251,"214":-0.026255229192758578,"215":-0.02713640659457439,"216":0.060376473969683826,"217":0.10962605479748583,"218":0.026459371688736095,"219":0.02213953649843216,"220":0.0494054178486703,"221":0.0745750350404459,"222":-0.038268168777323856,"223":-0.012096101905170402,"224":-0.000864599926473464,"225":0.04439494187069489,"226":0.08330521207073806,"227":0.06894527953308206,"228":-0.002332046245629719,"229":0.013480970460762826,"230":0.11116845349877684,"231":0.009651856773891928,"232":0.008633189207003704,"233":-0.03125343473555313,"234":0.11863869499181165,"235":-0.05953142606416229,"236":-0.02894801093184935,"237":0.08697784580360589,"238":0.05702366710831274,"239":-0.0393453483956377,"240":-0.00021279271339885752,"241":-0.07024647758246873,"242":0.03965773642327565,"243":-0.04293034363792345,"244":0.04060408611286088,"245":0.10804145227014991,"246":0.05758450032559111,"247":0.07445856346303281,"248":0.09219595276410945,"249":0.05369576290506798,"250":-0.14326742511282042,"251":0.0021065360168346136,"252":0.032162421286552854,"253":0.048314960976731144,"254":0.16788524309046812,"255":0.031861889657331895,"256":0.0832141232161114,"257":0.05857031444263708,"258":0.006290463088586906,"259":0.07527787399397877,"260":0.037635592716593606,"261":0.04659883369564222,"262":0.08393587037697815,"263":0.08280520351863453,"264":0.018475749769184396,"265":0.09854752380223918,"266":-0.09301479042039396,"267":-0.02486995928857317,"268":-0.01905558658316109,"269":0.0704487314590901}},{"sx":1,"sy":1,"depth":270,"w":{"0":-0.05632679967139993,"1":-0.08768351277968474,"2":-0.0008142364462095342,"3":0.10017078441972489,"4":0.09275144998387855,"5":0.017647251386534994,"6":-0.0074185300015330675,"7":0.014818485170753461,"8":-0.013273520332271345,"9":0.0007818213628697983,"10":-0.09576127582064624,"11":0.08958954897711122,"12":0.07591494673743976,"13":-0.04272186777050453,"14":0.14972417953400696,"15":-0.038047061269129295,"16":0.039550776335476094,"17":0.009447587778439362,"18":-0.042916973666155905,"19":0.10447350653793137,"20":-0.015529515594588796,"21":-0.03010832256469949,"22":-0.03961003190368554,"23":0.009987384926849334,"24":-0.006167489787717949,"25":-0.008433463403409808,"26":0.053421787924250036,"27":0.020141756174341132,"28":-0.09394072687555625,"29":0.09146860308326596,"30":0.03961359456181688,"31":0.03956356316603238,"32":0.08357492746506505,"33":0.06557517829762402,"34":0.0033258776705645974,"35":-0.0239531180583513,"36":0.05174496223464705,"37":0.025688102493119876,"38":0.04836572623574808,"39":0.11326267086065671,"40":0.07951649779329743,"41":-0.006168694718288103,"42":0.03440916194714617,"43":0.12667445156720278,"44":0.09076191004414293,"45":0.045710742866283766,"46":0.05419211626830317,"47":0.1097015468675208,"48":0.014978087022048758,"49":0.08081967808023194,"50":0.06079008249183626,"51":-0.016742577939689,"52":0.06981838588148383,"53":-0.039139331805129816,"54":0.014451740521047102,"55":0.013195001964395969,"56":0.13336162323196016,"57":0.11300153647837256,"58":-0.04744169402148811,"59":0.04434038124272087,"60":-0.029897258966644337,"61":-0.04332335894099792,"62":0.1623651425824194,"63":-0.03965254842621518,"64":-0.1056565263707181,"65":0.05672576995818922,"66":0.08615158800968689,"67":-0.05379833710981507,"68":0.1043408569921752,"69":0.07098957619385794,"70":0.043104819661566506,"71":0.06431418252141746,"72":0.0004698930913067704,"73":0.020545111477375092,"74":-0.001352709409727675,"75":0.07944849091977707,"76":0.05251446129802123,"77":0.1773133488020478,"78":-0.06930376901438556,"79":0.045095095794823147,"80":0.05796434929366715,"81":0.07207363456252976,"82":0.03991905928348457,"83":0.08606044699481423,"84":0.025507049964454194,"85":0.13117062765843995,"86":0.05835896011139901,"87":0.013332839442790779,"88":0.02599227471710428,"89":-0.025687078130183328,"90":-0.04120272465337362,"91":0.010936898513341496,"92":0.0790586023695953,"93":0.0621994354315486,"94":0.13080968447566932,"95":0.06534038495314481,"96":0.08572276614894203,"97":0.019167706508117135,"98":-0.04733468952262842,"99":0.07089046312768045,"100":-0.037452496017575075,"101":-0.04521867164791803,"102":0.05429354540445282,"103":0.07312013225254754,"104":0.024983749881835392,"105":-0.030683290956165815,"106":-0.010718001056239337,"107":-0.03152627962791245,"108":0.03689570604339326,"109":0.02741174568968443,"110":-0.06388291551060558,"111":0.05936242059271682,"112":0.1741842433684304,"113":0.1513008986921321,"114":-0.0901617966999007,"115":0.0710394891235334,"116":0.043021841468337145,"117":0.09091681726762847,"118":0.0025116480914962776,"119":0.08511855420253706,"120":0.1093273912232887,"121":-0.002453708467093355,"122":0.14201999155685213,"123":0.038186895455289215,"124":0.009972691858667655,"125":-0.047252506378928395,"126":0.017199693631271974,"127":0.02662525758640179,"128":-0.03956467411902741,"129":0.005730249758709427,"130":0.0711976722053059,"131":0.07571519515288651,"132":-0.003406674303848889,"133":0.11250987401430355,"134":0.015669401175160837,"135":-0.010888837197308012,"136":-0.032343675333195224,"137":0.06559236015180253,"138":0.11499677674452075,"139":-0.028597072088768168,"140":0.12537043084001911,"141":0.0498988641682702,"142":-0.031136093400624322,"143":-0.10254228186792828,"144":0.04987229802851047,"145":0.005145209206327029,"146":0.10734770800930481,"147":0.04394352097301711,"148":-0.1750005469049339,"149":0.17013753210918536,"150":-0.06782045374460963,"151":-0.010275936608019634,"152":0.03676942745834339,"153":0.0017124563219459744,"154":-0.05485910054321675,"155":0.005552418446028692,"156":0.11237198405619844,"157":0.021239960202029947,"158":0.08512057324728393,"159":0.05556997455326395,"160":0.044949107594261115,"161":0.0719577750891607,"162":0.05975512255339088,"163":0.12334190399061126,"164":0.011255326922199351,"165":0.1153969686339992,"166":-0.012356419143304544,"167":0.10693346140117138,"168":0.09792430566290838,"169":0.018378364444910956,"170":0.0011743195486920712,"171":-0.02692759433935828,"172":0.0311727472227121,"173":0.053373546736558905,"174":0.06543022161849184,"175":-0.09562509539584103,"176":0.2055592244328161,"177":0.1626456570293512,"178":0.020914098689072454,"179":-0.03869540322874862,"180":0.06761271999704613,"181":-0.06951394761296854,"182":0.08511782831237272,"183":-0.05085847897739573,"184":0.10625206030856821,"185":0.13349569617578075,"186":-0.023632160586068002,"187":-0.051639998884417775,"188":-0.05977591389993429,"189":-0.07955111750128553,"190":0.021672348714260985,"191":-0.003183572578255341,"192":0.0677526507541469,"193":0.15559188163662407,"194":0.10487367470777571,"195":-0.049475424288420285,"196":-0.06699002963602596,"197":0.03730941927056679,"198":0.08113203582934331,"199":-0.009686320961441137,"200":0.003949264243655496,"201":-0.014031842763421135,"202":0.11403757566625143,"203":0.13042026298661533,"204":-0.018510035617901714,"205":0.04300713861639883,"206":0.037926512800423307,"207":0.07928582624336064,"208":0.034559374585836335,"209":0.023825303892745044,"210":0.007396989584819348,"211":-0.02030467751241975,"212":0.15015271536626976,"213":-0.07432687858692738,"214":0.025438257221489,"215":0.04084876967352618,"216":0.0413453846608341,"217":-0.04939314795340803,"218":-0.04384084670981547,"219":0.024191728787790336,"220":-0.13182534344053928,"221":0.03569705093797254,"222":-0.05013492648121293,"223":-0.03305604681467898,"224":-0.02659935274496822,"225":-0.04465907271963649,"226":0.031373615307318754,"227":0.034729926261472595,"228":0.028574733257971784,"229":0.005969965656461551,"230":0.03650762580368546,"231":-0.08285975499667024,"232":0.023938407524641367,"233":-0.02786992739117893,"234":-0.06122218464454525,"235":-0.013132100816122252,"236":0.07212483486788286,"237":0.052627535450679205,"238":0.1278146003352892,"239":0.16854229755982097,"240":-0.18188946080604193,"241":0.0694747285756303,"242":-0.009514031332528794,"243":0.07892000256501908,"244":0.014087210787958515,"245":0.01905609025624864,"246":-0.08109923639864532,"247":0.10311747955995426,"248":0.027724311958806244,"249":-0.006548331491217557,"250":-0.06432209804947664,"251":0.051417397040995974,"252":0.08715444589827707,"253":0.10107870749410146,"254":-0.00654734779530326,"255":-0.06632225868342707,"256":-0.15169280772132213,"257":-0.04246244329440129,"258":-0.05063588747576258,"259":0.03338759940357305,"260":-0.020484345548005916,"261":0.08766366333006755,"262":-0.02116410308677179,"263":-0.07015302491005904,"264":-0.020905667761014043,"265":0.05256343810179513,"266":0.0010877725654043853,"267":0.033569655822266904,"268":-0.026010924335500785,"269":0.0007715708100961702}},{"sx":1,"sy":1,"depth":270,"w":{"0":-0.06566074840239335,"1":-0.012408756583217453,"2":-0.01360907101245923,"3":0.02657311886426412,"4":-0.012849875600391792,"5":-0.13050984007348818,"6":0.04978873929028539,"7":-0.023413140496450265,"8":-0.07059566659562544,"9":-0.02939897680995851,"10":0.01184659075040031,"11":-0.020035407485118537,"12":0.040408127078800433,"13":-0.05152698302800283,"14":0.036576138045937595,"15":0.06932699946078368,"16":0.019664861006052484,"17":0.012708680969600426,"18":-0.08970794388998002,"19":0.023929170681123678,"20":0.03224471738076199,"21":0.08353285706506582,"22":0.013268058643356674,"23":-0.055877281276869056,"24":-0.06137374394551278,"25":-0.012775167429281082,"26":0.04198815418281778,"27":0.14219070158059913,"28":-0.04508557731768314,"29":0.04546075541845036,"30":-0.03760220438107197,"31":-0.058361699879305506,"32":-0.009812604804705655,"33":-0.05566080820048697,"34":-0.0452123392158713,"35":-0.03238302513874358,"36":0.04617200403407013,"37":-0.020940088709275457,"38":0.011447324241501718,"39":0.11207668866539428,"40":-0.0653727486422748,"41":0.11143928816250095,"42":0.022286239977737914,"43":-0.054083966510153604,"44":0.0367922205961677,"45":0.13656199229075783,"46":0.0060773117043914715,"47":-0.05320105646769864,"48":-0.020506746945032073,"49":0.062161984731454706,"50":-0.042210121869366214,"51":0.11633913461332895,"52":0.0073930077340339925,"53":0.07375378184796218,"54":0.0009692608809303987,"55":-0.06370308738570915,"56":-0.005218096501643845,"57":0.007458819921957458,"58":0.05094596502988448,"59":0.0444868741660655,"60":-0.0286676835027375,"61":0.04563217289260478,"62":0.030961928931365994,"63":-0.06049381080072157,"64":-0.007191166244212958,"65":-0.03849818483703982,"66":0.09243695274775313,"67":0.008853324787130487,"68":0.055291240407872665,"69":0.1091244696034538,"70":-0.017496333753642183,"71":-0.061304199293793896,"72":0.040592106295384546,"73":-0.0369928831784596,"74":0.023747195385196915,"75":-0.008677577882175387,"76":0.015210498965091577,"77":0.037454648692044464,"78":0.047174665956747096,"79":0.013174931369247696,"80":-0.0037347315243133707,"81":-0.08893439890335149,"82":0.09446013026836073,"83":-0.004899681012056067,"84":-0.005848384897021256,"85":0.05256626917556572,"86":-0.07919468031513341,"87":0.05778390615131559,"88":-0.03599892915233043,"89":-0.11426830988682789,"90":-0.005906358587480945,"91":0.041927885254015744,"92":0.06668977371974155,"93":-0.01388736210718566,"94":-0.016491552389808747,"95":-0.024863868325108257,"96":-0.06182954421927593,"97":-0.055308811289150536,"98":-0.06290152173622353,"99":-0.07692842979723627,"100":-0.07734712117669999,"101":0.05560542395415225,"102":-0.013612994895139868,"103":0.031160966929923383,"104":0.05991951937537641,"105":-0.04248301870141875,"106":0.09083946773468182,"107":-0.048914830661167856,"108":0.08876219434678934,"109":-0.03860055056613125,"110":0.07568769338262292,"111":0.018569717379653565,"112":0.13601992273270155,"113":-0.01671693693324233,"114":-0.045293295741232795,"115":0.05877686418170676,"116":-0.04810184318534205,"117":0.05971943794984081,"118":0.04022993457307343,"119":-0.04069435494710019,"120":0.049372910088628506,"121":-0.11897412332330312,"122":-0.02010792151219113,"123":-0.08048555619629909,"124":-0.050163969588415944,"125":0.07983179146363982,"126":-0.06446501810919536,"127":-0.0018248335568428705,"128":0.00884790830475027,"129":0.100024341178229,"130":-0.014631285619622323,"131":-0.058574062290143586,"132":-0.05766591343259965,"133":-0.07212138235927011,"134":-0.010936762785319914,"135":0.041791633234547286,"136":0.017041115255990533,"137":-0.033534244624930404,"138":0.01485770435901118,"139":-0.0053597625698327215,"140":0.025568487632706163,"141":-0.0847283586048434,"142":-0.06773663710554334,"143":0.037150664487472757,"144":-0.012929531392295227,"145":0.05170540151088071,"146":0.04815347050997544,"147":0.06854021782044371,"148":-0.18324297386548966,"149":-0.06061321809621729,"150":-0.024594239500098078,"151":0.01876545485578261,"152":-0.0818198887071097,"153":-0.030017956180361433,"154":-0.0845511243888773,"155":-0.03264103213594443,"156":0.01913227799909671,"157":0.043408995226628236,"158":-0.012025172988572726,"159":-0.08225968749354762,"160":-0.03683378899924846,"161":-0.06583595429154875,"162":0.0369899516437882,"163":-0.034933205861343374,"164":0.004778663330175297,"165":0.08228399029249814,"166":-0.005747450563883769,"167":0.03277566625498928,"168":0.023653118032046748,"169":0.03898187076128103,"170":0.022921862291048964,"171":0.06916254165884791,"172":-0.03650697029897941,"173":-0.037608943354647185,"174":-0.08255685343024685,"175":0.06350364961195362,"176":0.028086584935404363,"177":-0.04676923468039094,"178":0.01236434528025775,"179":-0.11465080021946089,"180":-0.004799023607988397,"181":0.08818048072021303,"182":-0.04865352443845265,"183":0.01422506106174835,"184":0.13824061035184243,"185":0.06122461378945701,"186":-0.10388647594257835,"187":0.06900352221120402,"188":-0.08153533390946974,"189":-0.023091254066688712,"190":0.06837592446055289,