//<![CDATA[

// a few things don't have var in front of them - they update already existing variables the game needs
lanesSide = 3;
patchesAhead = 20;
patchesBehind = 3;
trainIterations = 60000;

var num_inputs = (lanesSide * 2 + 1) * (patchesAhead + patchesBehind);
var num_actions = 5;
var temporal_window = 0;
var network_size = num_inputs * temporal_window + num_actions * temporal_window + num_inputs;

var layer_defs = [];
layer_defs.push({
    type: 'input',
    out_sx: 1,
    out_sy: 1,
    out_depth: network_size
});
layer_defs.push({
    type: 'fc',
    num_neurons: 161,
    activation: 'relu'
});
layer_defs.push({
    type: 'fc',
    num_neurons: 161,
    activation: 'relu'
});
layer_defs.push({
    type: 'regression',
    num_neurons: num_actions
});

var tdtrainer_options = {
    method: 'adagrad',
    batch_size: 100,
    l1_decay: 0.005,
    l2_decay: 0.001
};

var opt = {};
opt.temporal_window = temporal_window;
opt.experience_size = 15000;
opt.start_learn_threshold = 100;
opt.gamma = 0.92;
opt.learning_steps_total = 10000;
opt.learning_steps_burnin = 1000;
opt.epsilon_min = 0.02;
opt.epsilon_test_time = 0.04;
opt.layer_defs = layer_defs;
opt.tdtrainer_options = tdtrainer_options;

brain = new deepqlearn.Brain(num_inputs, num_actions, opt);

learn = function (state, lastReward) {
    brain.backward(lastReward);
    var action = brain.forward(state);

    draw_net();
    draw_stats();

    return action;
}

//]]>
/*###########*/
if (brain) {
brain.value_net.fromJSON({"layers":[{"out_depth":161,"out_sx":1,"out_sy":1,"layer_type":"input"},{"out_depth":161,"out_sx":1,"out_sy":1,"layer_type":"fc","num_inputs":161,"l1_decay_mul":0,"l2_decay_mul":1,"filters":[{"sx":1,"sy":1,"depth":161,"w":{"0":0.0033820367586372526,"1":-0.09350212696547373,"2":0.0016571105928418009,"3":0.14490970423178703,"4":0.026714746061371506,"5":-0.028584835852429543,"6":0.024119415604738636,"7":0.08131652700798676,"8":0.03305834209248377,"9":0.15781332149480562,"10":0.19528100135676704,"11":0.07712470070837871,"12":-0.0757715933766738,"13":-0.08633492715349741,"14":0.21691021477375155,"15":0.034144399110723395,"16":-0.022310560052662166,"17":0.09175910719921732,"18":0.08044109617207872,"19":-0.22891872674609426,"20":-0.15116748848935374,"21":0.07514424444441259,"22":-0.12971433823244946,"23":0.12050261332842206,"24":0.06791456822962966,"25":0.16455374133473952,"26":-0.045910222038162765,"27":0.06461459616608467,"28":-0.021871059414054508,"29":-0.1126581850200183,"30":-0.0814286705898143,"31":0.10276670240247258,"32":-0.010743521629648577,"33":-0.07640706697523415,"34":-0.13681454565759013,"35":0.07953182371496677,"36":0.05954140668963548,"37":0.09713811015520789,"38":0.0300934020627373,"39":0.12784291896774613,"40":0.14247888318622023,"41":0.15549173447657458,"42":-0.0008675832446896528,"43":-0.04176086130244943,"44":0.013489310725453283,"45":-0.1349037548934904,"46":0.022909560433504863,"47":0.14619783342776893,"48":-0.10124513694030662,"49":-0.06642557083940179,"50":-0.10583952892632,"51":0.14029697383569187,"52":-0.042968033013566644,"53":0.21855981904553398,"54":0.0016584336424007794,"55":0.07315144130058422,"56":-0.012753369442187818,"57":-0.11547622343792215,"58":-0.0017313453652496654,"59":0.06777242956760199,"60":-0.023228430194583698,"61":-0.02919663910131875,"62":0.06733094808450571,"63":-0.00990620320594119,"64":-0.07191280991311201,"65":-0.0532556413048066,"66":0.1948719118547991,"67":-0.07890781953888665,"68":-0.04520657257926056,"69":-0.05701680747097001,"70":0.17331380597675497,"71":-0.014565016099192108,"72":-0.07173910114199498,"73":0.047346325962350985,"74":0.019952444800803534,"75":0.03796567849500296,"76":0.08998441401241633,"77":0.1589229928128048,"78":-0.010264794692693237,"79":-0.16764551911818587,"80":0.2015924993558949,"81":0.09310968264827331,"82":0.1109246816947699,"83":-0.020465398611251455,"84":0.002796171123412275,"85":-0.030170623363186093,"86":-0.014974006640146429,"87":0.2652304090928911,"88":-0.06651454358170618,"89":0.046334707169507335,"90":0.04170403849578393,"91":-0.03629609821277022,"92":-0.026703398571636512,"93":0.02308624453537369,"94":-0.08914890746111663,"95":0.14705983938145084,"96":-0.015888707826528292,"97":0.1102071173643764,"98":-0.13130449733964952,"99":-0.01943257804409302,"100":0.023346517603570097,"101":-0.0846676286545007,"102":0.1238691392848405,"103":-0.060273213778125376,"104":0.00269142438820798,"105":-0.015849412518701086,"106":0.12795524729961358,"107":-0.00716394351193377,"108":-0.21351031148986965,"109":0.019722023514123246,"110":-0.10744749288136583,"111":-0.10472982286734875,"112":0.024567107943284,"113":-0.08185958783817159,"114":-0.007610878845025534,"115":0.07937384701924426,"116":0.0012931028790338676,"117":0.01876681294082105,"118":0.03536801482090846,"119":0.004947167910543505,"120":-0.14926024120459294,"121":-0.0025235800758798394,"122":0.17351080874625102,"123":-0.016006631298838267,"124":0.1368800558659391,"125":0.06782713744493281,"126":0.040036625748532464,"127":0.0705176137948047,"128":-0.1429074234885863,"129":0.13027742383379354,"130":0.02570384589831634,"131":0.08445988339727813,"132":0.10561731351200927,"133":-0.07055588470402241,"134":-0.0321174478970373,"135":0.03293897725823131,"136":0.24397263526516014,"137":-0.08063493402252335,"138":-0.01763097399981307,"139":0.09024520082959847,"140":0.06530420390613807,"141":-0.15212200199668843,"142":0.05952068810223848,"143":-0.08078227681252315,"144":-0.21049688752277512,"145":-0.08967949444589948,"146":-0.03638741327679628,"147":0.004828702849036791,"148":0.09842838757551121,"149":0.0711825900275925,"150":-0.26748317650804165,"151":-0.19447782478467246,"152":-0.00513976574290839,"153":0.05162710513442264,"154":-0.014422970721148098,"155":0.0633392190095675,"156":0.02363289544696144,"157":-0.03810581978373599,"158":-0.1530710638683854,"159":-0.0413311469981554,"160":-0.03270878536406932}},{"sx":1,"sy":1,"depth":161,"w":{"0":-0.03271350050084609,"1":-0.049034030993878396,"2":0.05561667409646452,"3":0.06041986092057721,"4":0.118077179937986,"5":0.018429967322161005,"6":-0.03269329330686746,"7":-0.009379543478060005,"8":-0.013303633532887535,"9":0.12158908628915234,"10":0.13779370339173405,"11":0.0544082316646795,"12":0.1012400778929635,"13":0.10585270649772581,"14":-0.025837371729632432,"15":0.007814289318554334,"16":0.0673285405523668,"17":-0.06644217241372992,"18":0.050737954954570307,"19":0.05938334451745096,"20":0.06345721289584233,"21":-0.11012128020183833,"22":-0.06459364644151876,"23":0.16436551909135938,"24":0.053868116123008535,"25":0.13544124056928716,"26":0.022489652508145042,"27":0.024943342235134284,"28":-0.06007522850369222,"29":-0.0860101822072441,"30":-0.012326631330396031,"31":-0.05199082375091117,"32":-0.09212101915325598,"33":0.023074589470198144,"34":0.11959659798840513,"35":0.0047354121068030166,"36":-0.07636340137542098,"37":0.04705509497295144,"38":0.17128704088200322,"39":-0.08036775342309663,"40":0.04487257221366606,"41":0.0004607182940613655,"42":-0.01319210556520275,"43":0.012286461376307378,"44":0.10875126115810009,"45":0.08075278114828718,"46":0.0282770180082398,"47":0.09611390582919827,"48":0.10452002974113167,"49":-0.06736908784467455,"50":0.01878023626203599,"51":0.06712766371813006,"52":0.12950795722389638,"53":-0.16370342673588556,"54":0.07537451020998738,"55":-0.05886713867209032,"56":0.019103086058801275,"57":0.030439039814975113,"58":0.1655004087055159,"59":0.006346486355313721,"60":-0.03826260180602462,"61":0.057216732815580415,"62":0.06743071776380263,"63":0.011627827705065475,"64":0.13917053497019236,"65":0.10698514901790773,"66":0.0980455692752585,"67":-0.06543952117222435,"68":0.11387081828746892,"69":-0.10257090182722078,"70":0.04185656274223312,"71":0.034792442087578646,"72":0.09627957840604451,"73":0.06030329258382356,"74":0.014567656340018836,"75":0.05480767516251551,"76":0.1696712197192688,"77":-0.25860118609046295,"78":0.08865477611272002,"79":0.1576308412749413,"80":-0.0696525996311252,"81":0.044222711424826436,"82":-0.02057537538973439,"83":0.043203750335116795,"84":0.10142553060819148,"85":0.08256021945952653,"86":-0.004610274807955284,"87":0.04852988729169678,"88":0.012309453876304438,"89":0.05097832167236961,"90":0.13065655655589756,"91":0.02323435622534357,"92":-0.06466159357548161,"93":0.1421462170012229,"94":0.07423738132801341,"95":-0.02195969506148593,"96":0.13487761839980072,"97":-0.05344846551639366,"98":0.09233860416119184,"99":0.0023358941624789997,"100":0.04070752728916763,"101":0.06647063539903747,"102":0.008110316679739766,"103":-0.1526756614813557,"104":0.011065828807357566,"105":0.10759340066321608,"106":0.07921278190078328,"107":0.024867553247888557,"108":0.0754066171008671,"109":0.037024640616647946,"110":0.1652050031646423,"111":0.0927294454948298,"112":0.0235796889277102,"113":-0.0338163996734976,"114":-0.11007519368425027,"115":-0.051167858362032,"116":-0.11106584401313613,"117":-0.006210293202811132,"118":-0.03446546280011831,"119":0.00036483652391077354,"120":0.1161159338566075,"121":-0.046610511581673744,"122":-0.19590930510553978,"123":0.02361510211009419,"124":0.08034011121035002,"125":0.05208903943405853,"126":-0.11025290572110837,"127":0.03700569977904008,"128":0.21900418577939643,"129":-0.12035507325888865,"130":0.061665529841956036,"131":0.09207592502127966,"132":0.0035184974746085003,"133":-0.02159209073050859,"134":0.1145599745591373,"135":0.21663031129423166,"136":-0.1629313299237279,"137":0.0833979158263055,"138":0.25666858155896133,"139":0.046326552738465546,"140":-0.021460386133235723,"141":0.04035276927474016,"142":-0.022905462292494065,"143":0.019838784036074354,"144":0.0022576806513435557,"145":-0.00547740637106982,"146":-0.07438406770648494,"147":-0.0565737841166631,"148":0.016146541132167392,"149":0.23616837412917946,"150":0.09385692960031605,"151":0.07973119801221246,"152":-0.08594402249997797,"153":-0.07835993680842385,"154":-0.04330981116991038,"155":0.09277327630594732,"156":0.2176933553280197,"157":-0.04570724432303551,"158":0.030651312965387496,"159":0.005868499254381866,"160":0.05769645633258939}},{"sx":1,"sy":1,"depth":161,"w":{"0":-0.000726426540666351,"1":0.025377175113978044,"2":-0.1352859023796542,"3":0.12385687568170599,"4":0.0772701547871404,"5":0.11029905924811709,"6":0.11384048288351772,"7":-0.09110363836350555,"8":-0.03696102032769807,"9":-0.06556549950025434,"10":-0.011012686005790253,"11":0.08688790480943934,"12":0.04067882348654522,"13":0.06848393267698283,"14":-0.07459415813049669,"15":0.017557759618835815,"16":0.06833852850953398,"17":0.1497127712805107,"18":0.18592538168721368,"19":0.3454505372027103,"20":-0.009289951111542826,"21":-0.007102595966198423,"22":0.02986911506282551,"23":-0.08528351390202078,"24":-0.08727448581000034,"25":0.19284796090178996,"26":0.1898818338741144,"27":0.05867176933686379,"28":0.034112289395455554,"29":-0.011603616520868935,"30":-0.007607069002947114,"31":-0.031058741389284696,"32":0.08191904727271314,"33":0.1472477127877339,"34":0.01035970480702448,"35":0.144003131596435,"36":-0.11517012553104714,"37":0.16065616878981054,"38":0.009380890749331074,"39":0.0506477583686763,"40":0.21464722585381865,"41":-0.06400029463218214,"42":0.03356703633027303,"43":-0.07412190232490252,"44":0.1291715083642646,"45":0.16989932111258135,"46":-0.03163798963965823,"47":0.16203603222674742,"48":-0.10993214646919906,"49":0.09823366703097347,"50":-0.1633316682023546,"51":-0.06468657166747666,"52":-0.16073451276957465,"53":0.010340900508808086,"54":-0.009511666573381518,"55":0.011355132368836696,"56":0.09156344294936253,"57":-0.013969461565058794,"58":-0.0668757739568264,"59":0.036846295008969104,"60":-0.006885902725072086,"61":0.03551133505990708,"62":0.06198805392221741,"63":0.02846209663273816,"64":0.008307169593293914,"65":-0.2120808557703059,"66":-0.019052703230375917,"67":0.04383472280877059,"68":0.06559346158541005,"69":-0.06818984886730356,"70":0.0454009664515045,"71":0.09687036655355344,"72":-0.1398794514118238,"73":-0.10526490743905019,"74":0.16176143414361008,"75":0.11508103204960013,"76":0.008439086061344322,"77":0.015457400126417697,"78":0.24687648382279825,"79":-0.15206754862213967,"80":-0.09337547977611087,"81":-0.047754082463316375,"82":0.21678952414313357,"83":-0.21770006911989143,"84":0.11022922642300097,"85":0.05252609416072507,"86":-0.2793292189125613,"87":-0.14551156550353087,"88":-0.007403401928063007,"89":-0.021145371902992375,"90":-0.10729236705289434,"91":-0.16636317917527946,"92":-0.006586748505218605,"93":-0.015932748354470273,"94":-0.2660554785436772,"95":-0.17884584019866379,"96":-0.0234718706973732,"97":0.006401345646941713,"98":-0.07971041279799182,"99":0.11488679013148805,"100":-0.08981800424905256,"101":-0.05472467702227036,"102":-0.03207371414717732,"103":-0.16279794538942924,"104":-0.0010649132909086472,"105":-0.025392174574332686,"106":-0.023087153243630063,"107":0.015067086806293971,"108":0.05608330833179336,"109":-0.15677165353225447,"110":0.05278522468597735,"111":0.1474885088331154,"112":-0.11685490192028256,"113":-0.17088349055379184,"114":-0.020958274833228895,"115":0.09338918201003851,"116":-0.16244705918886088,"117":-0.02202650354043975,"118":0.2269911099477304,"119":0.04957776290166267,"120":0.2480017184981895,"121":-0.1476321282140825,"122":0.06776494304717581,"123":-0.3073114374372877,"124":-0.07052633819566077,"125":0.05456991293336945,"126":0.03469368318792491,"127":-0.09471031009133707,"128":-0.03442855045863913,"129":-0.04056222648789708,"130":-0.08826974666865231,"131":-0.09467977311610459,"132":-0.03995276537758869,"133":-0.10841322090012243,"134":0.12301856334354082,"135":0.16124300561304258,"136":-0.022410365946512873,"137":0.0705792350342065,"138":-0.004225910777702086,"139":0.06075660289248559,"140":0.0527550020351716,"141":0.023637825573920017,"142":-0.020934886981996727,"143":0.046568320872291576,"144":0.005533368007243548,"145":-0.02418363938722172,"146":0.07665080719766734,"147":-0.05015411617201806,"148":0.05213939066374874,"149":0.06321743933648706,"150":-0.04983814571515351,"151":-0.09761189180386966,"152":-0.08733798119663339,"153":-0.0798056804682469,"154":0.07128956501704165,"155":0.23085079420924506,"156":0.049539418843783094,"157":-0.23842990075773918,"158":0.003627973908752364,"159":0.05315380389618723,"160":0.13652963444425875}},{"sx":1,"sy":1,"depth":161,"w":{"0":0.036979817038259866,"1":0.12563886055452278,"2":0.08827599923083387,"3":-0.06303337147214222,"4":0.18555283652631135,"5":-0.17792099322127966,"6":-0.039621310082020446,"7":-0.0968514738283152,"8":0.07935202133955777,"9":0.034320488786361465,"10":-0.10396888878943795,"11":-0.12756685126972955,"12":-0.02612260431549581,"13":0.08101574336907034,"14":0.07944569930364921,"15":0.09243957513167424,"16":0.09083913706688329,"17":-0.13192159753502922,"18":-0.09413980534425408,"19":-0.026506943307580952,"20":0.17690668164532575,"21":0.08224487412876,"22":0.1656064302417935,"23":0.12358242198926513,"24":0.08395454630160051,"25":-0.06641362555841164,"26":0.01738525071544835,"27":-0.01077679036652856,"28":-0.031180627999948012,"29":0.104824869983505,"30":0.016011423543229875,"31":0.0031367322093782284,"32":0.1254792804817358,"33":0.07963204060914118,"34":0.005220885115200722,"35":0.05524235940422275,"36":-0.04864415352696883,"37":-0.05872101318673783,"38":-0.1750353422918347,"39":0.05416960525563435,"40":-0.027421385902733884,"41":0.14460774857901237,"42":0.07931075007555259,"43":-0.19325382016051815,"44":0.05491080453220649,"45":0.11178423114240564,"46":0.08041316004486064,"47":0.09104835127563903,"48":-0.036083488473979956,"49":0.057295511194201516,"50":0.1262990267557953,"51":-0.009311661990252572,"52":0.15726686328422756,"53":0.07059981263642909,"54":0.019693368503398534,"55":0.004545782118623005,"56":0.0433998579974209,"57":-0.014046640986793606,"58":0.02786133845036505,"59":-0.02551690382869834,"60":-0.14963805820614806,"61":-0.048762204703054375,"62":-0.05919131667562684,"63":-0.025926510447788653,"64":0.0634548808046419,"65":-0.20180734096762473,"66":-0.014553141147899924,"67":0.03697232964574368,"68":-0.17072770421149766,"69":0.028211196044490273,"70":-0.026381400201450293,"71":0.01238369917632834,"72":-0.012144903253284696,"73":-0.04975057713249326,"74":-0.04540762710060653,"75":0.046674446571222654,"76":0.07472109601319898,"77":0.008720028519924245,"78":-0.025050926529013834,"79":0.008550363368219776,"80":0.018675475269515265,"81":-0.028003115906652828,"82":0.047483044796238515,"83":0.0918814661825111,"84":-0.06982177194142614,"85":-0.05612171196602631,"86":-0.06796577141600484,"87":-0.16534093922117332,"88":-0.022353487683533905,"89":-0.013600791884477242,"90":0.10163932254583774,"91":-0.09344763747813152,"92":0.0055330555166420966,"93":-0.12249881316620284,"94":-0.040980802795486417,"95":-0.10314361431562177,"96":-0.04462403585660633,"97":-0.1695810146696289,"98":-0.11339809594942389,"99":0.03379653297798739,"100":-0.02676462770773779,"101":-0.2247990914438175,"102":0.0014967027062493924,"103":0.006498994581783426,"104":-0.05790266061377023,"105":0.06987904637746749,"106":0.06910235148095926,"107":-0.008274380807463275,"108":-0.15036648815830872,"109":-0.005886270807513773,"110":0.17306306151545017,"111":0.16832863632579795,"112":0.030397231146632134,"113":0.19852768513746571,"114":0.038810070566524316,"115":0.06794915991221098,"116":-0.05045918460081569,"117":0.11751445754656548,"118":0.14473582028165172,"119":0.06922927275532963,"120":0.03554888414665623,"121":0.12740980902634752,"122":0.2860190962181355,"123":-0.04401255533161376,"124":0.1147932378652499,"125":0.008482978764169067,"126":-0.017558846194191964,"127":0.1141534816608728,"128":0.11366560625666106,"129":0.12580194655297072,"130":0.06443414775409767,"131":0.20779161761531595,"132":0.031131544636222558,"133":0.16613509977781654,"134":-0.0634350385431848,"135":0.08050532945317372,"136":0.13551554032626487,"137":-0.08896271893850195,"138":0.15167697124663662,"139":0.04721966850211507,"140":0.0377615853537571,"141":-0.01801223473301936,"142":-0.03427495749934182,"143":-0.10170998174445506,"144":-0.00432495583977959,"145":0.004076060552781385,"146":0.186123878970767,"147":0.10472565671707566,"148":0.1378904993918487,"149":0.18688073847508305,"150":-0.02641972087302889,"151":0.08416020916956451,"152":0.025882398689347937,"153":-0.010179904213043257,"154":-0.03180033226938587,"155":0.0773393048652542,"156":-0.010950292952606964,"157":0.05115962356180883,"158":0.05947095173022439,"159":-0.04400516911252006,"160":-0.0007188371543248104}},{"sx":1,"sy":1,"depth":161,"w":{"0":0.06458874647265203,"1":0.04802985997373926,"2":0.0037600489107708066,"3":0.18150492867974985,"4":0.11033887960935719,"5":-0.07008849018101326,"6":0.08572546769288131,"7":0.06159508255673801,"8":0.008647135640972043,"9":0.03154227559605005,"10":0.08904609100161617,"11":0.014477241228514768,"12":0.056954211415471884,"13":0.17877940143701918,"14":0.057799003589719816,"15":0.025334072533397867,"16":0.06542522348297741,"17":0.05529200819755356,"18":0.09474107170141512,"19":0.0528533865223264,"20":0.0555544533961974,"21":0.054947773628453156,"22":-0.0709549195917691,"23":-0.028753680677566895,"24":0.02625659134676203,"25":0.12745685385233366,"26":-0.055959010962029404,"27":0.03621116710367938,"28":-0.02985723809639437,"29":0.0333061535487524,"30":-0.022586621190848824,"31":0.034076625314936076,"32":0.07262629965355025,"33":-0.13863966417611256,"34":-0.06443144909390199,"35":-0.010671742807164411,"36":0.0749679730631517,"37":0.058236834486623125,"38":-0.07003481506878187,"39":0.11657168937413866,"40":-0.01950082100128348,"41":-0.013673797542998694,"42":0.0010055312363613839,"43":0.033110331801845305,"44":0.06992126093515137,"45":-0.15086285937947516,"46":0.15684126998591663,"47":-0.08521233172454301,"48":-0.10223240481147022,"49":0.0009929997702451396,"50":0.0015138849685590663,"51":-0.04664742277657092,"52":-0.008549063053583616,"53":0.059187818552574066,"54":0.06521332651799858,"55":-0.09143930051455962,"56":0.00946958455170171,"57":0.00566407461165767,"58":0.0902059696697568,"59":-0.12949680968589905,"60":-0.12336888045735515,"61":-0.06463904124619219,"62":-0.009294524397167188,"63":-0.03398046659147132,"64":0.06622478651631668,"65":0.08578599067293459,"66":-0.0648507745161801,"67":0.009872820423885589,"68":-0.02651062528921902,"69":-0.07530248063871571,"70":0.026670760820980344,"71":0.01946191882005748,"72":-0.0043144296615369145,"73":0.010857949241132165,"74":-0.14577512252006336,"75":0.059963248674697385,"76":0.03800602538604574,"77":0.006177197381284959,"78":0.1345215392610672,"79":-0.02930018003354648,"80":-0.16741081625492138,"81":-0.08985389216724238,"82":-0.03211294833720898,"83":0.046131208331024916,"84":-0.022562327948124575,"85":0.03842493495150819,"86":-0.019274989470201342,"87":0.011126512233768955,"88":-0.060110543388156586,"89":-0.02595065224702575,"90":-0.07139638837964006,"91":-0.06353240953198061,"92":0.0416283642532001,"93":0.22199295137352482,"94":-0.3423027991496699,"95":-0.14707231618524338,"96":0.014850799826018429,"97":-0.052037475665027665,"98":-0.033233398204812505,"99":-0.12217832056832562,"100":0.01733897420983571,"101":-0.3361167998001116,"102":-0.04699232244157724,"103":-0.10023185869094822,"104":-0.026332603432690962,"105":-0.012762131779735678,"106":-0.012741151331738218,"107":-0.03511663119499357,"108":-0.17155848116505115,"109":0.07657898702473243,"110":-0.000665869988453729,"111":-0.09902108551430776,"112":0.03961316978991926,"113":-0.0019044828914526342,"114":-0.15621305568022636,"115":-0.05808071998743003,"116":-0.029221187880096502,"117":0.06542099766146471,"118":-0.08062720029493305,"119":0.07273950553899056,"120":0.08730055900573024,"121":-0.31316142555622767,"122":0.08276018271289433,"123":-0.057438298527116925,"124":-0.008154084039705509,"125":0.057013251534067465,"126":0.035274831074363626,"127":0.03174242600384254,"128":-0.295164902864903,"129":0.08038071151281403,"130":0.027461451960353923,"131":0.0395460983596039,"132":0.007440185615362118,"133":0.0467643913363305,"134":0.03626128476911979,"135":-0.18872365472095376,"136":0.10971306093282959,"137":-0.003629698825704855,"138":0.019325193311887198,"139":-0.020546765680994294,"140":0.025923591670661904,"141":-0.04551095164965245,"142":-0.1730504397682896,"143":0.02025540378262517,"144":-0.10665076665997629,"145":0.12628109489559772,"146":0.05756400842753839,"147":-0.010497609540300962,"148":-0.0014849823505484801,"149":-0.11249505922856204,"150":0.014556277394689687,"151":-0.0685617783391856,"152":0.11516399351586194,"153":-0.05953605401511359,"154":0.06760560103963864,"155":0.12495039778465637,"156":-0.15679525982751702,"157":-0.00291711726622332,"158":-0.007283297836789097,"159":0.0358297590443873,"160":0.028058081324880076}},{"sx":1,"sy":1,"depth":161,"w":{"0":0.02669912544869035,"1":0.03633271746751971,"2":-0.03457559412548784,"3":-0.05958210081179615,"4":-0.009373662809493687,"5":0.12897557488002862,"6":0.08204888357581815,"7":0.0404906782746609,"8":-0.014566741687527368,"9":0.026830077068798516,"10":0.013693117944338085,"11":0.045847799591832494,"12":0.08025840690117625,"13":0.05543668858641409,"14":0.030650752713141122,"15":-0.012070755702712987,"16":0.08301325787457683,"17":0.02559183425830462,"18":0.016085339494536617,"19":0.09833366030993614,"20":0.007859137693331996,"21":-0.004037586012140868,"22":0.029349159507497103,"23":0.0329849822140466,"24":0.01810309897712828,"25":-0.014947689863199073,"26":-0.004629802017870795,"27":-0.001756006182436625,"28":0.026297847990055797,"29":-0.013721641284114953,"30":0.05157069754153211,"31":-0.015052667965594803,"32":-0.04865164414146598,"33":-0.05304978497862326,"34":-0.05493859681804403,"35":-0.008180515292227191,"36":-0.004783375147638367,"37":0.07321403512326696,"38":0.0216048732402907,"39":0.02784272495532056,"40":0.01398527180213393,"41":-0.011268797327510736,"42":0.019261822336010155,"43":0.07562656321861143,"44":0.027666658597755155,"45":-0.07736269322781585,"46":-0.018626922090062486,"47":-0.06447493260318707,"48":-0.03634056247332869,"49":0.017387619715475484,"50":0.033510027509544044,"51":0.06524197518426994,"52":-0.042832836222831405,"53":0.08779827549858633,"54":-0.013283440645432998,"55":0.021276278629883787,"56":-0.05703826277264185,"57":0.10423657630221297,"58":0.09078452239043028,"59":-0.01401976309733899,"60":0.040077048517701816,"61":-0.011616958119683057,"62":-0.06299861568135973,"63":0.003812084633441806,"64":0.10827100900613636,"65":0.14853251038522797,"66":-0.0033506636799922433,"67":-0.03726785495552685,"68":-0.0036756559999260945,"69":-0.021587601996370713,"70":-0.08344052223440855,"71":-0.06148957881557182,"72":0.14098594495489275,"73":0.07075248921168892,"74":0.022305362712646933,"75":-0.0382298729774915,"76":-0.017905553179750767,"77":-0.04008772496427887,"78":-0.1287786408434659,"79":0.052689404774617,"80":-0.013207878107016248,"81":-0.08323786177537532,"82":0.05808446098100884,"83":-0.027118228502763887,"84":-0.054804486340456995,"85":-0.12631031520288993,"86":0.060552403535262665,"87":-0.006671008498817739,"88":-0.06441189645723035,"89":0.019019167558321514,"90":0.07037487050025051,"91":-0.027102451602683347,"92":-0.10925767204873035,"93":-0.0025550160466584664,"94":-0.18009755695691015,"95":-0.1324183352793285,"96":0.0006785713078422,"97":-0.03849474406445066,"98":-0.05359485817965439,"99":-0.035767408790463945,"100":-0.006331051996604773,"101":-0.1987505548728662,"102":-0.070933302937919,"103":0.07096112462378425,"104":0.07386209994946208,"105":0.0034131366855064604,"106":0.05742958355483008,"107":0.03803444104821653,"108":-0.2930717204944298,"109":-0.039170822273523365,"110":0.07176053973158739,"111":0.06887259563831508,"112":-0.020498106929374028,"113":0.048490187558265924,"114":0.05445084396381017,"115":-0.2511910646558533,"116":-0.03420306318557443,"117":0.028651311195367565,"118":0.09904910733946318,"119":-0.042896420778610146,"120":-0.05393553447618543,"121":0.0006072723948538744,"122":-0.12768044740195308,"123":0.012183044306197426,"124":0.07247340086517341,"125":0.048949460811394244,"126":-0.027027051238586043,"127":-0.08717329945370535,"128":-0.047831755690478296,"129":-0.061331675978440206,"130":0.006731030444025452,"131":0.09602458391486512,"132":0.014564935847595042,"133":0.0805369381985888,"134":-0.11360374787332882,"135":-0.06659047222689733,"136":-0.054040229445090814,"137":0.03054136285912836,"138":0.04010427124824734,"139":0.04344349323835148,"140":0.06737761641105831,"141":-0.07953169505515142,"142":-0.03859386964258692,"143":-0.05775463536357573,"144":0.05978552661819893,"145":0.04775307013161784,"146":-0.051134442531444634,"147":0.0762258384758416,"148":-0.016897623473675863,"149":-0.028865252114752472,"150":-0.06580420894274433,"151":0.1934089631905443,"152":0.051736557987750814,"153":0.008114789936760814,"154":0.017815396970112946,"155":-0.08273128928822251,"156":-0.006388579310157838,"157":-0.05789476912622699,"158":0.25634990251952033,"159":-0.032023216335303036,"160":0.054508832458678935}},{"sx":1,"sy":1,"depth":161,"w":{"0":-0.05854872805814268,"1":0.16258656277506897,"2":0.1099014130574818,"3":-0.07477553565226037,"4":0.09468270436647706,"5":0.009627743000763668,"6":0.011689208372018752,"7":-0.17314567053277438,"8":0.09567782980836,"9":-0.022892226949540614,"10":0.029821323262635674,"11":0.05776017632391652,"12":0.11374108989270744,"13":-0.13897345346214776,"14":-0.22600790787849617,"15":0.15084623166235123,"16":-0.06299301582920495,"17":0.09791495568889126,"18":0.22901203290502792,"19":0.05453191988190182,"20":-0.026645517991067534,"21":0.055296657152796636,"22":0.18681642078035443,"23":0.013506492534676649,"24":0.11828214946553232,"25":0.05739196510039042,"26":0.04184419805667095,"27":-0.11593767000577955,"28":0.1165694125571487,"29":-0.042550756857476675,"30":-0.0841602606115453,"31":0.06518038171533591,"32":0.038771838266856234,"33":0.018170522518130772,"34":0.03801533781611867,"35":-0.08394167067710863,"36":-0.03436595592752043,"37":-0.10360914213841318,"38":0.17068810439755494,"39":-0.04843554332183769,"40":-0.037372148302736774,"41":0.07017258665658004,"42":-0.014748416710765976,"43":0.07342676846761248,"44":0.06944247933425697,"45":0.008247385562475602,"46":0.1524579220447922,"47":0.06985256720984848,"48":-0.08220243557114275,"49":0.008011034246625182,"50":0.210730678050699,"51":0.08197670993108859,"52":0.09094876669248675,"53":0.07896923679123427,"54":-0.06250665397426118,"55":0.19286542878201907,"56":-0.027893763103325038,"57":0.06018602806659874,"58":0.13386025112563602,"59":0.002890893012493793,"60":0.011274556235434354,"61":0.015802024365518013,"62":-0.048845540710128255,"63":-0.08778149218800155,"64":0.03482436393062926,"65":-0.07625189415181612,"66":-0.046971391252195745,"67":0.09101707877168216,"68":0.08425435889853601,"69":0.04356867032646572,"70":-0.11235272040102973,"71":-0.08238125514633801,"72":-0.02108122691577098,"73":-0.022985140860092866,"74":0.027711486025959936,"75":0.03161971741613757,"76":0.049033619862810955,"77":0.06597539241155558,"78":0.11148755520811683,"79":0.03769517482030783,"80":0.043564864510554524,"81":0.13556565058628187,"82":0.1503898746252726,"83":0.03239280990289251,"84":0.03436889920332358,"85":0.029719015539838526,"86":0.03540880494585337,"87":0.13050626020384937,"88":-0.011901682704210206,"89":-0.03678952145159499,"90":-0.007534122919172428,"91":-0.012525687031323625,"92":0.05543764583040473,"93":-0.0016131904069952982,"94":0.27439166044811636,"95":0.09141929467292917,"96":0.09069199932329039,"97":0.06946160618534336,"98":0.06479626999506298,"99":0.06541437759413261,"100":0.17147289225485415,"101":-0.032417833732348814,"102":0.07989441897462282,"103":0.025275989261151818,"104":0.04448893745406413,"105":-0.0206370461536891,"106":-0.12471152345936831,"107":0.05335087002940165,"108":0.10930607548639305,"109":0.023728463578812344,"110":0.06079340194460494,"111":0.2014521476467118,"112":0.07387883908443682,"113":0.045234565403212676,"114":0.016474628035652746,"115":0.09016834945851028,"116":0.08360203470996451,"117":-0.12880772429937196,"118":-0.051325623946072575,"119":0.05853146332306693,"120":-0.009611187849437649,"121":-0.033563758299259075,"122":-0.07599583600628156,"123":0.16839818434941028,"124":-0.010468849308539195,"125":0.010664441140688973,"126":-0.052062740155169276,"127":0.013933384879269069,"128":0.07374743182334696,"129":0.0014871697561588712,"130":0.2228287913000392,"131":-0.026402620095310494,"132":0.04951466900164747,"133":-0.01901040195426117,"134":0.07441014626708092,"135":0.020151376867433176,"136":-0.03908348840357783,"137":-0.023196962435037927,"138":-0.047262805172706715,"139":0.01981747642978243,"140":-0.07445193438648207,"141":0.04678896892200753,"142":0.20108597812202622,"143":0.19518134607615226,"144":-0.03771810904180176,"145":0.08092607338870252,"146":-0.012149885580819962,"147":0.042720882757556734,"148":0.037818151718326164,"149":-0.1006583209686936,"150":0.10163357912096162,"151":0.07982353061889493,"152":0.07295969395107459,"153":0.006570824188247167,"154":-0.0735892406551356,"155":-0.04388476536895442,"156":-0.02657254218526705,"157":0.029882441955933196,"158":0.004339572359329486,"159":0.12912879238335476,"160":0.15082074538824078}},{"sx":1,"sy":1,"depth":161,"w":{"0":0.12882331576433545,"1":0.10962981745852846,"2":-0.10384839879780693,"3":0.06493253600903902,"4":0.1128383311503893,"5":0.03145738749635483,"6":0.0036042644028578524,"7":0.0471369567431388,"8":-0.00021470182233252825,"9":-0.13478225726029625,"10":0.036994560919677455,"11":-0.014684959793653364,"12":-0.06918099108153615,"13":0.10572469799905308,"14":-0.039599236173181014,"15":0.05719377197551245,"16":-0.024164038034192915,"17":0.07062722765809432,"18":0.01744604080803739,"19":-0.049739565023606325,"20":-0.02422714711002535,"21":0.011001404101608674,"22":-0.006825652176439782,"23":-0.06483590607643941,"24":-0.1449210887954174,"25":0.018851957823495944,"26":-0.18136007732934423,"27":-0.0046495481678745995,"28":0.028928517830931373,"29":-0.0027107481257830687,"30":0.030352617865645786,"31":0.061994562633814615,"32":0.009712979790414149,"33":-0.11849197164330585,"34":-0.08261965484857617,"35":-0.1016136027007189,"36":0.006052532173451617,"37":0.08552058732214456,"38":0.12473856602456027,"39":-0.15075527762999677,"40":0.07210728827961498,"41":0.02438121184901408,"42":0.04778615514898273,"43":0.04675236638995884,"44":-0.0160262853007421,"45":0.09454035352749797,"46":-0.10830409752998607,"47":-0.062007176875314374,"48":-0.012824367084039731,"49":-0.06708998295496653,"50":0.13563797678035563,"51":0.10958861038792655,"52":0.08528630128347196,"53":0.01806155835633481,"54":-0.07508111241543425,"55":0.01477262498035934,"56":0.08487111042883587,"57":0.11599580474953877,"58":0.08867882157102398,"59":0.029752284146759744,"60":0.018632631112127096,"61":0.07840420070452804,"62":-0.06582587681300782,"63":-0.03429747942078402,"64":-0.052635546557601214,"65":0.08113594602659333,"66":-0.0027309283451855855,"67":-0.06268259546153698,"68":-0.06315579525189938,"69":0.14104553768015868,"70":0.0368455793770714,"71":0.07864603162171512,"72":-0.07316633508351734,"73":0.033428391860886086,"74":0.055772302260647964,"75":0.01904981332907328,"76":-0.08323193361366282,"77":-0.12781613702368888,"78":-0.11611266015765924,"79":0.08214249154002046,"80":-0.00956681284379631,"81":-0.03986740543982897,"82":0.10342931641470032,"83":0.002369073309658028,"84":0.04829142982683772,"85":0.001110251174143585,"86":-0.04900981841884295,"87":0.08840098561694378,"88":0.07434267491043411,"89":-0.16841312654696686,"90":-0.005547225266382767,"91":0.050294560735895735,"92":-0.058337070008863436,"93":0.12667022391469207,"94":0.008834689514710996,"95":-0.00878068938685888,"96":0.09372541990855589,"97":0.06332927918466416,"98":-0.15508577557106706,"99":-0.0840409326639145,"100":0.1338255174935461,"101":0.1366539296027554,"102":0.10695414465986058,"103":0.13416963546284377,"104":0.015939368316420812,"105":-0.05265368653005988,"106":-0.004292643501129832,"107":-0.08368480299773598,"108":-0.05226251517597525,"109":-0.018205743877837396,"110":0.06276671121928497,"111":-0.10456303805419159,"112":-0.08268227956230738,"113":0.019349747583078867,"114":0.06587977990982331,"115":0.02000442899129942,"116":0.07185057967391416,"117":-0.06154199268109472,"118":-0.1405342866278366,"119":-0.07313714278956907,"120":0.05413061829003402,"121":-0.05627886166368037,"122":-0.07918620238465046,"123":0.05221182819014992,"124":0.008439837867824465,"125":-0.05423694642976626,"126":0.0031187446598419824,"127":-0.0712493698641028,"128":0.06591079954930729,"129":-0.005330533121353302,"130":0.10081798538501724,"131":-0.03838292592314132,"132":-0.08873953738082846,"133":0.015411240190627248,"134":-0.08868084710806934,"135":-0.04130735236318412,"136":0.03707797523435158,"137":0.06612645260797048,"138":0.13446806703920852,"139":0.05279735083146717,"140":0.04620421168735901,"141":0.0861299540443011,"142":0.10322570744454597,"143":0.08153022795617491,"144":-0.0171605221540874,"145":0.02584632228716313,"146":0.11819274364065052,"147":0.018998577222986677,"148":-0.05000963657448105,"149":-0.03192488081993824,"150":0.14636806283858192,"151":0.06180505012803968,"152":-0.05600663041495381,"153":-0.0333347054266363,"154":0.10555994547560235,"155":0.032169404048095776,"156":-0.03890283572454901,"157":0.10734314563059359,"158":-0.03145424372467413,"159":0.06363128967113885,"160":-0.028708414462738762}},{"sx":1,"sy":1,"depth":161,"w":{"0":0.056467306891693936,"1":0.13632106698015534,"2":-0.016998266119707197,"3":0.13452530448044786,"4":0.006711245184754676,"5":0.06883312077407504,"6":0.11474303092154982,"7":0.0047457729224334305,"8":0.017592826280252733,"9":0.09567105290598382,"10":0.045565485330464506,"11":0.11519393442907708,"12":0.04060271489210611,"13":-0.09427852173756025,"14":0.025003586655436307,"15":0.03357648635460207,"16":0.12469011471254378,"17":0.14786738712105277,"18":0.06955246244362441,"19":0.03233983844894595,"20":0.12572972287153789,"21":-0.00033749520268995634,"22":0.048257471416190856,"23":-0.0035355657870551685,"24":-0.010363497743535493,"25":-0.06913610100317555,"26":0.09398393596088597,"27":0.050829580534705786,"28":0.12919051915247898,"29":0.040040553138196884,"30":0.03392178148615906,"31":0.040970000943936116,"32":-0.217996628692961,"33":-0.007481522220321302,"34":0.060825606405866914,"35":-0.055049740485638966,"36":0.07773634748945697,"37":-0.05361817725863022,"38":0.0628506986623231,"39":0.05262159466340217,"40":0.050525759214882886,"41":0.0837680747774151,"42":0.03138165765812131,"43":0.09010556163079454,"44":0.0586688014338341,"45":0.048169139974215895,"46":-0.06194384484460412,"47":-0.027318620882882696,"48":-0.024521799361248667,"49":0.010640120061518939,"50":0.05202370013253688,"51":-0.004189421424232256,"52":-0.20676107647875994,"53":0.03903830871309004,"54":-0.013278109426415703,"55":0.09981543157934275,"56":0.17995401017581072,"57":-0.04349844637250543,"58":-0.08697270121978955,"59":-0.06741066078419661,"60":-0.030058332797555272,"61":-0.059750045334257054,"62":-0.11693248517165256,"63":0.04527271685953953,"64":-0.0017685798650911805,"65":0.07464998903744549,"66":0.14326120602071046,"67":-0.028001830857862377,"68":-0.0761372612412651,"69":-0.0702579257029891,"70":0.06073989433672079,"71":0.012535593211389496,"72":0.01970036237932613,"73":0.062357392508913,"74":-0.08487608766135188,"75":-0.06042976405606512,"76":-0.027435403128872493,"77":-0.07279026932911262,"78":0.1292069573303909,"79":0.08217490459672457,"80":-0.12406356011517669,"81":0.0536860799198272,"82":0.09774658377062666,"83":0.06668273594255783,"84":0.038807478344782584,"85":0.005453933740423058,"86":-0.024035237436266694,"87":-0.14420835551109895,"88":-0.13743889120148514,"89":0.013007658567001553,"90":0.028153428949938167,"91":-0.09017203297682898,"92":0.05208773789886425,"93":0.15871851658209277,"94":-0.04319221658715563,"95":-0.022691354423858636,"96":0.08995021008557343,"97":0.07184344375608011,"98":0.10991734378607308,"99":0.04846080228478078,"100":0.08741679721980916,"101":-0.028329897949792203,"102":-0.11073494390295495,"103":0.17214960648043995,"104":0.05017905435357507,"105":-0.014787571728681958,"106":-0.009106494847018013,"107":-0.055888851566601824,"108":0.011813787670977172,"109":0.0018155187859320353,"110":0.03965115687827539,"111":0.0006789999551221044,"112":-0.02437183034860837,"113":0.031643420694153865,"114":0.08898265905671714,"115":0.019302921401439563,"116":0.004414320349764157,"117":0.013448189170056758,"118":-0.10405728582315853,"119":0.039636189744137656,"120":-0.042555334666451436,"121":-0.06951970715997126,"122":0.22190993961297525,"123":-0.11784675753066919,"124":0.1332256922613004,"125":0.0012859628092219432,"126":0.12128242710709271,"127":0.03603201854542745,"128":-0.014865221286055262,"129":0.1706718582915278,"130":0.0022089872993500156,"131":-0.047779801496579725,"132":0.2111670637615713,"133":-0.05111371625511183,"134":-0.0406298810862939,"135":0.17402022838984987,"136":-0.021824318677283294,"137":0.255612510356507,"138":0.03041093389450094,"139":0.033342559168368154,"140":-0.033731150607742254,"141":0.0794237649903918,"142":-0.08273767536827935,"143":-0.08754211746018667,"144":0.050082149978526856,"145":-0.018427182816515876,"146":0.11978769566864687,"147":0.14343111858623525,"148":-0.06686774015968654,"149":0.07505184292103464,"150":-0.12360127189300094,"151":-0.05821967686333997,"152":-0.024314632659426377,"153":0.016227529555887688,"154":-0.07631250717983072,"155":0.017405110969732112,"156":0.06861274894003457,"157":-0.1520063062936931,"158":-0.0010169009540218444,"159":0.0320126473666363,"160":-0.037520250444022865}},{"sx":1,"sy":1,"depth":161,"w":{"0":-0.05741352319099764,"1":-0.059400116480588065,"2":-0.16055405240748566,"3":0.05426450384502076,"4":0.020947116094649564,"5":-0.08504645730897219,"6":0.18318217743605492,"7":0.08495850418170788,"8":0.02492159061311223,"9":-0.27451168651920177,"10":-0.04573177340495333,"11":0.006439697821839406,"12":0.02839849545278841,"13":0.004742001036778966,"14":-0.01907037352367243,"15":-0.24031568506745163,"16":-0.05713019198864837,"17":0.04677448095256782,"18":0.05838335776380989,"19":0.02040003379942613,"20":0.1197861395893582,"21":-0.04035949825550605,"22":-0.14086746544441064,"23":-0.04885317957872368,"24":-0.0023611915662323127,"25":0.14913703979628812,"26":0.007736177126858743,"27":-0.057715767445010294,"28":-0.1406806555961159,"29":-0.07497102803177322,"30":-0.1137894739008573,"31":-0.17332548034255052,"32":0.16593780312871798,"33":0.15420556246506387,"34":0.059158548923732686,"35":-0.0176541672671372,"36":-0.20183900089834966,"37":-0.03610404281777797,"38":-0.1137337366009532,"39":-0.04285345331437819,"40":-0.012023020162426436,"41":-0.03479285935928142,"42":0.04983389420372678,"43":-0.09772103463393199,"44":0.11094420152540582,"45":0.10236495940873375,"46":-0.0016166920696062356,"47":0.07950004355930618,"48":-0.021544923953995203,"49":-0.027478642727291065,"50":-0.07127477774839591,"51":-0.23746708473047742,"52":0.059299596471477485,"53":0.07099727420331611,"54":0.09798146257421353,"55":-0.005768143570084323,"56":0.032364379424867695,"57":-0.0994899831392745,"58":-0.14466418588267846,"59":0.09514150052049287,"60":0.11235835378441084,"61":0.07557287061279956,"62":0.1159575658992616,"63":0.03516180610120282,"64":-0.04884073852410301,"65":-0.2285297436922476,"66":0.08054612640492535,"67":0.14491815932214847,"68":0.08746132126109282,"69":0.15712857960493523,"70":-0.09409402602195135,"71":-0.072168393317594,"72":-0.2280533922719159,"73":0.03197294562480281,"74":0.12699878743676213,"75":0.027561103232344078,"76":-0.023564990639235506,"77":0.021222547547468967,"78":0.024263223069596412,"79":-0.27732696050006,"80":-0.10897349963624148,"81":0.14785694171970576,"82":-0.023583145411049767,"83":-0.0020889778046587083,"84":0.02990696629487373,"85":0.11313152645965663,"86":-0.12746160116633087,"87":0.00016960699660338943,"88":0.18504564978351595,"89":0.015207950404337726,"90":-0.04593306504572946,"91":-0.06960651367137156,"92":-0.1551489959087511,"93":-0.24917965355526703,"94":0.02000991141532623,"95":0.058789731073053395,"96":0.10490976906907729,"97":0.0123868528392934,"98":-0.02775415222385005,"99":-0.1301398551067445,"100":-0.33677351237540476,"101":0.09241547586361641,"102":0.151050900019555,"103":-0.12264698618453507,"104":-0.029940834661158485,"105":0.056418412741108766,"106":-0.1666805016312163,"107":0.0359772660377468,"108":0.01510197298347313,"109":0.02281213153396592,"110":0.039934761414357305,"111":0.128566154275649,"112":0.027672360312281857,"113":-0.20073431422286256,"114":-0.14559149807071903,"115":-0.2524466181755068,"116":0.09821076483772012,"117":0.13426066162595582,"118":-0.19500167898284332,"119":0.11383879649770769,"120":-0.09072867667326717,"121":-0.2133712764014133,"122":-0.057464056227989044,"123":0.24606887192205057,"124":0.17155005010632232,"125":-0.021414444557551145,"126":-0.013459972995346783,"127":0.0254180730451174,"128":-0.09361492688498227,"129":0.05232611819267292,"130":0.14487484756585406,"131":0.022800919245801916,"132":0.06040218105195572,"133":0.15386723278727657,"134":0.006543197628596994,"135":-0.015016236831828338,"136":-0.07328225012704552,"137":0.15357377139998532,"138":-0.08851238548397393,"139":0.052256546006989354,"140":-0.07825442191618816,"141":-0.13468258505021005,"142":0.06975829147572266,"143":0.15784570858991506,"144":0.04995894222118138,"145":-0.15888070878670954,"146":0.031397156662304755,"147":0.1439724692493268,"148":0.07115268043483362,"149":0.039556178452520116,"150":0.20542511046723327,"151":0.04140629136295828,"152":-0.04275853975554741,"153":-0.022853894270562048,"154":0.1907172316276851,"155":0.02516663554347359,"156":0.0559598232279734,"157":0.015715395157242674,"158":0.08649988385529242,"159":-0.0521077667663366,"160":0.038309141003174584}},{"sx":1,"sy":1,"depth":161,"w":{"0":-0.027331172692597477,"1":0.02838426583612688,"2":0.02718669748774531,"3":0.02622267763254226,"4":-0.05597585256630237,"5":-0.050795203428814356,"6":-0.03319102501252971,"7":-0.04527375446543671,"8":0.07930035278558174,"9":0.04908121111106827,"10":0.04761746017741901,"11":-0.01017286560266685,"12":-0.0062972172253194765,"13":-0.08622284274454815,"14":-0.014688619618670518,"15":-0.018843988027251922,"16":0.02125652249761109,"17":0.035707358290404875,"18":-0.00198355530314796,"19":-0.10011324508208481,"20":0.04404584932260307,"21":-0.025718341670976537,"22":-0.05454507867859236,"23":-0.07311260391496195,"24":-0.0372847360270806,"25":-0.03240247327913097,"26":-0.06611880508153252,"27":0.00701293914391659,"28":-0.06506506215771227,"29":-0.04882354968936362,"30":0.044051807654014556,"31":-0.16305433128668773,"32":0.037390486345449996,"33":-0.05002898488742004,"34":-0.07639154083157983,"35":-0.005633487264930772,"36":0.021221430630268146,"37":0.024035928064170188,"38":0.03812251957126804,"39":-0.155521249969809,"40":-0.07072815023720265,"41":-0.07492566901337229,"42":-0.09643204710833324,"43":-0.0010263228055729598,"44":0.1039946591301754,"45":0.019872066049971097,"46":0.00238675438161562,"47":-0.03052978599930607,"48":0.0022551925008136736,"49":0.0005057265778290152,"50":0.026403755728817185,"51":-0.06530738775057957,"52":-0.0899649968402613,"53":-0.12707896444893274,"54":-0.025186622416739482,"55":-0.01609513932337923,"56":-0.05065661052419403,"57":0.00822398154308324,"58":-0.06265366261239512,"59":-0.010066080875904283,"60":-0.03597261867364541,"61":-0.0412316267501782,"62":-0.02879948216246149,"63":0.0949421622091015,"64":-0.032375596524501296,"65":-0.013768160703185775,"66":0.035984431047533356,"67":0.03985008089974576,"68":0.008501186520496683,"69":0.04963193183808568,"70":-0.06203085795954325,"71":0.0492255997427884,"72":0.03718431847083753,"73":-0.015834869294820815,"74":0.058599013075868726,"75":-0.006198835362798156,"76":0.0008361814977921884,"77":0.0707739132650437,"78":0.035364275991722954,"79":0.017008899416464825,"80":0.03035615134452999,"81":0.04713671140008098,"82":-0.029992082663188778,"83":0.0007059487379742235,"84":0.006587628945993237,"85":-0.19189347674116253,"86":-0.04253654557787209,"87":-0.037739597341222314,"88":-0.011695679199821027,"89":0.056958581142216864,"90":0.03068427799661341,"91":0.032948029355559544,"92":0.012919809121646017,"93":0.045820941333391166,"94":-0.04745408222749195,"95":-0.048624242327299956,"96":-0.02405047762751376,"97":0.09333372441963231,"98":-0.08652557183961783,"99":-0.010382677526285163,"100":-0.12903934885199872,"101":0.03186848491743489,"102":-0.041942771691057285,"103":0.017979686212074443,"104":0.023783871788507806,"105":0.029251763521735193,"106":-0.029962481698221383,"107":-0.06355904649981892,"108":-0.006477618402482639,"109":-0.0645592084969169,"110":0.05435640945122526,"111":-0.04667971995827116,"112":0.08036036391372059,"113":-0.04200540836531855,"114":0.16725386619915067,"115":-0.07257031003464032,"116":-0.0013379065163545937,"117":0.007856044199323552,"118":-0.0761926374187731,"119":-0.10106744754717403,"120":0.01119464520784283,"121":0.0233967975397835,"122":0.011861463581771694,"123":-0.062026709945491226,"124":0.003102040000552567,"125":-0.039428888644831794,"126":-0.12600907844525522,"127":-0.05437410107063833,"128":-0.05330424487486535,"129":0.0313243252323051,"130":-0.05805025526543232,"131":-0.09314700646277306,"132":-0.0033654543843665485,"133":-0.04407757196214152,"134":0.06497784640438758,"135":-0.04616592474807811,"136":-0.1262151425361169,"137":0.09299989863699351,"138":0.036488173127679435,"139":0.05944504507256851,"140":-0.02084692695714539,"141":-0.011456414213128633,"142":0.005914847739850437,"143":-0.09817004125558601,"144":-0.027794982582657647,"145":-0.13254590308024025,"146":-0.05384235923318099,"147":0.0022827211335061733,"148":0.09249864820672189,"149":0.03783860915557606,"150":-0.03766526554676676,"151":0.04122255911504776,"152":-0.10699549987061709,"153":-0.058889117879647075,"154":-0.010161194997946188,"155":0.07163992908335698,"156":0.007923002343223701,"157":0.1430191536257083,"158":0.015171632091787212,"159":0.009947799647312574,"160":0.027938620952174035}},{"sx":1,"sy":1,"depth":161,"w":{"0":-0.030548991745066915,"1":-0.06132788195156712,"2":0.04867858451513236,"3":0.15396024975693076,"4":0.08669577011070596,"5":-0.009663132404956247,"6":-0.0030955337726392743,"7":-0.03125320662019995,"8":0.05312641023267859,"9":0.06694342285316211,"10":0.04840561797292618,"11":0.09117225898544774,"12":-0.1445500736710104,"13":-0.07105978503075491,"14":0.027733226428926776,"15":0.1502856274468461,"16":0.07843719860465205,"17":0.07535481258243601,"18":0.04712100870907059,"19":-0.11219614533498005,"20":-0.10847755152912664,"21":-0.03492240504071413,"22":-0.0249675222075057,"23":0.10218198085071353,"24":0.06359289159911166,"25":-0.023479438269655577,"26":0.03547664859276535,"27":-0.1264895950529898,"28":0.04873030021594128,"29":0.020831602751124355,"30":0.0951190103591907,"31":0.09642736914999774,"32":-0.09969887316386523,"33":-0.23016800210516883,"34":-0.07696001159581448,"35":0.08400638620438812,"36":0.041511380596802455,"37":0.11208093479439522,"38":0.018008793244037147,"39":-0.05923805899431992,"40":-0.12667466641832328,"41":-0.08871413268226314,"42":-0.058515159206551,"43":0.1438081970522657,"44":0.05267660943314445,"45":0.11131665278792421,"46":-0.02225800761077494,"47":-0.00754210063379227,"48":-0.1574943476144997,"49":0.03163619410361964,"50":0.07043382447981004,"51":-0.007970475621437016,"52":-0.055226061585419914,"53":-0.012599698630749417,"54":-0.06919286488393493,"55":-0.0642013326819567,"56":0.08541893674848518,"57":0.14789229671527934,"58":0.07367180316116835,"59":-0.009056046621349954,"60":0.048815477223756135,"61":0.09075157912979355,"62":0.0362759135839365,"63":0.10688874032738346,"64":-0.007162317844857908,"65":0.1264749540950423,"66":0.14940013659076873,"67":0.022560251121370768,"68":-0.09482457924064987,"69":-0.014278000649038442,"70":0.051198754747665304,"71":-0.021293583676402186,"72":0.11177579722012834,"73":0.10407983191974718,"74":-0.020582404245868737,"75":-0.07512998606026079,"76":-0.012746041889419038,"77":0.08097542055034018,"78":-0.03494987130281001,"79":0.07045156595986059,"80":0.09797464561557723,"81":-0.09256452392059596,"82":0.04341867588079613,"83":0.0826776849923629,"84":-0.010554036982311858,"85":-0.14387188857976277,"86":0.0773302641128937,"87":0.011485850293529406,"88":-0.020241698465073465,"89":-0.06186165545187636,"90":-0.002605115016171363,"91":-0.019221716820125384,"92":0.053572209752591485,"93":0.03317050760520788,"94":0.2392481828878257,"95":0.10060763513122589,"96":0.16488618513610745,"97":-0.05818231284929378,"98":0.02570185508517927,"99":0.03647482200002095,"100":0.2566702173848548,"101":0.13438476210523964,"102":0.05503068137611838,"103":-0.1255208683103251,"104":-0.0928652940612749,"105":0.03477982501623794,"106":-0.004225885296770819,"107":0.1848116602521488,"108":0.15381960554808224,"109":-0.013996690326765225,"110":-0.023305315634833155,"111":-0.15617116312671586,"112":-0.06748261186706173,"113":0.00015253133149339997,"114":0.07884357164799471,"115":0.12207994440145867,"116":0.09101142814133827,"117":-0.15553933740613585,"118":-0.06840196356722159,"119":-0.04657203436748924,"120":0.08995630411766528,"121":0.1348479089217102,"122":0.06684288459283898,"123":-0.03147248193577876,"124":-0.06202895257820554,"125":-0.05022218933136088,"126":0.004052903793748848,"127":-0.052659780608539555,"128":0.06733529612510787,"129":-0.10675617584537042,"130":-0.009380727083641552,"131":0.007514726303063646,"132":-0.14375534942407484,"133":-0.0034588229105982824,"134":-0.1035993317134788,"135":0.19211843535971587,"136":-0.0018997525744256826,"137":-0.08701091159460653,"138":0.12267317001284057,"139":-0.14819528473981386,"140":-0.00047448705076587593,"141":-0.10353853653694277,"142":0.06955991499793947,"143":0.06455106433371423,"144":0.24404212115907717,"145":0.08869125793242608,"146":-0.036878822497145046,"147":0.07391062769300737,"148":-0.06441950707017716,"149":0.21073826204906088,"150":-0.1493769282504871,"151":0.05469130876339698,"152":0.022044354294847548,"153":-0.04043855684506871,"154":0.11224350816813555,"155":0.14353917946096828,"156":0.14887473969939743,"157":-0.09048357313042664,"158":0.05741531196314786,"159":0.08295072103005614,"160":0.020516770461616898}},{"sx":1,"sy":1,"depth":161,"w":{"0":-0.05456915078269518,"1":-0.03887002227711854,"2":0.1288338214452824,"3":0.057028751564206205,"4":-0.14998219057012485,"5":0.011829034269039567,"6":0.06995838953736673,"7":-0.05240272540430956,"8":-0.12099275563789286,"9":0.2015725610414418,"10":0.07759618395640279,"11":0.07666185673747053,"12":0.038649142219163844,"13":0.09179613279449038,"14":-0.006033397888556757,"15":-0.03888972888334824,"16":-0.1374583278239974,"17":0.06562476334841949,"18":0.02797914189555697,"19":-0.028276878743445255,"20":0.0018865958278329628,"21":-0.000900904062029346,"22":0.1457697541169853,"23":0.06101987533928891,"24":0.058528185460781916,"25":0.024085390443360413,"26":0.18084188398177917,"27":-0.0710785048731551,"28":0.0032062259260294784,"29":0.03058865575194764,"30":0.0016550397413937648,"31":-0.003583649394091704,"32":-0.03905816784096436,"33":0.04552234735952351,"34":0.010032921253963113,"35":0.06565076935539688,"36":-0.09380630382819756,"37":0.1443243236545731,"38":0.001455267420503428,"39":-0.0011640849784301246,"40":0.11280621204383802,"41":-0.012680580129850624,"42":0.04757323266667,"43":-0.10946962525581021,"44":0.03112416841917113,"45":0.09989293629397554,"46":0.03317621576675414,"47":0.10795993747072413,"48":0.01596955104384023,"49":0.13355841124181395,"50":-0.08901410236160662,"51":0.029837040676980398,"52":-0.035008002948576214,"53":-0.05010880027575077,"54":0.0823698880232159,"55":0.0085808745887388,"56":-0.023098074260044243,"57":0.12418641617835405,"58":0.05300699242603533,"59":0.15230451250007518,"60":-0.08862239161373785,"61":0.03633216612129065,"62":0.009294094853942808,"63":-0.1221267793637756,"64":-0.06365212084510846,"65":-0.11081074603650953,"66":0.01569141924063206,"67":-0.03084153668355889,"68":0.003906443496825211,"69":0.1309039919616905,"70":-0.031589833199243536,"71":0.027663420486094586,"72":-0.06145007469356698,"73":0.22223082299746175,"74":0.08159535371030292,"75":0.13633234866581945,"76":0.08550003010764935,"77":-0.0546335788758059,"78":-0.043521824700163574,"79":0.23402504470368088,"80":-0.009306796332296075,"81":-0.1418897545522186,"82":0.10451557693809095,"83":-0.00638624984363829,"84":-0.0631756611040475,"85":-0.049735677061984805,"86":-0.0641682894377393,"87":0.047754839916721296,"88":0.04103204408190112,"89":0.14472829787850003,"90":-0.01578012128226406,"91":0.004500651710428777,"92":-0.07376122656696683,"93":-0.03930894816091372,"94":-0.06734021863345002,"95":0.049585854778674686,"96":-0.04127879336572946,"97":0.04208726947766034,"98":-0.032255185232821226,"99":-0.10678887526616967,"100":0.1910794935737442,"101":0.15004522952827973,"102":0.05256253630116603,"103":-0.05880561192560964,"104":0.1424693753541734,"105":0.014659232795992072,"106":0.05597806500994423,"107":0.14707507449720694,"108":0.06817085751055363,"109":0.167484066649956,"110":-0.1251254422315266,"111":-0.03894419358892351,"112":0.0774492375198326,"113":-0.06401944501717934,"114":0.12029503680788987,"115":0.06974924440226028,"116":0.1037223870776302,"117":-0.02769926649285661,"118":0.04253111740672403,"119":-0.07460099089756633,"120":-0.027330047668437885,"121":0.09913765798570323,"122":-0.16097666217445122,"123":-0.03835899969123399,"124":-0.015466531740372361,"125":0.09291332740185397,"126":0.016078895613502817,"127":-0.07172073052963461,"128":0.00799686546559008,"129":-0.03787036025371971,"130":-0.05802307060197258,"131":0.009826366756619884,"132":0.04836275252796391,"133":-0.10497500063350412,"134":0.0845377558797096,"135":0.04005382395073281,"136":-0.06136923941006258,"137":0.049878461270083434,"138":0.1016691859868074,"139":0.08405712466672531,"140":0.15713460420795386,"141":0.06495789986344565,"142":0.05197471528232638,"143":-0.06443808353840004,"144":0.06777656022403031,"145":0.031357101430799623,"146":0.05313633867226706,"147":-0.007578330794586686,"148":-0.018717739335425733,"149":-0.057748006901480825,"150":0.14105243205026785,"151":0.11774912112692723,"152":0.10216742120385365,"153":0.19599390358865007,"154":0.13678168544010613,"155":-0.06690587537190403,"156":0.04834291217513746,"157":-0.18228562946592775,"158":0.020557391479364064,"159":-0.030446300835063687,"160":-0.1461007706794067}},{"sx":1,"sy":1,"depth":161,"w":{"0":0.006549913821614181,"1":-0.025930551007027507,"2":-0.07944271849827293,"3":-0.17563080460526656,"4":0.02508221721589603,"5":0.02712787322664016,"6":0.00332129792226886,"7":0.025981138828501418,"8":-0.07070064436704324,"9":-0.15361360134088103,"10":-0.11658409943603869,"11":-0.013796985929471222,"12":0.13275692193027383,"13":0.048243124946796834,"14":-0.001956929674266272,"15":0.16132765039924468,"16":-0.11050953282056007,"17":-0.09921711039308785,"18":0.0377409170487243,"19":0.011154331969665922,"20":0.08527826566084849,"21":0.058267584271886566,"22":-0.030630229211876477,"23":-0.21863269164863663,"24":0.07224540929327086,"25":0.011895260314394085,"26":0.08474924039554889,"27":-0.044300879614950155,"28":0.04399895061003759,"29":-0.21136666395874878,"30":-0.1227567315176784,"31":-0.29716660851554094,"32":-0.020063759464053643,"33":-0.03383985824559688,"34":0.03395101840785926,"35":0.03453543443828223,"36":0.06917142901337238,"37":0.025054577097408864,"38":0.06166929115301199,"39":0.07510450137634704,"40":-0.08227041791210786,"41":-0.09199102302210468,"42":0.045015633234097616,"43":0.04151519632541821,"44":-0.018501243738870746,"45":0.029648207288506204,"46":0.10644491491360777,"47":0.09702241171151949,"48":0.033607353748169026,"49":-0.016680520678809617,"50":0.05235003252382566,"51":0.07079235428142423,"52":0.13293652250286275,"53":0.013553132902682844,"54":-0.14509874795132907,"55":-0.12498329515018881,"56":-0.05081520508978593,"57":-0.07146044318122144,"58":0.05609792011494731,"59":0.07930548722357326,"60":0.12232589041797129,"61":0.0023035920831209616,"62":-0.05948187188114993,"63":-0.005105327789287038,"64":-0.10555227186154059,"65":0.10333164343491331,"66":0.08196929948329325,"67":0.10305513560904013,"68":-0.11175505738821871,"69":0.0030165319591428626,"70":-0.049325919644462896,"71":-0.08533370557878887,"72":-0.011227719418523517,"73":-0.1503782930191591,"74":0.10037358051875077,"75":-0.02651154033576507,"76":-0.02569387732393735,"77":0.02993032363307637,"78":0.036956861375626135,"79":-0.15808664583948298,"80":0.11147310957457016,"81":0.025714370573817785,"82":-0.007812268767616691,"83":-0.06271597239228136,"84":-0.012865679248181716,"85":0.023325174049184896,"86":0.12451197114816202,"87":0.02258832559797853,"88":0.06552458597244157,"89":-0.08312311403521508,"90":-0.03388277642429716,"91":0.25086223579362044,"92":-0.046059153897083156,"93":-0.049324042389586646,"94":0.012586319556261799,"95":0.16577786110651818,"96":0.0364122545181763,"97":0.15623216626928074,"98":0.08129964683884632,"99":0.10552310705089527,"100":0.03331116019191632,"101":-0.18639491899279553,"102":0.058128505784884175,"103":0.038014384366325864,"104":0.023876763967134056,"105":0.026515961359615328,"106":0.0806619461742009,"107":-0.1196509023680505,"108":-0.05413054194245252,"109":0.1931598977886888,"110":0.16492335563242583,"111":-0.07655977204858799,"112":0.03986052724537585,"113":0.0014487401242214394,"114":-0.03027900790751458,"115":-0.16431632440950933,"116":-0.08619429942913544,"117":-0.07308776584874538,"118":-0.016832277412660565,"119":0.008610136509863297,"120":0.08081562300514342,"121":0.10551012408428025,"122":-0.12743160954129523,"123":0.08865164457245381,"124":0.11704788525936871,"125":0.021986114327098124,"126":0.1207879392031521,"127":-0.11497729304795226,"128":-0.02567952217384629,"129":0.014621409841725714,"130":0.027122091179659687,"131":-0.1132916005223339,"132":0.0021689854706552205,"133":0.11251401427266021,"134":-0.11161118003648243,"135":-0.11566166226700321,"136":0.08633572455350272,"137":-0.08693157025900519,"138":0.014301183178664485,"139":0.03704619955893774,"140":-0.018774002297689343,"141":-0.05990656215449898,"142":-0.014985028059177426,"143":0.12822231051383437,"144":0.047601296833160396,"145":0.1615598742464652,"146":0.09709257156789779,"147":0.0707049277270558,"148":-0.007023486925096891,"149":0.02858422024655785,"150":-0.04193508050743241,"151":-0.13697548950351154,"152":-0.009338190364898625,"153":-0.12494182201461075,"154":0.13879011965325194,"155":-0.03219228668230237,"156":0.04019097232522115,"157":0.09543325894389679,"158":-0.010423581240387577,"159":0.11793711061025136,"160":-0.04702011016743294}},{"sx":1,"sy":1,"depth":161,"w":{"0":-0.051219204681763233,"1":-0.07075704857797076,"2":0.021493797195771103,"3":-0.04462431716911018,"4":0.16326275427863465,"5":0.12100431610273987,"6":-0.1596602192410055,"7":0.013851080395092473,"8":-0.13107047601707228,"9":0.20337531711775356,"10":0.044099300482574995,"11":-0.05065996550702362,"12":-0.18293482539186146,"13":-0.030339976936263294,"14":0.20539899377158632,"15":0.051445684426274674,"16":-0.05984519794911347,"17":-0.11614926339092266,"18":-0.07843528678876319,"19":0.05430544498346971,"20":-0.042597145058159876,"21":-0.01226994848120528,"22":-0.0004257694849106019,"23":-0.03530049053423583,"24":0.0846841675443364,"25":-0.06061143465360555,"26":-0.027351814205627042,"27":-0.0560856191141008,"28":0.07206980238429132,"29":0.08025250138046679,"30":-0.013380491821665317,"31":0.0055400331529672575,"32":0.10022985367667811,"33":0.07652540967350631,"34":-0.08652932068134014,"35":-0.0560292055623028,"36":0.14376084083095814,"37":-0.0446748663913189,"38":0.06081914135094804,"39":-0.04672612816282931,"40":-0.10999817673559979,"41":-0.12686483385643446,"42":0.08812542799351886,"43":-0.004282033259937701,"44":-0.05482439523566347,"45":-0.007325841349122062,"46":0.013182103165560078,"47":0.07146487592623506,"48":0.008205857788047978,"49":0.019263313091460205,"50":0.17681042566486296,"51":-0.1653649855073354,"52":0.1432802595711427,"53":-0.020023865047940084,"54":0.1359001361593673,"55":-0.02949420408566849,"56":0.025571150065606722,"57":-0.03715520500049077,"58":0.06801043704319014,"59":0.06554129034402838,"60":-0.0766378456831076,"61":-0.01710405805185443,"62":0.024710748933428228,"63":0.015141486005303066,"64":-0.053826120995341564,"65":-0.01517213544104415,"66":0.012795971466631717,"67":0.022052415414412472,"68":0.09306775878565857,"69":-0.01367354393916663,"70":0.010439146968411228,"71":0.04686676985193656,"72":0.156955638701414,"73":0.15590845447774956,"74":0.1737972688070228,"75":-0.08054208817109022,"76":-0.017451124335504484,"77":0.0980933594861738,"78":-0.0633571229668914,"79":-0.07238134834581121,"80":0.1531822201568482,"81":-0.030591486029526896,"82":0.018768272741408597,"83":-0.11821192930874416,"84":-0.04190363911763576,"85":-0.05050668773672641,"86":0.14500584610375442,"87":0.057769542138363474,"88":0.008485175269975187,"89":-0.02486332004400808,"90":-0.10298790875843057,"91":0.01634617427802174,"92":-0.06905241004159393,"93":0.014035588296221624,"94":0.07898236667794688,"95":0.11500207149702776,"96":-0.028048310573944163,"97":0.0010877180697470496,"98":-0.08100523230112736,"99":0.0917058524555947,"100":0.006788293599297401,"101":0.1878017756768604,"102":0.006453203780924004,"103":-0.05277746954414755,"104":-0.011933342759992221,"105":-0.029322757576638898,"106":-0.03392607623823506,"107":0.1917659920977262,"108":0.12352390959773897,"109":-0.040620172660862895,"110":-0.12883643371127615,"111":-0.08095054388882908,"112":0.08553624365639205,"113":0.0907299519212474,"114":0.18325721736362996,"115":-0.020464135790613295,"116":-0.020541292135241595,"117":-0.08861960690988174,"118":-0.1217842007740774,"119":0.024638338804097725,"120":-0.02336413060969871,"121":0.046561730819693864,"122":-0.17600894047669713,"123":0.09558153450761994,"124":-0.09219439109780198,"125":-0.06335894854136784,"126":0.0511129467246776,"127":-0.0021712114036144723,"128":-0.014232687881727978,"129":-0.18554769167794696,"130":-0.005083046074258787,"131":0.022849277629939106,"132":0.07517970750306248,"133":-0.006969757710786837,"134":-0.06099354229799553,"135":0.09052861079368298,"136":-0.10611291003378925,"137":-0.20708653436271698,"138":0.020515143067623493,"139":-0.09836567590536284,"140":-0.0031872323356904237,"141":0.0002595043173584288,"142":-0.09098721943437496,"143":0.11106481067850749,"144":-0.11366754448401079,"145":0.020630000794928258,"146":0.07803717291471247,"147":-0.011039574808743865,"148":-0.1303300019680695,"149":0.08967409079441252,"150":0.05406225098339892,"151":-0.12103391814376946,"152":-0.0038731214062432905,"153":0.07195557397104378,"154":-0.036336509681423705,"155":0.006238378937466219,"156":-0.03403086062219673,"157":0.06913450009085043,"158":-0.03102589271631825,"159":0.09040406233870318,"160":-0.09934095732305342}},{"sx":1,"sy":1,"depth":161,"w":{"0":0.06525302981411962,"1":0.07719456156362266,"2":-0.053702123678813385,"3":0.12499836591082764,"4":0.08925546926449479,"5":0.043621686275668564,"6":0.011117185624100724,"7":0.03037527436500672,"8":-0.017846995665425837,"9":0.06842673300268969,"10":0.06837300575502442,"11":-0.004417683258081537,"12":0.13260339912098465,"13":0.004273907237703328,"14":0.11189730493243064,"15":0.044466109380585456,"16":0.17062889881115037,"17":0.02345393911146217,"18":0.025795589761186878,"19":0.16455408869065982,"20":0.03276310732200055,"21":0.037447866723421874,"22":-0.021618918540327367,"23":-0.05762283499673942,"24":-0.11411521306322045,"25":0.09310624541952274,"26":-0.17890269256957475,"27":0.02072380399138844,"28":-0.05419653987875619,"29":0.05871808018326368,"30":0.0539564056233869,"31":0.06857952531799073,"32":0.09468488261484265,"33":-0.027780854878040665,"34":-0.031226569898625635,"35":0.05835964413264873,"36":0.09585501010555449,"37":-0.09304676162324138,"38":0.09245694524567351,"39":-0.06746337944999592,"40":-0.011079821050386025,"41":0.0927269119103783,"42":-0.03228544273375623,"43":-0.11114290262509326,"44":0.1719847851289517,"45":-0.09469003741760516,"46":-0.04144759581945998,"47":-0.04983022482188657,"48":-0.030930469310902722,"49":-0.11501709955181917,"50":0.010592270312479071,"51":0.09669912362401564,"52":0.07649402629521518,"53":0.04020752038328562,"54":-0.07860752934501414,"55":0.05587691869519984,"56":-0.018041780829687788,"57":0.040983655043054144,"58":0.046881332256836876,"59":0.1227459563099355,"60":0.06261142787963882,"61":0.08123056991943191,"62":0.036626921535179095,"63":-0.0689331386822954,"64":0.1375672020158457,"65":0.1265621947264571,"66":0.11662230954000974,"67":0.047419603269949887,"68":0.0764045685024858,"69":0.009750312689617591,"70":0.07413229428110414,"71":0.1259924915316363,"72":0.22260863544155454,"73":-0.02661199762434397,"74":0.0713334349769517,"75":-0.0026109378106796716,"76":-0.043377036472767624,"77":-0.010687456255576024,"78":-0.1548216965640816,"79":-0.08370852310053076,"80":0.012875955204973302,"81":-0.005564917728836302,"82":-0.08750518950982086,"83":-0.00032931744959785334,"84":-0.006329955124070263,"85":-0.11501570832119355,"86":-0.14071062586785202,"87":-0.1442469165344982,"88":0.025669654952322273,"89":0.05460186351844114,"90":0.044517863700618984,"91":-0.058117198832856,"92":0.02905677918055716,"93":-0.0706018185361767,"94":0.14131018619976699,"95":0.02896447799002477,"96":-0.05476662384204679,"97":-0.023069711752723498,"98":-0.018875103023486498,"99":0.018630426581055414,"100":-0.05317397927745792,"101":0.08285664132637825,"102":0.015452960121779644,"103":-0.13428504864808316,"104":-0.006342775445567827,"105":-0.024914531744095986,"106":0.07368020728727408,"107":-0.14854296940401504,"108":0.2227124976036281,"109":0.01609831913253982,"110":0.058600864211186064,"111":-0.030993236073477065,"112":-0.012675871298046591,"113":0.04999979208494286,"114":-0.30454141688087566,"115":0.3650169427101264,"116":-0.016035669584867386,"117":-0.1503314468730342,"118":0.014288846679113978,"119":0.040122337274984515,"120":0.11025148447019666,"121":-0.009200498921049734,"122":-0.0473324860955741,"123":0.09643467323885192,"124":-0.014386450628986993,"125":0.028456124796216745,"126":0.08849760257644794,"127":0.16508808809613193,"128":-0.21801703267446482,"129":0.0808777686490609,"130":0.046428945597888384,"131":0.05388345881869885,"132":-0.06166129213600961,"133":0.021484263164666395,"134":-0.04720528731736323,"135":-0.09351928709990334,"136":-0.03713369747718781,"137":0.15702775047958412,"138":0.09863892164301505,"139":-0.0039247305448339145,"140":-0.03612883491538078,"141":-0.005260080363870211,"142":-0.152842514114723,"143":-0.20100226153061798,"144":0.10894656182217041,"145":0.08637027312388561,"146":-0.09578625643190851,"147":0.012784209641241912,"148":-0.026905889485433567,"149":-0.027086727543717413,"150":0.048063314065552046,"151":0.020093670056652527,"152":-0.015851012678052515,"153":0.037479709976681444,"154":0.026903945856350458,"155":0.08943366733099203,"156":-0.2894428985299562,"157":-0.16460546320083233,"158":0.09436350669735966,"159":0.03802533665678254,"160":-0.03583557514073054}},{"sx":1,"sy":1,"depth":161,"w":{"0":-0.044004622599073034,"1":0.054937748600656436,"2":0.0052511808354617035,"3":-0.06113840679167406,"4":0.16790519389987657,"5":0.10490684791662043,"6":0.012718386127748952,"7":0.03425770369470047,"8":0.05464394209593986,"9":0.031038583867967512,"10":0.05533977696241482,"11":0.04671396879631799,"12":0.1220732287638263,"13":-0.07711937216472296,"14":-0.0396534884277559,"15":0.015817888438151413,"16":0.036958365776706095,"17":0.14964815755608069,"18":0.08375486741443848,"19":0.06417342956797195,"20":0.012477392784994443,"21":-0.03284021190067462,"22":0.057039126574335415,"23":0.08922752044509188,"24":-0.13194846007671504,"25":0.039035660763133875,"26":-0.05202616495258787,"27":-0.031065852898740698,"28":-0.2667306136460115,"29":0.08917498690195329,"30":-0.11075667612501537,"31":-0.04414230058111429,"32":-0.03162563420483388,"33":-0.011828385397928628,"34":-0.11074497938687808,"35":0.08097221453682732,"36":0.026414507321125075,"37":0.06464131678503819,"38":0.030768919624874814,"39":0.024981879397941484,"40":0.03765429089722122,"41":0.03277971693960397,"42":-0.009399257079209775,"43":0.03904472399109297,"44":0.037575713061654595,"45":0.038362734284021954,"46":-0.0076262641789978675,"47":-0.03644469286594257,"48":-0.18368259732021897,"49":0.004081126813814653,"50":-0.048600259233186414,"51":-0.017874207890055754,"52":-0.05205168162033504,"53":-0.12445228595009936,"54":-0.05638819676173994,"55":-0.009351212812691053,"56":-0.12480007771683838,"57":-0.03510832350184,"58":-0.0016294198011392183,"59":0.034504974738772204,"60":0.12444833653219728,"61":0.09624662794333137,"62":-0.047258690849455054,"63":-0.050233076005379136,"64":-0.09511419933854491,"65":0.03951843123426425,"66":0.03138360078343855,"67":0.023488450830129994,"68":-0.14634545587140074,"69":-0.011722576348745855,"70":-0.0070632074863132156,"71":0.1955729750607569,"72":0.07020936647587461,"73":-0.18433752401195125,"74":-0.08296044281238386,"75":0.019993744276934653,"76":-0.051858694331948105,"77":-0.05461733135066025,"78":0.006219246321107597,"79":0.0433823237764912,"80":0.052761639841385134,"81":0.026253281227338558,"82":0.05048812808582377,"83":0.0030990973846418473,"84":0.019223987544845902,"85":-0.020835829493525186,"86":0.11926893013457546,"87":0.014190731930538414,"88":0.09901757678181983,"89":-0.002987047478560092,"90":0.07260629359453208,"91":0.03564488082158561,"92":0.021035850533125264,"93":0.002484832406073385,"94":-0.08622222919049638,"95":0.014979880892012055,"96":0.08749628294726508,"97":-0.011638707220719066,"98":0.008630364048288616,"99":0.0983077416951269,"100":0.14208827414353828,"101":-0.1150943016836908,"102":-0.09130731255150469,"103":-0.07059070657410677,"104":0.13336251786820327,"105":-0.11375810894263419,"106":0.019261540647871923,"107":0.12550420218053635,"108":-0.19306835660094712,"109":0.11903547002679622,"110":0.06460023151767913,"111":0.06372739281393008,"112":0.017819853548629545,"113":-0.05887958152330108,"114":0.13981862038863824,"115":-0.2938005183342054,"116":0.02385797605607586,"117":0.1506502481531262,"118":-0.0024539494832904792,"119":-0.13464615337540517,"120":-0.08963038499895538,"121":0.16302860523156099,"122":0.11283771184526781,"123":0.06791742138025192,"124":0.0731606345480188,"125":0.13606941529286035,"126":-0.04022722187995136,"127":0.05664783504828547,"128":0.15352131779350556,"129":0.01158154801239567,"130":0.019332544947409408,"131":-0.0021648378450139357,"132":0.10644418595980357,"133":-0.036482831075464434,"134":0.06990174109940138,"135":0.0672679476964503,"136":-0.09658602257878456,"137":0.0808385333650804,"138":0.016606991607003043,"139":0.0670586305026647,"140":-0.05317904505950013,"141":0.07863393484223323,"142":0.15154693606148442,"143":0.006141517947498044,"144":-0.020813883294309443,"145":0.041013916105832174,"146":-0.15172553997132385,"147":0.10441233636410599,"148":0.023960905197001274,"149":-0.008188521978339438,"150":-0.041568087368905576,"151":0.03399965769680368,"152":0.03706841578955383,"153":-0.06232805383996122,"154":-0.16232623117126838,"155":0.1584171954630874,"156":0.24653702163900457,"157":-0.025396283253148844,"158":-0.0017649995766436139,"159":0.06385245907153142,"160":0.021128275842196904}},{"sx":1,"sy":1,"depth":161,"w":{"0":0.04579432176277766,"1":-0.04347034304903537,"2":0.005772823441921087,"3":0.014598446921325085,"4":-0.07881050408952896,"5":-0.01149540960874898,"6":0.016695368400365253,"7":-0.08426333374607592,"8":0.04787884619068919,"9":0.1274536396818307,"10":0.06093710209260755,"11":0.13029315504964356,"12":-0.0352324588545745,"13":0.05947424729432786,"14":0.043773237953998456,"15":0.009450950898506201,"16":0.012010079831038002,"17":-0.026716452733577107,"18":-0.056091411841840244,"19":-0.0026421292159428287,"20":0.07323571488386584,"21":-0.04357108413027512,"22":-0.0985284683040771,"23":-0.04469388911641748,"24":-0.1408853855495365,"25":-0.01117830649593623,"26":0.02763730865296713,"27":-0.003903513409214218,"28":0.0520235421791766,"29":0.023031665783787354,"30":0.10136262716299502,"31":-0.11389917438135505,"32":0.04618927994579644,"33":-0.013009505627415168,"34":0.03588701946624155,"35":0.04199799519094204,"36":0.009481994804397818,"37":0.06047217220325762,"38":0.011018566470964768,"39":0.03249833572701412,"40":0.0465364008449415,"41":-0.04210814167504803,"42":0.01768461113004329,"43":-0.048676995722449705,"44":0.003444320277599991,"45":0.09092291107660526,"46":-0.03298222616088661,"47":0.049013844772002435,"48":0.022475714533639987,"49":-0.023411342573203927,"50":0.07738359249516688,"51":0.11449107014472275,"52":-0.19720889881705386,"53":-0.03162291092661165,"54":-0.06537325293905204,"55":-0.034142459188530275,"56":0.021266943776521538,"57":-0.02952458045236044,"58":-0.04393075289567732,"59":-0.06664409465177662,"60":-0.06472295754434598,"61":0.1052410447217264,"62":-0.012379131359665374,"63":0.12458846730664339,"64":-0.10514098443334668,"65":0.0109453560536633,"66":-0.13071695582603288,"67":0.0651299327648542,"68":0.006083460764626979,"69":-0.04182680938308233,"70":-0.00947884509996375,"71":0.05042162803794914,"72":-0.026591881742843278,"73":-0.20700010102349334,"74":0.04070976925576139,"75":0.00627579240159073,"76":-0.048363770681526155,"77":-0.0485739098521245,"78":0.05614050503141051,"79":0.043116901059304484,"80":0.052012125330256787,"81":0.1303834422114782,"82":0.019994941651197855,"83":0.0011602348471363088,"84":0.05167287804694908,"85":-0.00009043517541743878,"86":-0.05480122226202266,"87":-0.29394956136379524,"88":0.045964851885026116,"89":-0.05039211360506908,"90":0.01887264171364482,"91":-0.07287740204828068,"92":0.07946387974961393,"93":0.033214462295185744,"94":-0.13683230287101913,"95":0.1010209729927491,"96":0.05381672063906968,"97":-0.07339907411689076,"98":0.09272367008872708,"99":-0.037104296249409495,"100":-0.02373953680046303,"101":-0.22483686888305793,"102":0.2601791074331162,"103":0.038077115981524884,"104":0.01420379327068205,"105":0.0443091908417076,"106":0.008405445958084736,"107":-0.13142453522162692,"108":-0.04415522160586413,"109":0.30654343843578824,"110":0.001629637030960198,"111":0.019269157727811393,"112":-0.09282824023200024,"113":-0.019693972824439018,"114":-0.16824189554484834,"115":-0.20270781656908704,"116":0.19142002115529233,"117":-0.05446581660952896,"118":0.007702929815078949,"119":-0.00972354752629205,"120":-0.05662238303895398,"121":-0.10665439572338167,"122":-0.20628535155748245,"123":0.15141774313911732,"124":0.07047858060150458,"125":-0.0704357094125901,"126":-0.07535077407597794,"127":-0.0472539141365983,"128":-0.03883096573974064,"129":-0.08126835758362604,"130":0.2513215097349415,"131":0.025021118590563732,"132":0.030098210021874468,"133":0.06543672767440716,"134":-0.0088170441480696,"135":-0.09340694518033903,"136":-0.30523487913829145,"137":0.15894265502061986,"138":-0.050693065845179755,"139":0.008454946982541447,"140":0.05897610936393532,"141":0.05186947839399662,"142":-0.04612981986928553,"143":-0.0989588727632775,"144":0.17645084977652198,"145":0.013646812705176153,"146":0.08822873791821809,"147":-0.09928314746485911,"148":-0.015618150706000086,"149":0.005124043980206201,"150":-0.05720117549810629,"151":0.2874676855649639,"152":-0.07755109176078036,"153":0.015322441481620095,"154":0.051007198532821416,"155":0.072124914351489,"156":-0.09426007087349822,"157":0.11927938320348562,"158":0.32085812342085984,"159":-0.014032905412386658,"160":-0.06789366439096071}},{"sx":1,"sy":1,"depth":161,"w":{"0":-0.12693176356357946,"1":-0.1553990146695603,"2":-0.03751132303889744,"3":0.012768047655275425,"4":0.03221100220163146,"5":0.03762493730622738,"6":0.22692103220329182,"7":-0.17891012211702614,"8":-0.14702690975510183,"9":-0.1316642207931174,"10":0.00609084028990741,"11":0.057441074286878446,"12":-0.08801193550545512,"13":0.03184062920241682,"14":-0.07952923363300957,"15":-0.008853384575414453,"16":-0.051348616429638096,"17":-0.0100814447271154,"18":0.003545438574288372,"19":-0.1299224616639028,"20":0.025142101782584265,"21":-0.32129127890276904,"22":-0.0796339969624775,"23":-0.002309497142632112,"24":-0.1150571921231946,"25":0.02471183090387101,"26":-0.12957285398080273,"27":0.09808672302303556,"28":-0.2237615611658726,"29":-0.10914872956867971,"30":0.06415413181453364,"31":0.1030462940215205,"32":0.0652552260202804,"33":-0.05306944548376515,"34":0.10536396245072756,"35":0.06361601216409307,"36":-0.02823014698523188,"37":0.061233957409283585,"38":-0.08956189595307999,"39":-0.019518974335196622,"40":0.01059330836826066,"41":0.13416035118445624,"42":-0.010857462141363102,"43":-0.03856019876707297,"44":0.11526974333508458,"45":-0.08398408082649596,"46":0.061026988006156475,"47":-0.1687992089197918,"48":0.15792121033200088,"49":0.03866133392607126,"50":-0.03349396930130292,"51":0.12897025711653767,"52":-0.07400324494314531,"53":0.11316800583328761,"54":-0.044873532197763175,"55":0.10739671782867843,"56":0.021185917427845858,"57":-0.06268722347126592,"58":0.04412910838186402,"59":-0.10947192976141448,"60":-0.11419998360738215,"61":-0.09958819747190213,"62":0.1244000039600635,"63":-0.021352637930248733,"64":-0.10340301534925661,"65":-0.014816749710468652,"66":0.06437211186103271,"67":0.12947877066782615,"68":-0.01380183013116506,"69":0.006269243150688223,"70":-0.030017507282756893,"71":-0.03658459953639273,"72":-0.002495295594079837,"73":0.10259608507546593,"74":-0.07030262881936251,"75":0.0663075876746594,"76":0.05317750801274347,"77":0.08869948517817267,"78":-0.30179420912342586,"79":0.030076031401157752,"80":-0.005373553399320966,"81":-0.030833308487362533,"82":-0.0643335928631543,"83":0.0026670190746186286,"84":-0.10962145899744999,"85":-0.09893750953512333,"86":0.127292088681734,"87":0.08295578665619467,"88":-0.0883179132847462,"89":0.01714323032905283,"90":0.08022806537948823,"91":-0.26924905781536596,"92":-0.07887259218920091,"93":0.18471402115546268,"94":-0.022258143364807283,"95":-0.008801701651658923,"96":0.19012042827954903,"97":0.18494819852046757,"98":-0.22980713171703326,"99":-0.0737566296103269,"100":-0.11400897618730005,"101":0.10161736846415642,"102":-0.26239370906924425,"103":-0.0519931747160993,"104":-0.011373499139289135,"105":-0.2695574275127697,"106":-0.14593306325767758,"107":0.06743901972010385,"108":0.09129907934120865,"109":0.0007530765523806152,"110":-0.09228606361534479,"111":0.15342700300565607,"112":-0.2352517014109566,"113":-0.15170346139223762,"114":0.15129213180286244,"115":-0.10309207285227118,"116":0.016415844411401252,"117":-0.004214529393308383,"118":-0.03082499862117191,"119":-0.23604648483884072,"120":-0.08597618636347704,"121":-0.055895960745029664,"122":0.1136433486108733,"123":-0.19244782487958323,"124":0.1636892735487468,"125":0.14819367193316912,"126":-0.1203266738026925,"127":0.10309196787095189,"128":-0.0070268299933030735,"129":-0.013834128248113005,"130":-0.15872138311165343,"131":0.07478150763291219,"132":0.13621608902666407,"133":-0.08677276172789086,"134":0.08262494613805794,"135":-0.05336369926369286,"136":0.20093094477246035,"137":-0.1563053136345616,"138":0.08044410016867602,"139":-0.007315345479608706,"140":-0.07865929153662134,"141":-0.22334595264893117,"142":-0.04191630377128446,"143":-0.021242190993823233,"144":0.02305402757510334,"145":0.03092888828538982,"146":-0.08173751486010324,"147":-0.163809022855448,"148":-0.07340354629352255,"149":-0.04578493219473651,"150":0.08440568032142891,"151":0.12494883143796048,"152":0.11360734092732812,"153":0.07272855800508175,"154":0.03944046522914953,"155":0.002511745920956275,"156":0.01331441119676319,"157":0.004918418971414172,"158":-0.06608164682621954,"159":0.0935557248761067,"160":0.15518608253353108}},{"sx":1,"sy":1,"depth":161,"w":{"0":0.06339087152485577,"1":-0.03950919997929685,"2":0.04699700013683403,"3":0.007438845754113146,"4":-0.050132206970078336,"5":0.04506699314503572,"6":-0.03927230834332852,"7":-0.049556254557856144,"8":-0.01033147976069708,"9":0.25791769193857456,"10":-0.04549945144442139,"11":0.04629210456397944,"12":0.04845178702163741,"13":0.050884778221933345,"14":0.056517752744067756,"15":0.08907064751821257,"16":-0.07313336675688405,"17":-0.0035748848056666076,"18":0.025005474183012546,"19":0.049691109234254106,"20":0.017574081573993396,"21":-0.04908665902720703,"22":0.083758820015548,"23":-0.005514442230705445,"24":0.02801949107729137,"25":0.029820905684346744,"26":0.011137840068702219,"27":-0.009869642123111182,"28":0.04987025384107656,"29":0.04065545165975295,"30":0.047253531277036395,"31":-0.05349797761729108,"32":0.04155286214507564,"33":0.01748654629760354,"34":0.16646967148643368,"35":0.0011439443333631791,"36":-0.06701794961429726,"37":0.05583944214830058,"38":0.04374646249190184,"39":0.007919998893090297,"40":0.013493158986870204,"41":0.011572671284133846,"42":0.005747638352253836,"43":-0.03359655994988093,"44":0.07691860682683999,"45":0.04848378770043473,"46":-0.03712432342330507,"47":-0.058080487016619026,"48":0.08923543413290604,"49":0.054590773399004935,"50":0.013685948026586021,"51":0.12396216670232584,"52":-0.14095389503440944,"53":0.03126254705540417,"54":-0.16734468600699312,"55":-0.006184760831956116,"56":0.19597911336763285,"57":0.05489058355892894,"58":0.018731568694003754,"59":-0.15449184110927291,"60":-0.10535001356179785,"61":0.06095619509009963,"62":0.0873703914636917,"63":-0.06308627714792152,"64":-0.044178069502506,"65":0.0978367951467594,"66":-0.04274810687939548,"67":0.06369877996015837,"68":0.0829631404398911,"69":-0.048051447500373774,"70":0.06959376481116838,"71":-0.09253054740751356,"72":-0.1151102116508281,"73":0.03549271617013465,"74":-0.09335834551424514,"75":-0.11284027707984709,"76":0.09734910622312798,"77":-0.01893492272288962,"78":0.034480263258277,"79":-0.07961200615580544,"80":0.05860846757660676,"81":-0.08416289082304954,"82":0.07088887582393519,"83":0.1164979280908209,"84":-0.01344482336374422,"85":0.031670841598764536,"86":0.05082519226459334,"87":-0.12294080273420965,"88":-0.15680966027787266,"89":-0.06195999424030673,"90":0.09591419272679258,"91":0.011856956641771318,"92":-0.08942640773143755,"93":-0.15636443027886504,"94":-0.1565577716338749,"95":0.05383211591886687,"96":-0.1077038836238752,"97":-0.07602728494021369,"98":-0.06810832557646719,"99":0.04253324181810773,"100":0.031474915978901334,"101":-0.08165839221542968,"102":-0.07976094728477615,"103":0.07006605509713132,"104":-0.004114089698008606,"105":0.0376964261229868,"106":0.10131353119329035,"107":0.014482378381022237,"108":0.00036520742500212615,"109":-0.10951294841084692,"110":-0.0011336642381214095,"111":0.005630414142718737,"112":0.0843417697131867,"113":-0.00469365657877157,"114":-0.06478186046886715,"115":0.07572157494648271,"116":0.026948270643756978,"117":0.055160225556271834,"118":0.06712261085663941,"119":0.036825009691656765,"120":0.04974940900762039,"121":-0.1355095759851812,"122":0.11358259633367603,"123":-0.030519608280908626,"124":0.128555512777214,"125":-0.022669538816538725,"126":0.0015085848650197601,"127":0.06071344504271897,"128":0.0010372296098844912,"129":-0.01986107874432468,"130":-0.03682144353959725,"131":0.06284649505179425,"132":0.09317615853240639,"133":-0.16670740058744907,"134":0.057244429090566415,"135":-0.02249383101696204,"136":0.1747457909722625,"137":-0.12427528852253959,"138":0.019674628058820698,"139":0.12328508246969969,"140":0.03994156828784474,"141":0.06008558476425553,"142":-0.010821954027822125,"143":0.16657202664349588,"144":0.09355435456839908,"145":0.1387297053364621,"146":-0.038814732221460264,"147":0.07134707323965178,"148":0.2131197003615603,"149":-0.02028868277983967,"150":0.13471496824392437,"151":0.02985359298942474,"152":-0.012773728594532898,"153":0.03371648983704811,"154":0.2007159204236581,"155":0.08188389119322345,"156":-0.026549074355647795,"157":0.10229339165599967,"158":0.049089621381971364,"159":0.08654903528889855,"160":-0.0013527876722622307}},{"sx":1,"sy":1,"depth":161,"w":{"0":-0.0371694111723289,"1":0.021705491276881456,"2":0.12654108225458094,"3":0.030035563500357257,"4":-0.007863756241831542,"5":0.02527384093520922,"6":-0.04117306867294225,"7":-0.04174383631153312,"8":-0.10859040171500585,"9":-0.08790265523995441,"10":0.06678170322471927,"11":-0.025246404691780588,"12":-0.08426750924109636,"13":0.14857614132224678,"14":-0.0757176522437982,"15":0.034034056704157004,"16":-0.14873433796242805,"17":-0.03414728844486478,"18":0.2704560359634918,"19":0.08351510570452082,"20":-0.1719522329063614,"21":-0.11329925807523189,"22":-0.08224264995747808,"23":-0.0012422642886112658,"24":-0.0640216274999765,"25":-0.009820681736646894,"26":-0.03347127886853378,"27":0.07830062326416495,"28":-0.0015931128269874113,"29":0.0722984402852867,"30":-0.03224164142306128,"31":0.0879450866539755,"32":0.06940150717266373,"33":0.03329961759169645,"34":-0.01820328757658814,"35":-0.02739434971946242,"36":-0.006830180216683269,"37":0.01625751120618451,"38":0.10902448964378367,"39":-0.010329527925679663,"40":0.1550872709639469,"41":-0.1651507051240338,"42":-0.1300175180409592,"43":-0.021560675527465625,"44":0.04555762061386307,"45":0.08795751998086496,"46":-0.07903670730970822,"47":-0.002296427272763918,"48":0.015856959138939756,"49":0.014563075138986862,"50":0.08159629649429445,"51":0.10928267894541814,"52":0.11237816198842122,"53":-0.06285704473855615,"54":0.0354038605414813,"55":-0.12858079930722643,"56":0.10246082559154568,"57":0.05901130688487163,"58":-0.010591879089389916,"59":0.0361268663241103,"60":-0.10688786117029792,"61":-0.07797126055956853,"62":0.08186732415373385,"63":0.05242455388858589,"64":0.023314677729488698,"65":0.061194513939388843,"66":0.17339201709237007,"67":-0.10004328347551177,"68":0.09740884762513781,"69":0.08423759957296233,"70":0.02668754327372444,"71":-0.1198268534033524,"72":0.06750906360348964,"73":0.07947748101353282,"74":-0.1244641166327011,"75":0.0713523134730002,"76":0.03002944376312524,"77":0.022159633792690973,"78":0.004814514030831938,"79":-0.07383816912844862,"80":0.14015683531923556,"81":-0.15656341886543929,"82":0.006419538280169191,"83":-0.025579921744555437,"84":0.1608269231273569,"85":0.13246822679722853,"86":0.07158088778428136,"87":-0.015257392243475155,"88":-0.04044609802019382,"89":-0.05874559018372933,"90":0.042245842828997744,"91":-0.15458646659505257,"92":-0.11190096408977727,"93":0.031858673470657864,"94":0.07473708311160204,"95":0.06704383377954495,"96":-0.06629931780206566,"97":-0.10569075404592745,"98":-0.13959080924028175,"99":0.12883478151457953,"100":0.015881567300565884,"101":0.24858330665490858,"102":0.10916367852704707,"103":-0.13243111986188805,"104":-0.0373631496807848,"105":0.023941133535031543,"106":-0.08345652409404303,"107":0.09216590258948923,"108":0.04592704855353098,"109":-0.04622923741570594,"110":-0.11395445239494555,"111":0.010479811332708682,"112":-0.025822651624162203,"113":-0.06527771106198964,"114":0.1978275376766568,"115":0.18874890319341373,"116":0.0014633710432981181,"117":-0.07058296375403686,"118":-0.10462070649708442,"119":-0.047785107581534196,"120":-0.016028682145406897,"121":-0.0459431064414575,"122":0.17456917172823064,"123":0.1309866618044542,"124":0.14275776931278575,"125":0.0528397844726626,"126":-0.02665063209821054,"127":-0.09531236711057335,"128":-0.2462058687910607,"129":0.03407681960472532,"130":0.03804790168168063,"131":-0.04925164256972697,"132":0.14553283429212396,"133":-0.011404127292154712,"134":0.09113308435015662,"135":-0.14535639949867513,"136":0.10570183493148379,"137":-0.01170017364797926,"138":0.08543099601286247,"139":0.009091442294407396,"140":0.09698840833261431,"141":0.04229786148572226,"142":-0.022388298505973164,"143":0.01495616357153682,"144":0.19438970724196533,"145":-0.18688801207593164,"146":-0.13496267699740286,"147":-0.0654567705193842,"148":-0.017990705884687645,"149":-0.1504129615897074,"150":-0.0682056057303787,"151":0.12191740887830477,"152":-0.019790045404476306,"153":-0.09459511125658931,"154":0.004600147161194577,"155":0.0563851149419026,"156":-0.10313285904857886,"157":-0.14704961448777887,"158":-0.027177760353127398,"159":-0.1795516272995424,"160":0.012999888960289993}},{"sx":1,"sy":1,"depth":161,"w":{"0":-0.0018727389330926523,"1":-0.002114953799957035,"2":-0.006474946443978714,"3":-0.020298379776587758,"4":-0.0006014953362607409,"5":-0.002693374937859027,"6":0.000576752816838664,"7":0.000980730109655472,"8":-0.02016431116082872,"9":-0.004948944296835021,"10":-0.012601570242285491,"11":-0.0009232016534873793,"12":-0.0022388949205611438,"13":-0.0005275307095155999,"14":-0.013140590043995197,"15":-0.03177004824032055,"16":-0.006966764860134786,"17":0.004178043246681413,"18":-0.000527120026029977,"19":-0.006114798119839583,"20":-0.0011226637361955558,"21":-0.009252144885769354,"22":-0.0032578845020803013,"23":-0.0022564243343158835,"24":-0.04308188848230978,"25":-0.0004933017665035973,"26":0.00004987694428475707,"27":-0.0016439017648566092,"28":-0.017822504138006498,"29":-0.004577831723037366,"30":0.004109350428141785,"31":-0.0154540358185889,"32":-0.001799773947954632,"33":0.002556806238056518,"34":-0.0004895899179241447,"35":-0.004458855472471281,"36":0.022289117469276504,"37":-0.008401393931966306,"38":-0.0010962125974878574,"39":-0.003821362219634042,"40":0.0012161844134487832,"41":0.0009900019298814146,"42":-0.01641272592798448,"43":-0.02034017883340138,"44":-0.0014195229150618703,"45":-0.00535545733934269,"46":-0.0026097877166265638,"47":0.002511295532622854,"48":0.0029520663583601655,"49":-0.004944075915801278,"50":0.006629169772677926,"51":-0.003921609838502333,"52":-0.02031411017054569,"53":-0.002047928516189682,"54":-0.003372041495996787,"55":0.0023011863170015814,"56":-0.004367341463174345,"57":-0.006290790656174882,"58":-0.020053419397412647,"59":-0.022494136692655105,"60":-0.0041803887204309035,"61":-0.001507950203446035,"62":0.0020717546966895818,"63":-0.003993025370510299,"64":0.002406803948379441,"65":-0.020032475392927913,"66":-0.005895120769107178,"67":-0.0026220847351346014,"68":-0.001350505726018467,"69":0.0013449663502343252,"70":-0.004730041602112375,"71":-0.0005006779119521995,"72":-0.03836659522398252,"73":-0.027326353269749613,"74":-0.0047422700683039665,"75":-0.002389912668524052,"76":-0.0003243160283211096,"77":-0.011597585616525964,"78":0.00005496915278654843,"79":0.03241544474680315,"80":0.0005920471309554321,"81":-0.0055881916094360565,"82":-0.0008499748790831936,"83":0.0003687297317781858,"84":-0.023984733929504554,"85":0.0032814270924795934,"86":-0.0013501868960571152,"87":0.034950726497707744,"88":-0.0017302701849435391,"89":-0.0015726217886916961,"90":-0.0006181579680868884,"91":0.00992790134968734,"92":-0.004355650376117734,"93":0.04046158148047921,"94":-0.031168987324157876,"95":-0.00257249085654058,"96":-0.001924108888311492,"97":0.0008586825863452918,"98":0.0018381528679937637,"99":-0.0025032267959319366,"100":0.011085299538292891,"101":-0.021551961156508894,"102":-0.004681710428060999,"103":-0.0004823719886134895,"104":-0.0012552169043889446,"105":-0.014408292298264527,"106":-0.013805724083606545,"107":0.020096629056991697,"108":0.02471065628234414,"109":-0.003012682743200703,"110":-0.0013011207644342208,"111":-0.0005314138921775679,"112":-0.029349307963554925,"113":-0.016824188174877932,"114":-0.014661754589924731,"115":-0.01568183623955819,"116":-0.0011887104129608488,"117":0.0011297973594116826,"118":-0.0006114351831932557,"119":-0.0008820099006952538,"120":0.035085606175789937,"121":0.021542848783394356,"122":-0.015323675241840891,"123":-0.0014581832861409272,"124":-0.001273216956013575,"125":-4.0059702652590215e-7,"126":-0.01360494027287007,"127":-0.010127237211149583,"128":0.004006515729553259,"129":0.02201416862125096,"130":-0.001511367599846606,"131":-0.0027816393894364434,"132":-0.0002611827493843323,"133":-0.006478252377588931,"134":-0.001408152480055778,"135":0.00042416877148038673,"136":-0.006177243863958007,"137":-0.0023890799795421957,"138":0.00009727138081942552,"139":-0.0000878108760924235,"140":0.015166044422945831,"141":-0.0017615111095942986,"142":-0.030759899565858624,"143":-0.006857935884165149,"144":-0.001634130012364966,"145":-0.0033671848701738952,"146":-0.00038505868629073726,"147":-0.0018984465530065557,"148":-0.016045960481573255,"149":-0.00036614893414210905,"150":-0.010464123960893315,"151":-0.00008514549683044552,"152":-0.0028798159751471926,"153":-0.0004844400834446414,"154":-0.00304816469726282,"155":0.002332954734411882,"156":0.004568396169946964,"157":-0.005590842305693836,"158":0.0012061183258111304,"159":-0.0024552120372935277,"160":0.0017458497862543863}},{"sx":1,"sy":1,"depth":161,"w":{"0":-0.023640899555251692,"1":-0.002557575468378525,"2":-0.0166248202675468,"3":0.04666560895127545,"4":-0.010347560502897717,"5":-0.10214255500233592,"6":-0.0498594764935519,"7":-0.03786405330752866,"8":-0.120388396254078,"9":-0.033096720083038156,"10":-0.008908725291124053,"11":0.045321687507058624,"12":0.03431648651023847,"13":0.026619462098130372,"14":0.13282322402172198,"15":0.009318912454613543,"16":-0.0343565412558334,"17":0.017128460799106193,"18":0.014837163190918027,"19":-0.03702499304263658,"20":0.06679612247364085,"21":0.05645230674619081,"22":0.04373519880325468,"23":-0.09717080882915954,"24":0.008266810421294055,"25":0.06288984985774533,"26":0.0505486495323237,"27":0.026757460382592087,"28":0.010082434706671117,"29":0.05307903643933307,"30":-0.04895369015710619,"31":-0.04072267498333904,"32":0.07741225484428679,"33":-0.027418193706738217,"34":-0.02421108793525145,"35":0.04312675321311182,"36":0.07972724706492725,"37":-0.0024624295905804876,"38":-0.05380052516116066,"39":-0.05244414897727729,"40":-0.10145339538022406,"41":-0.05713365054469363,"42":0.09271069911552252,"43":-0.020187519219868853,"44":-0.07288949901652257,"45":0.01579822074040966,"46":0.0029030350532615306,"47":-0.021267683322588073,"48":-0.002372788597517051,"49":-0.004661867911339044,"50":0.0032733760925048407,"51":0.04610322550184275,"52":0.04026906230130646,"53":0.024706860176861956,"54":-0.022733019800994687,"55":-0.00694776886776026,"56":0.016515789132842656,"57":-0.04667150085828323,"58":-0.0730845488372191,"59":-0.05806995841664417,"60":-0.005779766214911222,"61":-0.08599527881742704,"62":0.11799877835173311,"63":-0.08415690366979325,"64":-0.016152651861374902,"65":-0.04269920318048906,"66":0.04770530772789304,"67":-0.07523888534435287,"68":0.09519682656745511,"69":-0.10627428164694744,"70":-0.06090568904943837,"71":0.05632009480693905,"72":-0.07134632079686601,"73":0.01847760945462814,"74":0.053690036753264274,"75":-0.13670310574671707,"76":-0.02230199845195802,"77":-0.005209691825863195,"78":-0.01565957228067194,"79":-0.03293731695289852,"80":0.08679499003858426,"81":0.02999346926780517,"82":-0.014560220952361171,"83":0.010106266571244549,"84":-0.0407505833013052,"85":-0.0038859087306575574,"86":-0.022624256087313086,"87":0.01446351989437651,"88":0.007947445087865346,"89":0.003308874211216909,"90":0.07029268800972249,"91":-0.04685992451215481,"92":0.006983980606120448,"93":-0.03362002994134295,"94":-0.06426721145783008,"95":-0.008080024008304508,"96":-0.038625023922470754,"97":0.005984533839808126,"98":-0.06913731160825778,"99":-0.004070334979476433,"100":-0.03962715161936501,"101":-0.0020935038873891964,"102":-0.057577992607978086,"103":-0.0005011206149481035,"104":-0.02233194464207114,"105":-0.0233913082850925,"106":0.03771905728426236,"107":0.07802878444309289,"108":0.07254994694903681,"109":0.018353734161715166,"110":0.0035215243052069715,"111":-0.024441009946599805,"112":0.026881515003651282,"113":-0.060188605208377925,"114":0.03688974321863409,"115":-0.09067314317547383,"116":-0.0013090874168156998,"117":-0.007703166739427897,"118":0.04125196225784118,"119":0.03302503427381991,"120":0.0005390169622345104,"121":0.05408612187975583,"122":0.003937444621490316,"123":-0.10988937650688176,"124":-0.01286539858178377,"125":0.024629904294426148,"126":-0.024118647650462982,"127":0.017310954206219878,"128":0.17976354883757156,"129":-0.08442941118823409,"130":-0.030794201665598715,"131":-0.11359474266234863,"132":0.014272214150812652,"133":-0.03493685511564467,"134":0.002237054086338008,"135":-0.08654293117024364,"136":0.06500732843643754,"137":-0.0653739355576625,"138":0.03743602758034781,"139":-0.12983630022362433,"140":-0.02553296692162798,"141":-0.026836538513452468,"142":-0.1301639851143077,"143":-0.00821222293447671,"144":-0.003410815540729281,"145":0.09413051512139206,"146":-0.11031004334796851,"147":0.04938532335629678,"148":0.058883195129744104,"149":-0.026525064837363235,"150":-0.043269331676334545,"151":-0.00776486472247798,"152":-0.0077744729070988935,"153":-0.013786583904275784,"154":0.06395855117461267,"155":-0.06445150504064386,"156":-0.00789852813559639,"157":-0.051056060561714564,"158":-0.03909293629919522,"159":-0.03947717778658342,"160":0.003656996749526657}},{"sx":1,"sy":1,"depth":161,"w":{"0":-0.08017223972101052,"1":-0.03936971706929905,"2":-0.003879894604232023,"3":-0.05555547181709818,"4":0.014188657375600293,"5":0.06204554495673525,"6":0.027877056772608034,"7":0.05362981933551554,"8":0.022858818511258983,"9":-0.1244741820080885,"10":-0.11151350277236,"11":-0.08886911968624196,"12":-0.0669623989218589,"13":-0.007822580741159421,"14":0.012802587405452455,"15":0.03238293674896255,"16":-0.09444052177802574,"17":0.05919403185893941,"18":0.025473686458051502,"19":0.00426387324362044,"20":-0.04447446192190888,"21":-0.08850348273110346,"22":-0.0684527452411207,"23":0.05676616820772453,"24":-0.17915118381736242,"25":0.09222147509429784,"26":-0.005839280713427068,"27":0.008603125510537954,"28":-0.09511310296974089,"29":0.07759715323560205,"30":-0.02028904230054832,"31":-0.07873515311412017,"32":0.049676521742648846,"33":0.006979703579601316,"34":0.04331192293657087,"35":-0.00770553852700868,"36":-0.09654267971461944,"37":0.004444120117725914,"38":-0.11130220936177883,"39":0.012620896325187704,