//<![CDATA[

// a few things don't have var in front of them - they update already existing variables the game needs
lanesSide = 3;
patchesAhead = 20;
patchesBehind = 3;
trainIterations = 60000;

var num_inputs = (lanesSide * 2 + 1) * (patchesAhead + patchesBehind);
var num_actions = 5;
var temporal_window = 0;
var network_size = num_inputs * temporal_window + num_actions * temporal_window + num_inputs;

var layer_defs = [];
layer_defs.push({
    type: 'input',
    out_sx: 1,
    out_sy: 1,
    out_depth: network_size
});
layer_defs.push({
    type: 'fc',
    num_neurons: 161,
    activation: 'relu'
});
layer_defs.push({
    type: 'fc',
    num_neurons: 161,
    activation: 'relu'
});
layer_defs.push({
    type: 'regression',
    num_neurons: num_actions
});

var tdtrainer_options = {
    method: 'adagrad',
    batch_size: 100,
    l1_decay: 0.004,
    l2_decay: 0.002
};

var opt = {};
opt.temporal_window = temporal_window;
opt.experience_size = 15000;
opt.start_learn_threshold = 100;
opt.gamma = 0.93;
opt.learning_steps_total = 10000;
opt.learning_steps_burnin = 1000;
opt.epsilon_min = 0.02;
opt.epsilon_test_time = 0.04;
opt.layer_defs = layer_defs;
opt.tdtrainer_options = tdtrainer_options;

brain = new deepqlearn.Brain(num_inputs, num_actions, opt);

learn = function (state, lastReward) {
    brain.backward(lastReward);
    var action = brain.forward(state);

    draw_net();
    draw_stats();

    return action;
}

//]]>
/*###########*/
if (brain) {
brain.value_net.fromJSON({"layers":[{"out_depth":161,"out_sx":1,"out_sy":1,"layer_type":"input"},{"out_depth":161,"out_sx":1,"out_sy":1,"layer_type":"fc","num_inputs":161,"l1_decay_mul":0,"l2_decay_mul":1,"filters":[{"sx":1,"sy":1,"depth":161,"w":{"0":0.03895369333785727,"1":0.09924973644032654,"2":0.1401982701112873,"3":0.06297235201821341,"4":0.001261654850050473,"5":-0.05264249157729684,"6":0.06781670256614673,"7":0.11471699298696138,"8":0.1571981005480859,"9":0.03762315838677481,"10":0.09344475404883058,"11":-0.11076673172599896,"12":-0.07588379064157832,"13":-0.024235714328162752,"14":-0.0906559798868017,"15":0.062274013232866014,"16":0.05809550741274643,"17":-0.0826090692416789,"18":0.045332132084574955,"19":-0.11803517705392387,"20":0.07400245415833158,"21":0.032378495361426805,"22":0.05482449221014178,"23":0.004967368570199064,"24":0.027941414918082556,"25":-0.0009263163701557341,"26":0.041619993764314786,"27":0.011538903728811487,"28":0.0716185850923557,"29":0.022475534224581588,"30":0.16509424571636586,"31":-0.044952749303728244,"32":-0.099259733126214,"33":-0.051551204751351984,"34":-0.05367000842138047,"35":0.021795432381603627,"36":-0.03141050200178617,"37":0.020390046622863887,"38":0.015444723136708183,"39":0.03815384189675717,"40":0.10952106399062736,"41":0.10197861221589584,"42":0.06633779747066179,"43":-0.06655932179148485,"44":0.08179460367566016,"45":0.020359482525723047,"46":-0.09956305523243497,"47":-0.04663597124568204,"48":0.019981486663325044,"49":-0.06654994979605015,"50":0.055241251587975174,"51":0.054933296447274134,"52":0.013254604142195965,"53":-0.026964345222921217,"54":-0.04735253676688767,"55":0.030010661295739878,"56":-0.04896732767388619,"57":0.0982763406604598,"58":-0.008885826406851791,"59":-0.1597097500961381,"60":-0.015565200122743995,"61":-0.043534769950276456,"62":0.02104551922187751,"63":-0.017029999870726235,"64":-0.10649231411057093,"65":0.17192580558122103,"66":-0.001496150416121596,"67":-0.20769218025755082,"68":-0.030587329477449948,"69":-0.05117288559587066,"70":-0.08432159626137345,"71":-0.11263225934019544,"72":0.12482821523864415,"73":0.034228475024350134,"74":0.049580248560081405,"75":-0.08522911726376267,"76":-0.047444720219486355,"77":-0.04973892498396243,"78":-0.07073853085059259,"79":0.03885099392111136,"80":0.09120233709455845,"81":0.035211585227371126,"82":-0.0820491496618243,"83":-0.06605350487713013,"84":-0.01955899013575712,"85":0.0556792069835645,"86":0.23236423994539546,"87":-0.09594949050338615,"88":-0.1121674467076652,"89":-0.010617725771315667,"90":0.16402940200075405,"91":-0.009167405580739415,"92":-0.04042461371763854,"93":0.06819073155029644,"94":-0.020855880349903044,"95":-0.18914414223839177,"96":-0.13705705513554003,"97":-0.055827397548957894,"98":-0.02393002014756163,"99":-0.0196765654835135,"100":0.21725623297722219,"101":-0.034401513171367484,"102":-0.12353772041916963,"103":-0.016572297384506905,"104":-0.029542757974167326,"105":0.011390025895671285,"106":0.12153801743783792,"107":0.2178387081169116,"108":0.08558946251101027,"109":-0.17210884394471263,"110":-0.02821014941245768,"111":-0.04182142594102593,"112":-0.013824105724107654,"113":-0.05117369693911505,"114":0.22557022609961228,"115":-0.0716278598842846,"116":-0.10948854703436815,"117":-0.05533422879321346,"118":0.007071805980584968,"119":0.06490994169579463,"120":0.10143710514592298,"121":0.2423383450002178,"122":-0.043972423724548376,"123":-0.033385635933013705,"124":0.03185159463964281,"125":0.08737332286736024,"126":0.05777389926211561,"127":-0.1464277671550609,"128":0.3356693335196735,"129":0.040486528738837534,"130":-0.10678255423626322,"131":-0.12098750998066068,"132":-0.07296723891918176,"133":0.02059459649692167,"134":-0.11345917067422318,"135":0.10641990506518582,"136":0.0035492488885868157,"137":-0.10267586013690662,"138":-0.1899475431540075,"139":0.13797560835301664,"140":-0.08186749125178258,"141":-0.0038967106630850594,"142":0.09448928450708358,"143":-0.018861701707536493,"144":-0.04550153210504606,"145":0.028043037074404,"146":-0.119173185762548,"147":0.042966782103425076,"148":0.0034844617911574125,"149":0.09044781439325988,"150":-0.042443672213638504,"151":-0.15955181320157755,"152":0.10906699187439517,"153":-0.07105677085361133,"154":0.09456153808651158,"155":0.0822845566141695,"156":0.10974130238160212,"157":0.009970687748586494,"158":-0.0725600395698399,"159":-0.14366258539521104,"160":0.02571803657961012}},{"sx":1,"sy":1,"depth":161,"w":{"0":0.09774388062673542,"1":-0.008691876746151517,"2":0.07375761990505669,"3":-0.05890032367031459,"4":0.018806145666145333,"5":0.02105013877134145,"6":0.07239399268235899,"7":0.0868201802886743,"8":0.006615604398433573,"9":0.047541091320700016,"10":0.14645540920997505,"11":0.005470911064206556,"12":0.1383260421065932,"13":0.10177999617315947,"14":-0.01760181046647534,"15":0.07703105288562939,"16":0.13572695320627617,"17":0.06326105548025458,"18":0.118041285279029,"19":0.1003792888112584,"20":-0.10229644068167545,"21":0.06956959045328226,"22":0.020916395735428566,"23":0.14133241181151115,"24":-0.022781280643148428,"25":-0.0735803824534722,"26":0.015045907923057308,"27":0.0033633499950437335,"28":0.06377657782002516,"29":-0.0670673429173705,"30":0.028010052251694343,"31":0.12502154435476825,"32":0.045845769100567944,"33":-0.015929440804061144,"34":0.08575331703475972,"35":0.02672288250402195,"36":-0.012822348934777473,"37":0.07202103808596777,"38":0.03477367475819727,"39":-0.07331414108250255,"40":0.198903151842193,"41":-0.07595601580867294,"42":-0.039087965182960274,"43":-0.049260638549838004,"44":0.14458364349749,"45":-0.08997024992291373,"46":0.0331037317815923,"47":-0.018888278275349255,"48":-0.07025604519085941,"49":0.10575963673835476,"50":0.07677813474584105,"51":0.02896700436876207,"52":0.025283302891822963,"53":-0.1485847036369725,"54":0.029902116699132893,"55":-0.06459221453918279,"56":0.021561941431648243,"57":0.1019460673359232,"58":0.13309158789771403,"59":-0.015731159450133692,"60":-0.04473863846699261,"61":0.08005381777555004,"62":-0.18452273341083045,"63":-0.005718009620959234,"64":0.14160253591103297,"65":0.02614689697867325,"66":0.10959462111370898,"67":-0.09303523409671767,"68":0.0312643330085857,"69":-0.023559717899316924,"70":-0.11279257377854034,"71":0.09752218739901242,"72":-0.020477945536490124,"73":-0.035768238468642695,"74":-0.11063666261805545,"75":0.08295227031416033,"76":-0.027310928606634984,"77":-0.010755257760226202,"78":0.028353599956095463,"79":-0.00726040092148762,"80":-0.06807785734119637,"81":-0.114817214361464,"82":-0.09678887807100052,"83":-0.10756917465208155,"84":-0.004813431983750384,"85":0.09617922182988653,"86":-0.006797142786929699,"87":0.1610174423517998,"88":0.06754583179732004,"89":-0.03542039326052762,"90":0.03295074142637449,"91":-0.08842579920755682,"92":-0.008658645388483906,"93":-0.0005048961507271946,"94":0.18331492752937004,"95":0.04891057015751377,"96":-0.07114871696345973,"97":0.036659505218749694,"98":-0.0627722875347802,"99":0.09146387446030906,"100":0.12696104096469377,"101":-0.17730212344645843,"102":0.009420211379722139,"103":0.05923734461912182,"104":-0.015979491097026094,"105":0.18855219315421848,"106":0.0763150281754314,"107":-0.03298778231978683,"108":-0.00452209599680837,"109":0.128261045495748,"110":-0.052994429482371694,"111":0.037990229341334246,"112":-0.02965226212600276,"113":-0.05407889063754251,"114":0.03968299780025359,"115":-0.05596138395897649,"116":0.058643124328995266,"117":-0.009547303664841295,"118":0.12832401362974444,"119":-0.02748210180553516,"120":0.02193187953326008,"121":-0.0019606308649791643,"122":-0.08635913916804175,"123":0.11712200930539181,"124":0.018268361715921236,"125":0.05056050492788802,"126":-0.014122459854737614,"127":-0.022605309307009915,"128":0.06702754438417396,"129":-0.19696054956896933,"130":0.1127781800741816,"131":0.11236723071960007,"132":0.11979181828331684,"133":0.038438185113210094,"134":-0.05720442550677248,"135":0.13945397145151922,"136":0.0038439431813376422,"137":0.005764261253895463,"138":-0.041115282376313046,"139":-0.06851820236915288,"140":0.017141118263719463,"141":0.059082717873885464,"142":0.23914300294218122,"143":-0.01275450799128417,"144":-0.08351967272636607,"145":-0.05056731493480778,"146":-0.061718228432502686,"147":-0.06488114209814962,"148":0.019982110387691362,"149":-0.08330131095717648,"150":-0.00927889354093484,"151":0.04881155025228848,"152":-0.14029268435032466,"153":0.010040063768251135,"154":0.0012085089141627965,"155":0.008002761780032456,"156":0.09604033333145352,"157":0.05951843008611832,"158":0.06652335345864412,"159":-0.03298761486823297,"160":0.041403071066879044}},{"sx":1,"sy":1,"depth":161,"w":{"0":0.028143223060247295,"1":0.12218391118674321,"2":0.25939944502846785,"3":0.0031462524552962065,"4":0.08708792231766037,"5":-0.008597715859131468,"6":0.09677557764519641,"7":0.018978616464213977,"8":-0.05501600426516919,"9":-0.07951034910739405,"10":0.004717429221375379,"11":0.007123446012122613,"12":0.11388595070163351,"13":-0.17411210924432352,"14":0.13805298815999098,"15":0.0211451273330938,"16":-0.07262598661341202,"17":-0.09478139816810013,"18":0.057726668968854936,"19":-0.02882849251518172,"20":0.08776418469631515,"21":-0.11881293084842674,"22":-0.039008779216886565,"23":0.08413540211197376,"24":0.11754392599134074,"25":0.025990434657698323,"26":0.07869873830376639,"27":0.015983011488188734,"28":0.06076317882781633,"29":0.16616724215663375,"30":0.05313919696707543,"31":0.08001688705246131,"32":0.029755259774761754,"33":-0.0944322201412302,"34":-0.2025009281753809,"35":0.17728933121875884,"36":0.0447556892039312,"37":0.044944197142228984,"38":0.1334869178559918,"39":0.034325319676638585,"40":-0.14990336829306652,"41":-0.10730703789298948,"42":0.020984679004852614,"43":0.27615350941497624,"44":0.01377468668184441,"45":0.11398858532897249,"46":0.00048538576114825994,"47":-0.01851330907971864,"48":-0.12230989566132917,"49":0.05986039570954227,"50":0.04328446105474568,"51":0.05534669736735241,"52":-0.05162336534975844,"53":0.08265443028413058,"54":-0.178606591044145,"55":-0.03415544755743954,"56":-0.09977636213159395,"57":-0.02893145251887353,"58":0.02088736464435299,"59":0.1402953308951521,"60":0.005561034172100405,"61":-0.06557766577661682,"62":-0.03234943392952873,"63":0.06481194030577474,"64":-0.08199930718178405,"65":-0.05622455239136174,"66":-0.01718414602751627,"67":-0.012369832207098223,"68":-0.17205382301601332,"69":0.05502116580161563,"70":0.04857838305746916,"71":0.025328336591644324,"72":0.0679630158991814,"73":0.29056705198205984,"74":-0.069601044625873,"75":-0.060808061933600284,"76":0.004938485882085823,"77":0.05660768460978427,"78":-0.07855882513192464,"79":0.09321294155132118,"80":0.03083374078222028,"81":-0.031131288119371204,"82":0.04189363518175293,"83":0.016331016049897052,"84":-0.03670355937830021,"85":0.061299018862399614,"86":-0.037624200584571825,"87":0.21548966533439673,"88":0.006393989442520213,"89":-0.022695832298013422,"90":-0.13166712608274725,"91":-0.11643524628449844,"92":-0.04174235497021981,"93":0.05039348918685432,"94":0.18743940120846964,"95":-0.030963683568901085,"96":-0.029402643308584487,"97":0.04810172012099895,"98":0.015396131448662304,"99":-0.0829505080919395,"100":0.05963022565722343,"101":0.17397509153269675,"102":-0.009759950687556836,"103":0.06586233312342923,"104":-0.11051148181943095,"105":0.021851793899525834,"106":-0.04214846238118425,"107":0.01772248900684707,"108":-0.0030976316416674353,"109":0.03881453126668948,"110":0.07191442847603227,"111":0.06447654798928851,"112":-0.031152717101609835,"113":0.005875435426565189,"114":0.1680796683284423,"115":0.11999506959630056,"116":-0.11966146303708859,"117":-0.12029015046864731,"118":0.041871869435113965,"119":-0.10858063696072244,"120":0.0915847690978512,"121":0.02230328807042823,"122":0.11239850040400937,"123":-0.006847454251635323,"124":-0.01231227130163847,"125":0.04411784572423545,"126":0.08553969989007432,"127":0.05647505740031477,"128":0.05301443024469057,"129":-0.01681933338764593,"130":-0.1578777714255013,"131":-0.05654265121674526,"132":0.01676557354252853,"133":-0.061044538074285254,"134":0.10440759904329583,"135":-0.015795982472552764,"136":0.00023716686201481795,"137":0.000390125756083207,"138":0.0730100479959383,"139":0.036053084153083566,"140":-0.09762858219177768,"141":0.07084789447248532,"142":0.14491841510184933,"143":0.08413437987009018,"144":-0.0342793042464795,"145":0.015519978818234623,"146":-0.04092124226752701,"147":0.06757822809888188,"148":0.1155695007458159,"149":0.05699711185811745,"150":-0.03874491264726118,"151":-0.03298828594865527,"152":0.03758882528075252,"153":-0.16003584232566395,"154":-0.03221012339971952,"155":0.017084845113329913,"156":0.003100753882368927,"157":0.03237705403844557,"158":0.11861510880728998,"159":0.059432854909411185,"160":0.12254853580445242}},{"sx":1,"sy":1,"depth":161,"w":{"0":0.0681787536542465,"1":-0.018393686797452628,"2":0.046927145810257025,"3":-0.0939305477762477,"4":-0.2265950514435669,"5":-0.06727937188114845,"6":-0.005237155602776277,"7":-0.014738488159080347,"8":-0.04352162309048947,"9":-0.03561339894267479,"10":-0.1728122180259568,"11":-0.06849629796484626,"12":0.021544730266519617,"13":-0.005316121873246926,"14":0.014306510001053924,"15":0.09295797624066504,"16":-0.06083675618479807,"17":0.003638832321932795,"18":-0.011861059005501282,"19":0.0021635190123700837,"20":0.00008348880886666894,"21":-0.0029701288194416754,"22":0.056417624693715696,"23":0.013854339777019012,"24":-0.01741678214017268,"25":-0.09480920277043603,"26":0.02703987622594566,"27":0.013851359062384147,"28":-0.07264928756708006,"29":-0.08234759926417383,"30":0.0059962888216760785,"31":-0.1467908496116342,"32":-0.10584869422346993,"33":-0.0573026905653141,"34":-0.002695966437297265,"35":0.01822361821381304,"36":0.10655501429928042,"37":0.03364878073534724,"38":-0.15317061508410174,"39":0.05203093055920688,"40":0.02667221254784468,"41":-0.000781874805291184,"42":-0.016850025161513047,"43":-0.0502218835084189,"44":0.10299982896638951,"45":-0.07067690854913578,"46":0.00441231928780679,"47":0.009441139504261436,"48":0.0037408333094675742,"49":0.017052258960139722,"50":0.03675268176757286,"51":-0.0005253491549551719,"52":-0.006156053806986426,"53":-0.036101646417804736,"54":0.043133474934825965,"55":-0.03345702102915711,"56":-0.05432694560403359,"57":0.0811524107947228,"58":-0.09590634214357584,"59":-0.1127639306595873,"60":-0.0514397109437758,"61":-0.020733753020868235,"62":-0.06512158247551153,"63":-0.052411849596711774,"64":0.0006197708804162353,"65":-0.2092774203848793,"66":-0.03620951771236093,"67":-0.06730506656221222,"68":-0.04494066023009716,"69":-0.058033679697548385,"70":-0.02821906281133722,"71":-0.056264892138098085,"72":-0.2110425544368711,"73":-0.06818350125114099,"74":-0.05320882839320442,"75":-0.021395973677269888,"76":-0.08024049431899481,"77":0.01599102630108312,"78":-0.06367222076804545,"79":-0.14174536764114462,"80":-0.13104898027327758,"81":-0.043419693235641404,"82":0.08665346476680619,"83":0.011339048349810296,"84":-0.06386381741100923,"85":0.06516794732902781,"86":-0.011771143459105928,"87":-0.22610285086531043,"88":-0.013213684610979413,"89":-0.012669411378508438,"90":0.0421311979379282,"91":-0.03448369242475083,"92":-0.12926239363602948,"93":0.1323099989200963,"94":-0.36150928404470517,"95":0.005589601781262719,"96":0.025085285101058005,"97":0.07594555057797435,"98":0.034699679637403814,"99":0.0041432633212732895,"100":0.07479584758639493,"101":-0.35376297722266015,"102":-0.0331449496323098,"103":-0.006535353994698473,"104":0.03302994105798387,"105":-0.05880644964978699,"106":-0.027880595993169735,"107":0.019528889780315747,"108":-0.3019203424998257,"109":-0.05581904886660453,"110":-0.004879902519515129,"111":0.010683482980616247,"112":0.01956634986575203,"113":-0.07020966233320063,"114":-0.0385713825771126,"115":0.009134159621179336,"116":0.05399062834975404,"117":0.014572938483766763,"118":0.052377987874332343,"119":-0.03229295759780253,"120":0.04462662341340987,"121":-0.15119463034526337,"122":0.14886663951745022,"123":0.00007472412028322094,"124":0.013233272945936903,"125":0.028899434850945944,"126":0.0710051015490141,"127":0.08413342917926951,"128":-0.2856794354550485,"129":0.12420062280556009,"130":-0.038592808231447395,"131":0.08588961010555964,"132":-0.008079299763288254,"133":-0.014134328935880328,"134":0.11854596697496661,"135":-0.07310955062709082,"136":0.10450248570241963,"137":-0.055862368647097115,"138":-0.018879849138792974,"139":-0.07667195657200096,"140":0.17497770279588973,"141":-0.026893144727693295,"142":-0.08917910450625667,"143":0.22337010147367334,"144":0.024793090338932403,"145":0.0767237758177822,"146":-0.05263547451479226,"147":0.019426196975070118,"148":0.06827892250090499,"149":-0.08193522030458973,"150":0.11806132138461616,"151":0.17393515658771225,"152":0.036051557039022464,"153":-0.07366695625346298,"154":0.06416645774898358,"155":-0.0054645881296605005,"156":0.006304361828597685,"157":0.07257840466203681,"158":0.0946393762345149,"159":0.04621574974125393,"160":-0.02110772645381179}},{"sx":1,"sy":1,"depth":161,"w":{"0":0.09367763843478996,"1":-0.044252008645489976,"2":0.017279186478373947,"3":0.015917314024051204,"4":-0.14259333457755793,"5":0.08466952300548924,"6":0.01576753226096706,"7":-0.08505312448151392,"8":0.06465287945537747,"9":-0.11019471139915682,"10":0.10131029679511062,"11":0.021814407197012626,"12":-0.10661637515789793,"13":-0.01914952920740117,"14":0.1145049236238542,"15":0.034584562065436836,"16":-0.011459713982850233,"17":0.10544676989056335,"18":-0.07849798177191059,"19":-0.09110587916978975,"20":0.08434328169427215,"21":0.10427502608262369,"22":-0.08856236422680913,"23":-0.08661453118934137,"24":-0.10970921637124235,"25":0.028843329818896892,"26":-0.01150247746586407,"27":-0.022483487029338285,"28":0.054251875253088784,"29":0.059507121499885116,"30":0.09433091569549067,"31":-0.007293627139242784,"32":0.03278633734186691,"33":0.14055121513829485,"34":0.0024652692327057912,"35":0.08766271671102821,"36":-0.004753304267574484,"37":-0.018680617968598524,"38":-0.03477391308722166,"39":0.02970552556805297,"40":0.019955162059780537,"41":0.031927964752895714,"42":-0.0656660075727261,"43":-0.08431785055352063,"44":-0.15108405807182101,"45":0.059606781437315536,"46":0.22582589576377227,"47":-0.08107515090047437,"48":-0.08394797777226397,"49":-0.07648256573875419,"50":0.06402583314511019,"51":0.05561920757080006,"52":0.02311496918382149,"53":-0.1582842866735494,"54":-0.08419043974137785,"55":0.0775337164699559,"56":0.03297066225597871,"57":0.0701954638691098,"58":0.017671884843636135,"59":0.07716530602649296,"60":-0.11064713072125837,"61":0.01373838649752839,"62":-0.027447893367835336,"63":0.06424086921525758,"64":-0.015811149839845547,"65":0.024341440160953843,"66":-0.003606168049293089,"67":0.05684817056341079,"68":0.03642380366639963,"69":-0.11691471679176163,"70":0.08457568451917374,"71":0.017141356772122956,"72":0.24447684796069868,"73":0.0950080334456846,"74":0.01405465383469311,"75":-0.012230044648335292,"76":-0.08458726106668843,"77":0.02754680911497048,"78":0.11218516960393457,"79":0.057366330143094134,"80":0.0016420304246440092,"81":-0.0906133892179704,"82":0.022281011771735255,"83":0.05133909084188108,"84":0.09237226143477142,"85":-0.02936292714089103,"86":0.014072141875899483,"87":0.16566815326407391,"88":-0.044534066928577705,"89":-0.03041257554514009,"90":0.12053490213908212,"91":-0.035968206625155257,"92":-0.16692214051687487,"93":-0.006266203585278412,"94":-0.09463676002244423,"95":-0.10995368873895683,"96":0.04677902209382379,"97":0.010928835708215923,"98":0.08855103076587985,"99":0.013059468211621518,"100":0.04050254625377275,"101":0.021721208417485635,"102":-0.16726043306633326,"103":0.09231181969904129,"104":0.12172659327069651,"105":0.006131214451236711,"106":0.02721524814580036,"107":0.004021440354845554,"108":0.1253249813318473,"109":-0.03828478093464942,"110":0.022371969318926606,"111":0.0060295656601441275,"112":0.11588383624796017,"113":0.045346340655126924,"114":0.14376078128806025,"115":-0.09603293578852944,"116":-0.1907218297835096,"117":0.05429465115862946,"118":-0.061701339630758176,"119":-0.036818458532722954,"120":-0.043674435926064945,"121":0.11312341314561782,"122":-0.0217997401727839,"123":0.07510554972411336,"124":0.03896152775162812,"125":-0.03653733796385537,"126":0.01673422224069557,"127":-0.021264937728847667,"128":0.20347108449965234,"129":-0.06544509225093778,"130":0.05869112573200373,"131":-0.07065213244862371,"132":0.02845185063137922,"133":0.017466893608711766,"134":-0.03563853782355422,"135":-0.014098142762253204,"136":0.1228379733456158,"137":-0.008889292458140446,"138":-0.0752569825162907,"139":-0.07287376159894592,"140":-0.10240270272536774,"141":-0.0588203268277266,"142":0.08989067773905567,"143":0.06679416997883761,"144":0.056890203368048495,"145":-0.013981132018224509,"146":0.08893380232345273,"147":0.07196717103783794,"148":-0.13707790941819875,"149":0.06906377297754557,"150":0.11183795720522373,"151":-0.08880942678254353,"152":-0.030699529034620966,"153":-0.20902352146861364,"154":-0.00342944576138091,"155":-0.09818745498058966,"156":-0.030994589260683575,"157":0.059261523884898776,"158":0.030979295628832094,"159":-0.1185515166843022,"160":-0.06208728578636322}},{"sx":1,"sy":1,"depth":161,"w":{"0":0.09169799462128501,"1":-0.15213768507070047,"2":0.05923625536569606,"3":0.16675424211024967,"4":-0.060201808133493975,"5":0.08567428172863553,"6":0.04491202440485268,"7":0.03925534772982411,"8":-0.08087344096022406,"9":0.2232239736837075,"10":0.013215366855611275,"11":-0.109150286076376,"12":-0.09372786998126943,"13":-0.06863797973830868,"14":0.020326840857462617,"15":0.03505447131225296,"16":0.31473947721172185,"17":-0.0862476527832051,"18":-0.032436260601106756,"19":0.05983545342873735,"20":-0.06727317004927284,"21":0.06277026323096818,"22":0.005961162918214225,"23":0.05636355254262099,"24":0.041424663375688064,"25":0.08162172342652721,"26":-0.005668510638060456,"27":-0.018935778206438984,"28":0.11954674796030973,"29":0.061052970730573815,"30":-0.05935822503070445,"31":0.08708520474190674,"32":-0.014408123828708852,"33":0.03914636732185659,"34":-0.11914885808970907,"35":0.06552483728728262,"36":0.006947415487113385,"37":-0.058559754723047516,"38":0.08408157017254918,"39":-0.1453948878372934,"40":-0.0029291411488415573,"41":0.13477619201291402,"42":0.06612339834252433,"43":0.027469974602317558,"44":0.020337187143028245,"45":0.16596272338571255,"46":0.04443784292807209,"47":-0.14702316790515677,"48":0.0859222429045697,"49":0.06498394863052544,"50":-0.05837744131398701,"51":-0.031366184052882745,"52":-0.03733795681673025,"53":-0.10620001506594691,"54":-0.033906801407786076,"55":0.008326781576329817,"56":-0.2011261347632237,"57":0.07338151192329151,"58":0.22258528527502522,"59":0.11225664548841667,"60":0.03610511070594911,"61":0.0016961125624697124,"62":-0.03707018464262583,"63":0.028354361916440605,"64":-0.12129298609485183,"65":-0.02506969977313762,"66":0.04742194848577798,"67":0.04288668533481374,"68":0.024825277468403132,"69":0.024819768796538185,"70":0.044761622228072166,"71":-0.03748831392917265,"72":0.04239910419880513,"73":-0.009389876105287263,"74":-0.09737195568994637,"75":-0.09923638957128901,"76":-0.0742445570816494,"77":0.15770158947384924,"78":0.18195022738580935,"79":-0.02619874473655603,"80":0.045065915821677745,"81":-0.012651648740243743,"82":-0.06331849709678812,"83":0.07618383235235549,"84":0.0731589640017554,"85":-0.03414303730649898,"86":0.019179719755211738,"87":-0.019642864105667297,"88":0.024042179324635753,"89":-0.04375189188028216,"90":-0.17322234070552606,"91":-0.03944385650730429,"92":0.1530190879730413,"93":0.10314475832294276,"94":0.020381376389024583,"95":-0.000377695845214358,"96":0.10697801010547196,"97":0.06923222495680999,"98":0.002508084033230786,"99":0.08094893154100752,"100":-0.024845391453524428,"101":0.12401728042016466,"102":-0.07104990215084038,"103":-0.0201068331458389,"104":0.011368894808561741,"105":-0.011402899596538974,"106":-0.04034199396161103,"107":0.13522659160408695,"108":0.02805252490602327,"109":0.034458917713020974,"110":-0.13722994014363238,"111":0.14240520616859853,"112":-0.06173175752885311,"113":-0.07897904258651067,"114":0.10016058378479513,"115":0.0053970788597205305,"116":-0.045463784701449725,"117":0.06574742807846504,"118":0.07379352303843512,"119":0.04489421546441254,"120":-0.05544510798307104,"121":0.11729479636900884,"122":-0.10693948397877542,"123":-0.09360968430309834,"124":-0.06985738709174541,"125":-0.03317600950037425,"126":-0.09596996587603981,"127":0.11002572391875563,"128":0.18282881100434287,"129":-0.15340457653786727,"130":0.05517461890033727,"131":0.0323773192943988,"132":-0.022770187963061964,"133":0.0458955988225151,"134":-0.03571832008202246,"135":0.21561845949498076,"136":-0.07052420842505683,"137":0.04549208462372484,"138":-0.09869669339699452,"139":0.10330280693015392,"140":-0.10265840509097553,"141":0.014582889866295986,"142":0.06834861722760818,"143":-0.02611493477792685,"144":-0.07063449627720952,"145":-0.11972110649828982,"146":0.04314842820560553,"147":0.0032865811510199264,"148":0.05642826231697208,"149":-0.030674429956019406,"150":0.1164869805648023,"151":-0.013525550650386861,"152":-0.07680601915785024,"153":-0.10807439301334747,"154":-0.09229388155466216,"155":0.023708265523873673,"156":0.06814759916784115,"157":0.08978959562162891,"158":-0.18697873397573422,"159":-0.14771272452713619,"160":0.10214748463787882}},{"sx":1,"sy":1,"depth":161,"w":{"0":-0.025527006201346576,"1":0.027791158264591127,"2":0.09148765507331189,"3":0.2141604905197604,"4":-0.023776067655521718,"5":-0.12627361286892913,"6":0.08565216748345798,"7":0.07047544746415181,"8":-0.00239235746495461,"9":0.03354600070261677,"10":0.0888564664642116,"11":-0.15116780815407346,"12":-0.0436269335727068,"13":-0.21117119354656974,"14":0.10598400600655154,"15":-0.026730837538829866,"16":0.002037649854979135,"17":0.1011268541602399,"18":-0.13551166572545265,"19":-0.03605318436751773,"20":0.007845456115333254,"21":-0.0890967752006128,"22":-0.01903810176314855,"23":-0.061517581524327625,"24":-0.05313174701569485,"25":-0.09988969519842315,"26":-0.02219098797429047,"27":-0.042624791943056475,"28":0.06792562858658195,"29":-0.06674363903463516,"30":-0.0012815769287456427,"31":-0.019963333476534582,"32":-0.04046127557786046,"33":-0.0669127953197598,"34":-0.1107873719057938,"35":-0.07552622686928541,"36":0.05003850998950496,"37":-0.042265992685312906,"38":-0.03531087071053137,"39":-0.19498385195738696,"40":-0.007679212456635408,"41":-0.10255120149183349,"42":-0.005938436256270135,"43":0.07651518647071562,"44":0.13989149877798177,"45":-0.063079600238211,"46":0.1025300735541571,"47":-0.17000465641836615,"48":-0.009527548750189921,"49":-0.010532976617011936,"50":0.07647761113252163,"51":0.05660936455863471,"52":-0.048672135126825854,"53":0.027300627390300945,"54":0.01036901932890751,"55":-0.0724164186855435,"56":0.006132905063952559,"57":-0.0022324483352432465,"58":-0.058325877965717816,"59":0.02772905920938033,"60":0.09216685580907392,"61":0.10927915888147134,"62":-0.13795554406355773,"63":0.09813989885103747,"64":0.04560183370343257,"65":-0.010561296130021146,"66":-0.05644677992002462,"67":-0.17149527969069922,"68":-0.004693372058232935,"69":-0.07595491458472252,"70":0.013020931907123324,"71":-0.029196029839597695,"72":-0.15084287986722877,"73":0.07599864589522955,"74":-0.21337503772277697,"75":-0.10917741756691883,"76":0.15425950612941697,"77":0.03235168087441828,"78":0.027054721007496993,"79":-0.11965074910168794,"80":-0.0883981119364426,"81":-0.18588502826848585,"82":-0.10666808216917371,"83":-0.05844056221490607,"84":0.0473509196408152,"85":-0.07401032308517097,"86":0.042196006021492385,"87":0.12604315239344072,"88":-0.07115971996900756,"89":-0.011431665667757645,"90":-0.020500023020614676,"91":0.025895892889482134,"92":0.11307896696102089,"93":-0.018777075415129473,"94":-0.03936075244389292,"95":0.10255267934880441,"96":-0.12558104645673565,"97":-0.07920497457362069,"98":-0.05142962819820241,"99":0.0919140728849718,"100":0.1019339452399734,"101":0.13168014820506033,"102":0.09801329677893376,"103":-0.128963372081888,"104":-0.06733343119075307,"105":0.017504909378301695,"106":-0.04339363960081977,"107":0.08105774076994293,"108":0.05890281800206342,"109":-0.15704232412840277,"110":-0.014687046846722906,"111":-0.01232772965444528,"112":-0.042354618010146027,"113":0.10287379663843575,"114":-0.07487872256992939,"115":-0.06836891816560514,"116":-0.11981561122538417,"117":0.035868963216073864,"118":0.022078076368912132,"119":0.10479976295401836,"120":0.06221567808737499,"121":0.15843232622400255,"122":-0.16947514999988145,"123":-0.20285019430476237,"124":-0.06718620334064276,"125":-0.04353042380163025,"126":0.0935868115464783,"127":0.07482597202643984,"128":0.1408991945006041,"129":-0.017372187445340713,"130":-0.20100166572090997,"131":-0.03861263977149336,"132":-0.03940052118397287,"133":-0.1264564675892972,"134":0.024078128543338424,"135":0.23774982059198882,"136":-0.0014834084381262574,"137":-0.027330495499889258,"138":0.02334017787603939,"139":-0.02044058499944372,"140":0.129620802145805,"141":-0.019312290308385233,"142":0.16692605249978468,"143":-0.11830509299938116,"144":-0.10994996802573627,"145":-0.0041098511096464355,"146":0.003815311639260971,"147":-0.0751507675060933,"148":0.000643771067438195,"149":0.1485750663553271,"150":0.15031178382890378,"151":-0.012338049553280637,"152":0.16906310738286143,"153":0.04167624491482265,"154":0.008511267063577861,"155":0.17469933033876323,"156":0.10364280126219456,"157":-0.06217537610708072,"158":-0.043046112380464685,"159":-0.020766464361558233,"160":-0.1108654942545619}},{"sx":1,"sy":1,"depth":161,"w":{"0":0.11067759170733317,"1":-0.0505388215015579,"2":0.01623576865130852,"3":0.02447123644055205,"4":0.11900701047717656,"5":0.09685488901614278,"6":0.15493930096131375,"7":0.08484662174201411,"8":-0.04622768488750302,"9":-0.038893829472452124,"10":0.033979225483912696,"11":0.005499679113907465,"12":0.07763040244311942,"13":0.17886911721413717,"14":-0.021284507577741897,"15":0.04193823055283617,"16":0.06291654585683973,"17":0.04984356329469936,"18":-0.054784666375672614,"19":0.055890963912659894,"20":-0.02797136007986525,"21":0.03570232122055525,"22":0.20321433902126376,"23":0.08876014705269468,"24":-0.019074844496826344,"25":-0.06427594502113358,"26":0.15957392422380304,"27":-0.06506383485342383,"28":-0.08431060246300445,"29":-0.041017980265833746,"30":0.2927407145617606,"31":0.01992482831443059,"32":-0.0439670255354883,"33":-0.1263128841094276,"34":-0.1474051494247401,"35":0.15473310564163692,"36":-0.016816953306056193,"37":0.12331236017577044,"38":0.0015997546865050133,"39":-0.16125957306135694,"40":0.10002405885879151,"41":0.11785176894743309,"42":0.03296191992177736,"43":-0.03494521952717184,"44":-0.017612711674819835,"45":0.10480208247415641,"46":0.10403930759198844,"47":-0.02428165769814412,"48":-0.10532235950345965,"49":0.014009296268558388,"50":0.021289621644986264,"51":0.13962453111023232,"52":0.10577927666713334,"53":0.06478833875476002,"54":0.007377101858695242,"55":0.00038194537296003424,"56":0.02219162365417291,"57":-0.07618609682399363,"58":0.027733224423462426,"59":-0.07715158094141064,"60":-0.06533660058539995,"61":0.04023017060418373,"62":0.014200000933004697,"63":-0.07043073756924968,"64":-0.11800785530246838,"65":0.0897518102242228,"66":0.19901490851430953,"67":-0.0682123857475071,"68":0.05261044465221176,"69":0.017645494992130493,"70":0.13666007070217745,"71":-0.05744274220492355,"72":0.16221939253595558,"73":0.009659862574221878,"74":-0.13553683078008477,"75":-0.07628607194064883,"76":0.01754903919934105,"77":0.0891230661014887,"78":-0.1165955954071087,"79":0.10069505815726919,"80":0.04783314857500977,"81":-0.20384438251762083,"82":-0.001521601512917313,"83":-0.14378916211183054,"84":0.1326497535690487,"85":-0.12417838358101525,"86":-0.041731453741314796,"87":0.1564113026533217,"88":-0.15356021367063097,"89":0.1814452830680372,"90":-0.10472551427134777,"91":-0.09905589803714347,"92":-0.16421734218596876,"93":-0.06085730860504487,"94":0.026246930748019405,"95":-0.0506349533239567,"96":-0.005102918321035879,"97":0.06816020713187684,"98":0.08083425094622672,"99":-0.011916926122482284,"100":0.06506905294782449,"101":0.06777642489646914,"102":0.17805900486589613,"103":0.07135610640903009,"104":-0.08436164380181004,"105":-0.023043106206853507,"106":-0.07340103455057406,"107":-0.001166070280464487,"108":0.2237182235466711,"109":-0.001113276954576918,"110":-0.018934265299644554,"111":-0.008684960409208613,"112":-0.0026677272243190277,"113":0.16010866625345613,"114":-0.04008281312095623,"115":0.1578184381112201,"116":-0.054553545006317705,"117":0.04688906381101238,"118":0.13016054827369591,"119":0.07644171116686203,"120":-0.016337100509311663,"121":0.02562026859837908,"122":-0.029008917904376836,"123":-0.0060054865095872075,"124":0.14261179022932946,"125":0.011087479262441764,"126":0.0772030951521002,"127":-0.09782779081636235,"128":-0.09393180185244429,"129":0.02249896343159251,"130":0.007384489002332013,"131":0.059893616967247945,"132":-0.03642647924489947,"133":-0.006418234819466958,"134":-0.048320591304121786,"135":-0.11252795089730039,"136":-0.10650277243154237,"137":0.0647472300175957,"138":0.07845101223625088,"139":-0.01765127139445724,"140":-0.017970140030331396,"141":-0.01687174773070033,"142":-0.048544281719223065,"143":-0.08750521646302811,"144":0.012858877381086342,"145":-0.021934834728743725,"146":-0.06863822416436913,"147":0.036129648805342494,"148":-0.07567083114816912,"149":0.010471781860196015,"150":-0.22881201571820864,"151":0.07648907529647417,"152":0.11811056205239942,"153":0.10690709716471276,"154":0.16965997718675335,"155":0.015053346549847696,"156":-0.22454329971310352,"157":-0.13829422490376725,"158":0.15836856421416529,"159":0.033501102279652285,"160":0.04070273552618144}},{"sx":1,"sy":1,"depth":161,"w":{"0":-0.0036905044132365876,"1":-0.0052365259147212516,"2":-0.006350181503744104,"3":-0.00783049931919136,"4":-0.004958666342589351,"5":-0.00370969732131631,"6":-0.00401464068077352,"7":-0.0032323122971142483,"8":-0.006282340912469659,"9":-0.005958074734192639,"10":-0.0076456628484722925,"11":-0.0042554995301426835,"12":-0.004146640360055795,"13":-0.004409374482450719,"14":-0.002778443955917928,"15":-0.006830895079557915,"16":-0.005871469067276962,"17":-0.008986137893373105,"18":-0.005346555084208948,"19":-0.004002389530697703,"20":-0.00429951156933407,"21":-0.003545465441703265,"22":-0.002303535549920381,"23":-0.005322829555892718,"24":-0.00878730322320774,"25":-0.00553143452489024,"26":-0.004303381253176432,"27":-0.004063557966677272,"28":-0.0032027787910165187,"29":-0.004990591932543669,"30":-0.006441784256526511,"31":-0.006429821533003788,"32":-0.005275173780477044,"33":-0.005200493751772587,"34":-0.004612277055723319,"35":-0.0033269689455596644,"36":-0.0054270826009238824,"37":-0.0035739476476006576,"38":-0.00863380590528157,"39":-0.0065199962523091225,"40":-0.0054728646237905505,"41":-0.00414745079373209,"42":-0.003467766294940355,"43":-0.002858969143414294,"44":-0.006393882323955524,"45":-0.00512165830110751,"46":-0.005482472705454537,"47":-0.005201471482045295,"48":-0.004115212577754975,"49":-0.004013606378947738,"50":-0.002646161782907111,"51":-0.006899251203251026,"52":-0.00648374081136988,"53":-0.005393997909955203,"54":-0.004539575531141897,"55":-0.0044732612730916735,"56":-0.002925481526729069,"57":-0.003413863865634105,"58":-0.008290266364276776,"59":-0.005776066727354037,"60":-0.005493231313649302,"61":-0.0039950500481722205,"62":-0.004937257004764419,"63":-0.003517652238050619,"64":-0.0045586255123975855,"65":-0.002168813769423354,"66":-0.007021705557553789,"67":-0.004761018881656711,"68":-0.0037148040741744764,"69":-0.005027843982410417,"70":-0.0035367400384173435,"71":-0.0042595607029661565,"72":-0.0038801798628053737,"73":-0.00787679756275159,"74":-0.004531374032685195,"75":-0.003984689318209691,"76":-0.004978704850935548,"77":-0.004159561442726359,"78":-0.004991744039243552,"79":-0.0038063451672726723,"80":-0.007597487224707082,"81":-0.004021528629319851,"82":-0.004817498104688479,"83":-0.004791791455522611,"84":-0.003959511012138547,"85":-0.004699710920209823,"86":-0.005565661359119051,"87":-0.007794157866083349,"88":-0.003098146179074933,"89":-0.005174385709456396,"90":-0.003849653546539248,"91":-0.003992563702074363,"92":-0.003868853840734921,"93":-0.006770306246753759,"94":-0.006507408470029726,"95":-0.00407552571148797,"96":-0.005844052153529387,"97":-0.0031591060448149374,"98":-0.003626544701099712,"99":-0.004808475340755238,"100":-0.010623162996941887,"101":-0.007727621246265523,"102":-0.004210650806580302,"103":-0.005645805099304292,"104":-0.0036111019711984847,"105":-0.004436666122673933,"106":-0.003911666179941076,"107":-0.01015530821191852,"108":-0.005497102979121906,"109":-0.004021581692016024,"110":-0.00547252630625622,"111":-0.004521014956833199,"112":-0.0023490228645672703,"113":-0.0041096937088688215,"114":-0.00764977000345811,"115":-0.008250147876420241,"116":-0.004899887275295731,"117":-0.0049285965962738935,"118":-0.004869089674112907,"119":-0.0029095679578510568,"120":-0.006515459563311907,"121":-0.004562307695148586,"122":-0.010366354393880187,"123":-0.003963844487222092,"124":-0.004315869298241233,"125":-0.004727833232447949,"126":-0.003945018021321983,"127":-0.00685697754095403,"128":-0.00412284912335906,"129":-0.00880361854027646,"130":-0.004218063369610358,"131":-0.0047805123640428104,"132":-0.0045389565393354385,"133":-0.002313674222150584,"134":-0.005695240383407513,"135":-0.004285015550829535,"136":-0.009623839842880035,"137":-0.003981088126394778,"138":-0.004642478634732809,"139":-0.003452000643877897,"140":-0.003460605764847801,"141":-0.004893606920329914,"142":-0.0061326228408657086,"143":0.048254888820848225,"144":-0.005311956115564405,"145":-0.0041893699859950825,"146":-0.0032929649704945825,"147":-0.0054450155100939,"148":-0.0046796584316196295,"149":-0.006920633104344393,"150":0.04411394683310079,"151":-0.0054000798489974,"152":-0.0038822826020098802,"153":-0.004289444677351474,"154":-0.0030102054954580823,"155":-0.004084103319496665,"156":-0.0066630547752996585,"157":-0.09251644929501922,"158":-0.004981221833369519,"159":-0.0034714398995331843,"160":-0.004198966066378701}},{"sx":1,"sy":1,"depth":161,"w":{"0":0.024335133111182326,"1":-0.0453907546289112,"2":-0.031128372404907085,"3":0.019322500023469736,"4":0.042900558552719265,"5":-0.05124825405990196,"6":0.010793941217477768,"7":-0.02874740817081686,"8":-0.11394170844796346,"9":0.09061910975098522,"10":0.055150451292562956,"11":-0.031128834421002987,"12":0.044710496215721575,"13":-0.0024862127369170324,"14":0.2698363476314983,"15":-0.12807384790218587,"16":0.1340302705845728,"17":-0.026213939214342116,"18":-0.042721087879999446,"19":0.07912656724519564,"20":0.11726780249368114,"21":-0.021904116763401687,"22":-0.05576749804222093,"23":0.03257492931434256,"24":-0.05496223557556764,"25":0.15587324285246382,"26":-0.06787239046793121,"27":-0.028322847481393784,"28":0.0536034999512164,"29":-0.03400722931883046,"30":0.04650859930712591,"31":0.013317581021450284,"32":-0.09342606540953945,"33":-0.031813730669638544,"34":-0.016198198626438724,"35":0.3356218418275575,"36":0.032717178808898024,"37":0.09580169631351616,"38":-0.0958450887736642,"39":-0.0931365162337261,"40":-0.0006941940284614123,"41":-0.13534404262480615,"42":0.045357223134934024,"43":-0.0728116474364009,"44":0.24240152124742834,"45":-0.03228768405731937,"46":-0.12461301019359597,"47":0.13228044692712015,"48":-0.054869945091628375,"49":-0.016500264959294835,"50":-0.1888290857520228,"51":0.26024377432137585,"52":0.034850761157780366,"53":-0.19915666887229097,"54":-0.10070506195254149,"55":-0.02983558179559188,"56":0.017847409704519732,"57":-0.06167244612228211,"58":0.05075195570073093,"59":0.0008804820717159556,"60":0.08372826505039926,"61":0.09970823975903616,"62":0.040715933626287164,"63":-0.13715661672885004,"64":0.03967613317185687,"65":-0.02219177680661144,"66":-0.018551141745248162,"67":0.0473796332124923,"68":0.07896025707636592,"69":0.06848810949328396,"70":-0.004289317960441355,"71":-0.049456085706272135,"72":0.18558528873127308,"73":-0.017551129708393887,"74":0.08686385619365726,"75":-0.06653352271793682,"76":-0.0317449223638357,"77":0.07269690336221227,"78":-0.05485622447164191,"79":0.10430838113123055,"80":0.07665639566618165,"81":-0.08051577631246196,"82":-0.035047111820827065,"83":0.06473270265729561,"84":0.04703292788515035,"85":0.1302883598897458,"86":0.07411699744076262,"87":-0.1255540071239669,"88":-0.062391064093203684,"89":0.07460671753309207,"90":-0.17232808905755717,"91":0.0361042461240546,"92":-0.1648425090979632,"93":0.161707373320091,"94":0.022527877694985293,"95":-0.061207225374227174,"96":0.013469229490744887,"97":0.10847892652560233,"98":-0.05866175267602138,"99":-0.3230807225912659,"100":0.2701851119713567,"101":-0.015516897661861208,"102":0.05147380273345074,"103":-0.01702235231528005,"104":-0.01891567240426639,"105":0.0469696021062563,"106":-0.44609502377329746,"107":0.10273025107799125,"108":-0.03097341571269629,"109":0.11037064884172818,"110":-0.19420746879972975,"111":0.08782256439614143,"112":0.043209166683203966,"113":-0.35628495582346426,"114":0.09295530015040197,"115":-0.02134127134963291,"116":0.0941866755827622,"117":0.0137016004420746,"118":0.03695713652939746,"119":-0.1211923423484725,"120":-0.24572286161842682,"121":0.017993063224728382,"122":-0.17761727428268467,"123":0.03810998265185751,"124":-0.08007284590413848,"125":0.033592385866268656,"126":-0.1797393131512702,"127":0.038907533473664914,"128":0.035144393065524124,"129":0.03367173704965718,"130":0.07333403956168458,"131":0.015214272614262022,"132":-0.006928904060109501,"133":-0.12001086672279386,"134":-0.005495304931894703,"135":0.16519350723224405,"136":0.05783075820613654,"137":0.27299103201694674,"138":-0.09309321169134338,"139":0.05050659902831069,"140":0.07137493566843776,"141":0.0805181223664772,"142":0.12341126975038155,"143":-0.08607300162317555,"144":0.1199205126445043,"145":-0.16465569090962276,"146":0.02393959671546668,"147":0.06826092161800919,"148":-0.22074762840917664,"149":0.07489794207732847,"150":-0.05825365241824523,"151":-0.011033229516447217,"152":0.04416973422352069,"153":0.016152010318391075,"154":0.07873449339295217,"155":-0.22629164956625414,"156":0.02158614745071664,"157":-0.08974420951288045,"158":0.05036549548179307,"159":-0.06284233879943656,"160":0.07437909012025185}},{"sx":1,"sy":1,"depth":161,"w":{"0":0.0720889928513626,"1":-0.008682351996997151,"2":0.19670119267685462,"3":0.14503900169778788,"4":-0.02042179332730442,"5":0.058613855873074855,"6":-0.16309243614361932,"7":0.0670446620850865,"8":0.027552107907196557,"9":0.11176340921385997,"10":0.05391015282948233,"11":-0.10653621280801007,"12":-0.039754038393835435,"13":0.03246202112080499,"14":-0.09905644845833245,"15":0.10183287112404812,"16":0.07416129992998867,"17":0.09106770186845106,"18":-0.10189533222992245,"19":-0.13961508113059493,"20":0.1434259107717647,"21":0.012778200024612352,"22":-0.10331893682823452,"23":0.044181177953824466,"24":0.07670715073427833,"25":-0.10304959696397716,"26":-0.08359337159541219,"27":-0.05078990084781477,"28":-0.010955490620122294,"29":0.04835174610162097,"30":0.01793989123999027,"31":-0.030842178626110914,"32":0.030205127569007457,"33":-0.1285710389055751,"34":-0.039943539644500925,"35":-0.043801122552639744,"36":0.009672680783140068,"37":0.00866528910649442,"38":0.012180569380561153,"39":-0.0041440337304686605,"40":-0.08441994489788292,"41":-0.00640334514531063,"42":0.09168935791640605,"43":0.10883956891536843,"44":0.13079855114876837,"45":0.11279427247666672,"46":-0.02741147972212106,"47":-0.02142210209814928,"48":0.06696549168107627,"49":-0.045314066719313616,"50":0.004708963854460239,"51":-0.08447060665262973,"52":-0.0005108666110059817,"53":0.0329710352683589,"54":-0.0027879454247776805,"55":-0.00501254778084783,"56":0.1266704029395732,"57":0.08405491549366137,"58":0.07544171210066153,"59":0.06076038116554926,"60":-0.10403493686862207,"61":0.11813675068624029,"62":-0.0017011675797496103,"63":0.1623435641655328,"64":0.16756057302316635,"65":0.11154313840047385,"66":0.09932441243840628,"67":-0.04548462991591674,"68":-0.0007491957653582599,"69":0.011302987722168078,"70":0.014243310276743078,"71":0.1898089714567249,"72":0.16596955766771576,"73":0.07879787305102261,"74":-0.009824113141293039,"75":-0.034370171001385855,"76":0.0699162857186442,"77":0.16250980012706265,"78":0.07549270063282221,"79":0.15175686409920416,"80":0.03321844813476203,"81":-0.1441615631882167,"82":-0.20951140581455743,"83":0.06383121122944464,"84":0.08859110287292203,"85":-0.06813053187561734,"86":-0.0034271000502251554,"87":0.17132809699469942,"88":-0.09458342040434495,"89":-0.09007127106462964,"90":-0.04513026098571537,"91":-0.06480861735306018,"92":0.04556815253571056,"93":0.10775274662858506,"94":0.19253247232961923,"95":0.06036864429176092,"96":0.13601723755842246,"97":-0.012482116902819767,"98":0.08047203951998172,"99":0.10781661815101007,"100":0.19597697424774144,"101":-0.08242268924074353,"102":-0.014540996199509399,"103":-0.03432156399689054,"104":-0.08087783816701678,"105":0.13201148705708785,"106":0.015265568696643658,"107":0.14916005351455702,"108":0.07408686474806601,"109":-0.06109626799410227,"110":0.09940171979084929,"111":0.02467684659717855,"112":0.04598482602640113,"113":0.025496139421335762,"114":0.09156437398411625,"115":-0.09395384092959533,"116":-0.025288018288687715,"117":-0.057380902331071036,"118":0.01026915225541465,"119":0.09271585522383871,"120":0.08951090646519508,"121":-0.049800446460917816,"122":-0.05804053322899933,"123":-0.05267114332929866,"124":-0.027224199383129886,"125":-0.03708283851055082,"126":0.03316224256011684,"127":0.03681729363142664,"128":0.04179666604188202,"129":0.0002780909562670211,"130":-0.012087077989898835,"131":0.052993820382266854,"132":-0.07862502756118817,"133":0.044799064384932655,"134":0.06858894264065792,"135":0.16328993562355013,"136":0.09850275110630266,"137":0.015005678312846858,"138":-0.08124854765682464,"139":-0.04480696704321866,"140":0.005959558068995879,"141":-0.010467948793671735,"142":0.29300407127855715,"143":0.06772841031649761,"144":-0.06568643492024498,"145":-0.08303269165411552,"146":0.0009715145150559367,"147":0.013114570675467854,"148":0.06958096538176745,"149":0.07830086073732438,"150":0.041099265978467026,"151":-0.020530126730315776,"152":-0.01844450552339599,"153":-0.05099195255101281,"154":-0.00030656062939251276,"155":0.05477144119489662,"156":-0.0029197761975758305,"157":0.002366642887390133,"158":-0.02491658230549209,"159":0.050092649503780916,"160":-0.03884174798084073}},{"sx":1,"sy":1,"depth":161,"w":{"0":-0.03016953140895514,"1":-0.01513176595037792,"2":-0.1284512781399214,"3":0.12001947047019379,"4":-0.020994370029561397,"5":0.03859442389804989,"6":-0.07931742374023419,"7":-0.03223889335545859,"8":-0.011089977958220358,"9":-0.09169485870822279,"10":-0.01915095297465022,"11":0.0017012033189181693,"12":0.00485702076783891,"13":-0.08872078820236978,"14":-0.025435597524467668,"15":-0.01989823994075712,"16":-0.08754163644271161,"17":0.0676686607551032,"18":0.002414030534888922,"19":-0.004956273490556625,"20":-0.036281240854422296,"21":-0.009705788086361645,"22":-0.02938719937873766,"23":-0.040043624687948295,"24":0.0055329673803951405,"25":-0.04930007774185776,"26":-0.017094141285969165,"27":0.003512726073212449,"28":-0.02375826273501025,"29":-0.05247094891008344,"30":-0.025708271840078834,"31":-0.024232011337013415,"32":-0.09948839962845366,"33":-0.02257331368501797,"34":0.012222182441895874,"35":-0.015500680494705947,"36":-0.028528054633781805,"37":-0.004343900236741692,"38":0.1007372051072014,"39":-0.06631949942710963,"40":0.028178753391754956,"41":-0.004217739149414473,"42":-0.021588942885397804,"43":-0.024995862860576774,"44":-0.05065006505984562,"45":0.11064894250457817,"46":-0.07619040004225956,"47":0.055713074715128034,"48":-0.010690236664559295,"49":-0.013751443899448438,"50":-0.017586695026758865,"51":-0.052172767616037875,"52":0.21203704158853207,"53":-0.026369180290417377,"54":0.024446165524068725,"55":0.012708485798718949,"56":-0.029308657936722,"57":-0.004667689418533938,"58":-0.07097611972566664,"59":0.13735347259821565,"60":-0.00635315990167409,"61":0.06981006966312508,"62":0.06799461582793427,"63":-0.014363217409211277,"64":-0.008876002960495972,"65":-0.06246247455895567,"66":0.10569143522475401,"67":0.004887149052752361,"68":0.028702956117542665,"69":0.03530772996926277,"70":-0.028601977633631488,"71":-0.045998053522719476,"72":-0.07713245263201281,"73":-0.041056722630024876,"74":0.040931758367575385,"75":-0.04458476994855786,"76":0.018923465499017175,"77":-0.058852380008968586,"78":-0.03298431480287841,"79":-0.024834494109945503,"80":-0.02567069455634482,"81":-0.007907626292056012,"82":0.006771134977545482,"83":0.02909041600618015,"84":-0.009452465497428373,"85":-0.002760949999651236,"86":0.027741513304386105,"87":0.035325025863581334,"88":-0.03874487373946316,"89":-0.05159625523695243,"90":-0.013403165023664468,"91":-0.024725754643078704,"92":-0.04754738005365239,"93":0.03535652122229512,"94":-0.01649418549041811,"95":-0.046093086064393315,"96":-0.02116765322712011,"97":0.02571462475792798,"98":-0.014443686669266225,"99":-0.06259991298176962,"100":0.03173344617138169,"101":-0.0024690230642785403,"102":-0.019935480716095275,"103":-0.0015414265320205667,"104":0.04786798653033916,"105":-0.03544989492740155,"106":-0.04296361818726516,"107":-0.00572050646474979,"108":0.009462350892893651,"109":0.033362755990356575,"110":0.022743760867344077,"111":0.09678711347158382,"112":-0.040780047272138825,"113":-0.036784641887872685,"114":-0.07135763711750326,"115":-0.029682993824617986,"116":0.05783680776128593,"117":-0.05003864238310484,"118":0.06207645945195511,"119":-0.03244104731387135,"120":-0.0350055226312253,"121":-0.06135499856290932,"122":0.03338776658604088,"123":0.10043669475235624,"124":-0.043373360868669567,"125":0.06117192259183196,"126":-0.025968808665242937,"127":-0.028756379397958914,"128":-0.0738488051978762,"129":0.06224617461529806,"130":0.0022913158162249005,"131":-0.03712646847171609,"132":0.012226961923020162,"133":-0.002482184058519745,"134":-0.031809963837940464,"135":-0.03914261950647569,"136":-0.00294886178668751,"137":-0.011375714031588942,"138":-0.010658463201991847,"139":0.0024295800959915526,"140":-0.014109253225835035,"141":-0.05673050152161398,"142":-0.01738514227930548,"143":-0.06104624946630516,"144":0.02250519037377362,"145":0.06026038386121347,"146":0.010378035794736529,"147":-0.021579553006293613,"148":-0.05492633483955769,"149":0.016356100886365292,"150":0.006063246695125154,"151":0.014308991496440479,"152":0.030032078198910045,"153":0.005815363566603297,"154":-0.02397228824291135,"155":-0.07017223024263498,"156":0.011688129261038514,"157":-0.060861091884739475,"158":0.1013932407148802,"159":0.022255782104030543,"160":0.047705509517169016}},{"sx":1,"sy":1,"depth":161,"w":{"0":0.008138233959217587,"1":0.17550099853292256,"2":0.12034452505307977,"3":0.033777211326087575,"4":-0.03586088999065746,"5":0.061282726348796675,"6":-0.1138461880448447,"7":-0.09757772005724083,"8":-0.12431248902332921,"9":0.03098763856509765,"10":0.021977304425173885,"11":-0.018770971411967895,"12":-0.11510099613593727,"13":-0.007598207281442687,"14":0.12709912658222305,"15":-0.15398661611610726,"16":-0.03767625385611182,"17":-0.03686956464384414,"18":0.007050755214358185,"19":-0.12827927280593984,"20":-0.1016463135933685,"21":-0.09058322089349402,"22":0.02077603480354991,"23":0.0667331342132721,"24":0.07800004903551512,"25":0.006951946999085634,"26":-0.02773024804718325,"27":-0.14279180852672646,"28":-0.04113388536484064,"29":-0.06536579778498541,"30":0.09987653801471176,"31":-0.023929729795564313,"32":-0.003520821461196249,"33":0.02833220496241677,"34":0.030838332238226095,"35":-0.07971032937147593,"36":-0.0647630909039549,"37":0.03843476783046348,"38":0.08283470848065771,"39":-0.13399946240009836,"40":0.02232106205456531,"41":-0.018042467244796634,"42":-0.05817071809685573,"43":-0.0754649166392185,"44":0.089900531476204,"45":0.0868553504627898,"46":-0.023977170485070413,"47":-0.11332794151163715,"48":0.08660139239911321,"49":-0.011599027345615463,"50":0.13995201441216942,"51":0.05654286217476362,"52":0.10710747611483612,"53":0.021957104995392236,"54":-0.13663242005303697,"55":0.23646497851931517,"56":-0.04007913332157639,"57":-0.025683277028558472,"58":0.04571276218472822,"59":0.053468634815471434,"60":-0.1721668902281898,"61":-0.06794042083085006,"62":-0.054219143864589675,"63":0.003259713364527291,"64":-0.10742067916467753,"65":-0.10684661354694786,"66":-0.03418202584315977,"67":0.06181482298599664,"68":0.038956951149439534,"69":-0.06667844196110145,"70":-0.027747762765921294,"71":0.03155464700772645,"72":-0.13784242209668207,"73":0.08224308274987391,"74":0.016610396576711525,"75":-0.053075922071201743,"76":-0.013645190047316026,"77":0.004784539701136756,"78":-0.03453499375226393,"79":-0.040934308324585805,"80":0.005026250264230815,"81":0.03421332602547119,"82":-0.030360227710758213,"83":-0.06662769559956598,"84":-0.02891445937671179,"85":-0.0037911744306405853,"86":0.039160672478103585,"87":0.06151393015581224,"88":0.0067638083941561275,"89":0.005555113208889957,"90":0.09873583765211373,"91":0.18106367717727492,"92":-0.08592683826975492,"93":0.1045482499316243,"94":0.28359196847454515,"95":0.10892533178764524,"96":-0.05422968885540538,"97":0.13848682042321558,"98":0.006740319729882773,"99":0.03667099934300508,"100":0.1221884443062964,"101":0.3869212422058984,"102":0.10845167439264049,"103":-0.1900428559707702,"104":0.01207955924586853,"105":-0.06403405087347797,"106":0.03926197248586432,"107":0.031725180961681254,"108":0.09711276195308291,"109":0.2251920011785715,"110":-0.04999757575806769,"111":-0.03603039719293056,"112":-0.04582253059920774,"113":-0.015761664502837308,"114":-0.01751615222815188,"115":-0.06951203178699962,"116":0.010880740316173842,"117":0.009386705893155245,"118":0.07246361129605597,"119":-0.02756203843764717,"120":0.024848966379001882,"121":0.07070804853515857,"122":-0.26385831979203583,"123":0.11972517323784186,"124":0.07850936721770221,"125":-0.0961399908112636,"126":-0.07729712974199572,"127":-0.03943645896063128,"128":-0.015657563444490895,"129":-0.0583581343936078,"130":0.009596550876275449,"131":0.0806914080791729,"132":-0.03613697910982853,"133":-0.09578036548879136,"134":-0.07140086583251547,"135":0.10531898653000657,"136":-0.1581469888615627,"137":-0.009754366419943681,"138":-0.07622940422282802,"139":-0.10050245494242929,"140":0.0010065119107930415,"141":0.0042399010894221085,"142":0.09572225101446534,"143":0.03141174353535559,"144":0.07950188269861784,"145":-0.055835598666330394,"146":-0.0677117112246798,"147":0.0724758080872701,"148":0.05116178500778824,"149":0.04883716629017843,"150":-0.07840098615112767,"151":-0.028604841198215956,"152":-0.05539031930600866,"153":-0.04170557476854977,"154":0.005818520393936773,"155":-0.14839632506716996,"156":0.08869729731031722,"157":0.012261957007717313,"158":0.05164933037586474,"159":-0.024934255757557262,"160":0.048043574918547986}},{"sx":1,"sy":1,"depth":161,"w":{"0":0.13444164734870995,"1":-0.0552128406284876,"2":0.04186350943174811,"3":0.11796603281429413,"4":0.02717689775638347,"5":-0.019824169258644747,"6":0.03014428641581689,"7":-0.03283020314540103,"8":-0.06344918372997009,"9":0.02038817448427262,"10":0.06410198422213473,"11":0.004802202649019843,"12":-0.022054194314510625,"13":-0.11873721550726485,"14":0.07909564009030587,"15":0.062342531064868235,"16":0.06301514786937318,"17":-0.0031992388238802232,"18":-0.10711944551813694,"19":0.08005797664749169,"20":-0.10358542171451196,"21":0.07531125337841635,"22":-0.010906376948106155,"23":0.05995536099094333,"24":-0.009541741894399868,"25":-0.08756471202065999,"26":0.1774134507020495,"27":-0.19682533785915976,"28":0.0616096363501871,"29":0.05234994546469049,"30":0.005234810246946717,"31":-0.024157548298869895,"32":-0.06239010968435697,"33":-0.010798224612048548,"34":0.0492480157501842,"35":-0.022896766761598988,"36":0.036680748409667646,"37":0.09953306689940711,"38":-0.07670935828807655,"39":0.07751019167419095,"40":-0.10015735254551109,"41":-0.07455791653191589,"42":0.10456050139895792,"43":-0.08079687254407052,"44":-0.043501174135236145,"45":-0.059004459030477,"46":0.051426469384549624,"47":-0.09546530696611803,"48":-0.08455242525585464,"49":-0.008248017426121529,"50":0.1590088141888831,"51":-0.0009339578507150475,"52":-0.0563400827105439,"53":-0.10630827482388738,"54":-0.1282566277774503,"55":-0.03025419345951883,"56":-0.09223813046301847,"57":-0.002444510931147719,"58":-0.05616485537198832,"59":-0.06865745444850525,"60":0.02881650992557025,"61":-0.06586769715079487,"62":-0.011594252873655224,"63":0.1733684955744186,"64":0.018429481256531037,"65":-0.06485670227431635,"66":0.01794081915517006,"67":0.13870547225803048,"68":-0.03154538549175758,"69":-0.09203991579425531,"70":0.04443225708045238,"71":-0.13677191893191548,"72":-0.11328696335959546,"73":0.06857206281803452,"74":0.060695715042576176,"75":-0.03863475583080411,"76":-0.1361002725222321,"77":0.010161848709595505,"78":0.015109082984029415,"79":0.020838935219461643,"80":-0.039061918372650994,"81":0.03833248456075274,"82":-0.027572088744247776,"83":-0.20261024069191885,"84":0.02719493019811782,"85":0.046068796603737805,"86":-0.012910973992489529,"87":0.11836530889529673,"88":-0.29290707851544157,"89":-0.0688968502278606,"90":0.0153334120707899,"91":-0.0031126829899237444,"92":0.11458053193845978,"93":0.1439860097948277,"94":0.14122878191388985,"95":-0.08057736735949717,"96":-0.1119816191495626,"97":-0.028358292224890582,"98":-0.09209985202553235,"99":0.16394327179176973,"100":0.1089449559135812,"101":0.1175863690203107,"102":-0.10568661137340077,"103":-0.014854967735045082,"104":-0.06161174430199877,"105":0.11755833661801138,"106":-0.04745654875374899,"107":-0.05521463123466726,"108":0.12626495958767076,"109":0.0001504027275192573,"110":-0.05956588988321854,"111":-0.10545945664467235,"112":-0.11205598602937596,"113":0.03309178276822274,"114":0.0577842041893783,"115":0.2104260427684843,"116":0.043393469811977024,"117":0.03228607612049995,"118":-0.02907218197162092,"119":-0.04578966726620138,"120":0.09330768994872861,"121":0.03209673563030555,"122":0.09205163882445336,"123":-0.020273322018141374,"124":0.07999086041543654,"125":-0.09169307696565648,"126":-0.03015513754280116,"127":0.077459818472419,"128":-0.12232500266568515,"129":0.09756609889121858,"130":0.15233304694087127,"131":-0.12237596950438043,"132":-0.022683194617703493,"133":-0.06310813644623586,"134":0.15396163201063867,"135":0.02807572432682311,"136":0.035744423728173116,"137":0.18209750955390674,"138":0.004528443619500833,"139":-0.1522703241600535,"140":-0.11843844603635163,"141":0.020517457083810302,"142":-0.12272741472673399,"143":-0.09435752088669033,"144":0.041427375776949084,"145":0.07261849339544307,"146":-0.050678590645242695,"147":-0.05030354746481135,"148":-0.008868311247172357,"149":0.04390884440194,"150":-0.11946667343022796,"151":0.17307429082763917,"152":0.02398447687226939,"153":-0.18814329632700688,"154":-0.05284681130792922,"155":0.13495488690458837,"156":-0.08476061937201658,"157":-0.149982561149205,"158":-0.048364330089874306,"159":-0.0011732926097703681,"160":-0.05180285595087695}},{"sx":1,"sy":1,"depth":161,"w":{"0":0.03088546781835049,"1":0.03590853678811128,"2":-0.17315220416875524,"3":0.05306645682820339,"4":0.07895742453214728,"5":-0.02069665977432723,"6":0.04634956500339647,"7":0.050477746762889575,"8":0.053722375570416425,"9":0.11348009171689664,"10":0.10088127162438411,"11":0.05785066325139923,"12":-0.11758358522551658,"13":-0.20311741510667264,"14":-0.02155556063261415,"15":-0.03383780923537158,"16":-0.12142346115819495,"17":-0.14042707078994573,"18":0.17548390618893175,"19":0.025404229344232514,"20":-0.2381424768471384,"21":0.15705210637150946,"22":-0.004597498093046706,"23":-0.03982445898170453,"24":0.0837523158176711,"25":-0.07420129346788526,"26":-0.1105411812175551,"27":0.07194795101822606,"28":0.0065000836037532005,"29":0.04974447352673021,"30":-0.046295329545950545,"31":-0.09478276215215689,"32":-0.116394880299412,"33":0.06719344540339667,"34":-0.08978740037532566,"35":-0.062312318219140996,"36":-0.12363230180012012,"37":-0.03179568385728946,"38":0.01436991620357887,"39":0.15347747027657238,"40":-0.08569753090548549,"41":-0.01072252586482841,"42":0.09008525126908865,"43":-0.11313489793758125,"44":-0.050583572911330386,"45":0.12747385131582187,"46":0.22144336802176742,"47":-0.13225941502092453,"48":-0.061664923230175396,"49":0.058972862078338815,"50":0.038371015951318206,"51":0.1212186900166669,"52":-0.12301918172330066,"53":0.06631581189862067,"54":-0.14845040273143947,"55":-0.12558488341454632,"56":-0.03011653751355872,"57":-0.1348633916068596,"58":0.08485218016842615,"59":0.17053667090157457,"60":0.07265548472598155,"61":-0.047433242016723366,"62":-0.08965271890721895,"63":0.018795690075534322,"64":-0.13665564920898998,"65":0.11786997360583781,"66":0.12924701159503393,"67":0.018586838931542893,"68":-0.099817040468906,"69":0.042917891702413766,"70":-0.0754671921765606,"71":0.020671718919266367,"72":0.1559420171234612,"73":0.12999948808552222,"74":0.09082307614893866,"75":-0.10654032483481797,"76":0.02512844129553123,"77":0.05626009287823575,"78":-0.1318299304964338,"79":-0.06301288643838604,"80":0.09104442825398722,"81":0.013013503861749947,"82":-0.009817511360307753,"83":-0.0024478983651561254,"84":0.010534759661394904,"85":0.005337287193209256,"86":0.04009633956417237,"87":-0.009464930254415395,"88":-0.09132061744289699,"89":-0.10629821357303257,"90":-0.08445898194349559,"91":-0.029402657711873243,"92":0.011330530120902037,"93":0.0431971586985846,"94":0.07729994344905006,"95":-0.1481036075618721,"96":0.10849997468393496,"97":-0.0851701415996074,"98":0.17588475611944868,"99":0.04438333549425253,"100":0.11882020640627552,"101":0.20439010314947276,"102":-0.10076344620771777,"103":-0.05029854469254727,"104":-0.01078554114073985,"105":0.021071455012904965,"106":0.07230580450485408,"107":-0.00039758447917853174,"108":0.2522295196766297,"109":-0.06849030087827275,"110":0.007339386282977459,"111":0.02843370930872617,"112":0.0599015495026682,"113":-0.05409627373305615,"114":0.014333541830120545,"115":0.2373659114225553,"116":0.041749251449899875,"117":0.06881976016613818,"118":-0.04851472320567836,"119":0.057585980211162624,"120":0.036014700903502894,"121":0.058954276872881815,"122":0.23407910975162333,"123":-0.013340694653836539,"124":0.10347598417877289,"125":-0.07041882420897151,"126":0.09430043634133928,"127":0.0030072333952750017,"128":0.05412317786457675,"129":0.13873737902147565,"130":0.017262197409181515,"131":-0.032177926881738476,"132":-0.12316258258724076,"133":0.05829535019579172,"134":0.07718672684083125,"135":-0.02313856465803662,"136":0.036113012693500056,"137":0.05463668115472513,"138":-0.06280849239697614,"139":0.04751916302474599,"140":0.055891271282040175,"141":0.06545374673505568,"142":0.08777824208994572,"143":-0.24630074066898777,"144":-0.057434872219777215,"145":0.08467678334183161,"146":0.07704446673656205,"147":-0.08289326065317405,"148":-0.025737123817827355,"149":0.07765501573853126,"150":-0.2945237485050981,"151":-0.02889284610505179,"152":0.024338726911481878,"153":-0.07197993329174456,"154":-0.08642110972537732,"155":-0.031781173667199826,"156":-0.059451895476941595,"157":-0.2980587856522636,"158":0.10257900896939104,"159":0.08710752075770864,"160":-0.16848394871850697}},{"sx":1,"sy":1,"depth":161,"w":{"0":-0.009268247186292692,"1":0.12517562571620758,"2":0.23224231075595494,"3":-0.11075990821591444,"4":-0.10990273330989034,"5":0.031947382991623065,"6":0.038086410528695304,"7":-0.058045294270754194,"8":0.08166509230622707,"9":-0.09764662133038783,"10":0.01114916253347704,"11":0.0015221213055964607,"12":0.08892268121856715,"13":0.01155155075415698,"14":0.08332276009300724,"15":0.05894044507276514,"16":0.03865479298603224,"17":0.02786264399073421,"18":0.0011284621388381866,"19":-0.03553171502420015,"20":0.0309755886133268,"21":0.07942490679201634,"22":0.05683017905567352,"23":0.006464406858463621,"24":0.05431031884131632,"25":-0.10252430980008036,"26":0.01355372600414284,"27":-0.03138391093237977,"28":0.10639049993972476,"29":0.1287390608916367,"30":0.15999312768867568,"31":-0.14503567691880653,"32":0.09900961370277982,"33":-0.0231123017436129,"34":0.0015995472005461444,"35":0.04353567705561652,"36":-0.020484422802414026,"37":0.09283029004056526,"38":-0.06679556133678383,"39":0.08005088644668819,"40":0.07745169028257473,"41":-0.021815619598384118,"42":0.07502819617030748,"43":-0.03399541143601384,"44":0.11365827487699223,"45":0.019787749477931667,"46":-0.027941570108868517,"47":0.15735801923485396,"48":-0.023827218847067743,"49":0.030594616322964483,"50":0.05949792470132442,"51":0.032474238170017544,"52":0.1281539010725155,"53":0.1233365916266715,"54":0.050194105488027906,"55":-0.1617771027807526,"56":-0.0004775628790842447,"57":0.035404944069842195,"58":0.015529602296359671,"59":-0.03692165348590038,"60":0.06745926931209463,"61":0.08608287843192587,"62":-0.01115037555956529,"63":-0.03961032196274256,"64":-0.018613508263893786,"65":0.11106979372907423,"66":-0.018151710660815338,"67":0.02940913306648493,"68":0.04727195247523511,"69":-0.06730061724180039,"70":-0.042131787004283085,"71":0.0501601744958727,"72":0.030088233629191708,"73":0.08554441322654058,"74":0.07232724916450338,"75":0.03569136817930853,"76":0.030745308846122584,"77":-0.1051797454251357,"78":0.10550856990990316,"79":0.10081473245863345,"80":0.09477220575228257,"81":0.04581754621915398,"82":-0.06972728146453278,"83":-0.0948076594185302,"84":-0.09372665705333497,"85":0.17613496526200834,"86":0.10253883597373284,"87":0.09715515969518405,"88":-0.03997276339286921,"89":-0.07521458010270014,"90":-0.01897619539295797,"91":-0.005363623811286714,"92":-0.05755107523663605,"93":0.15008931483987403,"94":0.2080692842419824,"95":0.05394589589926053,"96":0.09210027091828323,"97":-0.05852119495653232,"98":0.11392357555397553,"99":0.06733038109533605,"100":-0.022192578319191154,"101":-0.04838611985907591,"102":-0.011833561090189145,"103":0.2231050510171465,"104":0.07283751285441141,"105":0.18836730264003546,"106":0.04500951517219877,"107":0.12187685073194934,"108":0.005514435964403925,"109":-0.030837076650168518,"110":-0.08291533045248062,"111":-0.0026658328800273703,"112":0.16383229850139444,"113":0.14133058812121915,"114":0.11416720139594293,"115":0.08072439087364883,"116":0.012855158947676148,"117":-0.01447903950505215,"118":-0.11671905769286191,"119":-0.009632643406430245,"120":-0.019912492968959142,"121":0.004016234198124954,"122":-0.0033133588715250186,"123":0.047681022439921755,"124":-0.047637275247993875,"125":0.0444527079417746,"126":0.06943741169541359,"127":0.037832738301298026,"128":0.2977940884730425,"129":-0.00906181023000138,"130":0.03590376833922695,"131":-0.07575319199819493,"132":-0.1008571618709935,"133":-0.006559447596690642,"134":0.03806031909969594,"135":0.20143913468070573,"136":-0.11045163104633035,"137":0.03464228051312454,"138":0.05856866525159712,"139":-0.08068193260980894,"140":0.05898631327013437,"141":0.10738874056555174,"142":0.042558619648981534,"143":-0.019307142871668563,"144":0.027866056414677997,"145":0.16728080659984385,"146":-0.009912784911566845,"147":0.05142546222951959,"148":0.10178394222561893,"149":0.13596849778134498,"150":0.08694712733828268,"151":0.07952150187149107,"152":-0.0008833520106138286,"153":0.04573194247622827,"154":-0.08387615966815852,"155":0.14081711846498235,"156":0.2847941773271714,"157":0.04293700993301897,"158":0.011436458623766976,"159":0.1630081714014077,"160":-0.12593210010202413}},{"sx":1,"sy":1,"depth":161,"w":{"0":-0.040192439392840215,"1":-0.08917920719021052,"2":0.1456932790179821,"3":0.023994296784411274,"4":0.049398247792148076,"5":0.09023470439517187,"6":-0.011598586452700453,"7":0.11726330357937537,"8":-0.038462530318318935,"9":0.004813197378137983,"10":0.039226366412152526,"11":-0.09955554965953314,"12":0.152349684048657,"13":-0.05891665244945442,"14":-0.188348478108369,"15":0.012125314340004485,"16":0.07545543280373139,"17":-0.0632014555028279,"18":-0.0014587340306438286,"19":0.1958122974500247,"20":0.043733632235670436,"21":-0.053620926747785805,"22":0.01611274082558017,"23":-0.009639686384435216,"24":0.04627699908661295,"25":0.030829613827367958,"26":0.06968310096971192,"27":0.05785098536569544,"28":0.04623761318826072,"29":0.034095717913453456,"30":0.10647113926713132,"31":-0.03535699510324709,"32":0.031889776975724246,"33":-0.030912678135701553,"34":0.008560724436746311,"35":-0.054465008973444445,"36":0.08556047676936428,"37":0.11782797086189863,"38":-0.015308870043870916,"39":-0.04501170041522166,"40":-0.06377032140862932,"41":0.04723308250087415,"42":0.14164749566353863,"43":-0.10722700919035168,"44":-0.010217382928808586,"45":-0.12293219210743933,"46":-0.09290440329498201,"47":-0.03727307785668731,"48":0.013582290162363892,"49":0.0431671454374276,"50":0.12062160365935351,"51":-0.06909864415379516,"52":-0.07516244032329485,"53":-0.08287130660330072,"54":0.08869211048768359,"55":-0.0034444776367721633,"56":0.15228623273297454,"57":-0.16667253499652485,"58":0.04591550852859878,"59":-0.06063233105378371,"60":-0.11137757915544805,"61":0.06327348148433266,"62":-0.0341120792184779,"63":0.01965193277084196,"64":-0.08039146884015333,"65":-0.16400649680654786,"66":-0.04433891059774142,"67":-0.015238077277189349,"68":0.13643783479087976,"69":-0.008505708390815504,"70":0.04565894731326577,"71":-0.04731174884425654,"72":-0.019788061017153302,"73":0.11893962369861281,"74":0.1523300464516533,"75":0.10445844441965751,"76":0.07920258288094138,"77":-0.019126163407777577,"78":-0.020755404574617543,"79":0.015385438747185572,"80":0.07827920798845052,"81":-0.078160833371129,"82":0.0273578471951599,"83":0.06356575163773785,"84":-0.025556128786218962,"85":-0.044436682931985674,"86":0.08363036060690017,"87":0.13441658724565234,"88":0.05282397583568087,"89":-0.019776575339576247,"90":0.005885285925401662,"91":0.023809625317241862,"92":0.06472765137600722,"93":0.16741123861063592,"94":-0.16318270582394842,"95":0.04990935568957683,"96":-0.012589304457104631,"97":0.004668751140035385,"98":0.002134026790445989,"99":0.08766809483590873,"100":-0.04678771211116714,"101":-0.24874842446704182,"102":-0.018038693656335262,"103":-0.04334461877477775,"104":-0.042450307468289886,"105":-0.07338082067123629,"106":0.04558009684191712,"107":-0.08419770626902173,"108":-0.19479022687569308,"109":-0.025249379397116863,"110":0.03512615872109085,"111":-0.023229191187415437,"112":-0.047006534447656755,"113":-0.04715323476826335,"114":-0.24100483559792596,"115":-0.29683352816907815,"116":0.025727698993243238,"117":-0.1577774592404792,"118":-0.0499139107672799,"119":-0.041249199123017805,"120":-0.11176823252899523,"121":-0.07359022325989684,"122":0.08600761753945897,"123":-0.07030980159621972,"124":0.06066422698539599,"125":0.03382117720068838,"126":0.0230028786377598,"127":0.008994815232099392,"128":-0.02748504386951107,"129":0.0567401177182301,"130":-0.25638931008743554,"131":0.05619642854463668,"132":-0.007409604310370172,"133":-0.008411346273133594,"134":-0.06629428210470584,"135":0.16506295268002158,"136":0.18930559448514325,"137":0.020306634394263823,"138":0.10318217317944754,"139":-0.00958355833040083,"140":-0.024571453593114367,"141":0.11457907676977798,"142":0.07713935672936752,"143":-0.019538866535248237,"144":-0.11559959085871377,"145":0.06045189560153428,"146":-0.034204223402001736,"147":-0.06673643315669964,"148":0.0718756562011297,"149":-0.12301828500137899,"150":0.009021752647093217,"151":-0.18958527541621226,"152":0.1166119494635856,"153":-0.0465365671833576,"154":-0.10647367460629036,"155":0.1512627449409795,"156":-0.1521189683099047,"157":-0.01681900975296164,"158":-0.17402769493176792,"159":-0.06967699820147226,"160":-0.05277484521090034}},{"sx":1,"sy":1,"depth":161,"w":{"0":-0.014559923918511616,"1":-0.04670925222764599,"2":0.09760886826238444,"3":0.08175645293086327,"4":0.03781808963874394,"5":0.02965035444959532,"6":0.03718753197364932,"7":-0.18094212043644045,"8":0.06790704711452464,"9":-0.10256345070172583,"10":0.007052777819647352,"11":0.02453149373272371,"12":0.14710618496148783,"13":-0.06712447742570249,"14":0.12169002896160157,"15":0.05080393124323085,"16":0.0463931768569489,"17":-0.08580826753898253,"18":-0.0285193650900871,"19":0.02032975337603575,"20":0.07150103970582607,"21":0.14014444887017877,"22":-0.01062666641213601,"23":-0.04800910290441699,"24":0.10909935548548609,"25":-0.04009439119557147,"26":0.009400030583669002,"27":0.053673331857459365,"28":-0.054013175290296006,"29":-0.15833944236926528,"30":0.00728331003183953,"31":0.059134355896165065,"32":0.04033663205481958,"33":-0.09133486625180842,"34":0.014410086277376808,"35":-0.025664515797214692,"36":0.016997079963347008,"37":0.1557303759480105,"38":-0.07656487379046405,"39":0.07799644536400337,"40":0.12114300991361883,"41":-0.019546555214038544,"42":0.09085463841560405,"43":0.04834230869625572,"44":-0.0015182726236133226,"45":0.11573852050339734,"46":-0.018254652558613096,"47":-0.020553045771518653,"48":0.12497238731766595,"49":-0.005731527806163064,"50":0.25807172808608514,"51":0.04801395056458717,"52":-0.21172765139637778,"53":-0.00453730717639624,"54":0.11121651529284274,"55":-0.035495554363545095,"56":0.06626564649655312,"57":0.04632973936642317,"58":0.08904817005093334,"59":0.11305292870087975,"60":-0.06481278789500033,"61":0.06401640240486556,"62":-0.13090244953438132,"63":0.04949576847932939,"64":0.2500474970413584,"65":-0.03852061368611652,"66":0.10468355946012982,"67":-0.006350263252024028,"68":-0.11907506747615812,"69":-0.11120563514174987,"70":0.06099232030420817,"71":0.04603489594973388,"72":0.05149988180151955,"73":0.046529728035523014,"74":-0.05021786073770323,"75":0.13093850277177352,"76":-0.08296932388347548,"77":-0.004474475302854787,"78":0.002891578611190999,"79":0.04260776189371897,"80":0.08316674654601576,"81":0.031146078194755802,"82":-0.16040003482515885,"83":0.016225974393480745,"84":-0.01353109373537482,"85":0.1041969392259782,"86":0.14184557477859552,"87":0.16256437973600393,"88":-0.004558298165753665,"89":0.1541684240682847,"90":-0.12467531105225038,"91":0.07057254330217531,"92":0.05965746839020459,"93":0.11472038849554843,"94":-0.02892088923630774,"95":-0.007370457525459837,"96":0.10943826001207566,"97":0.01847969136212484,"98":0.07303887864835186,"99":-0.022347180625728588,"100":0.14791839424262532,"101":0.12411498639604833,"102":0.1433336940297056,"103":0.09411937923918343,"104":0.13062052050674286,"105":0.03358981326764174,"106":-0.009301817129681528,"107":0.08628153451352438,"108":-0.038743701020171384,"109":0.013879939861700795,"110":0.048267439499721704,"111":-0.0820939259873067,"112":0.01996392810794508,"113":0.032038177774053905,"114":0.10303553644826743,"115":-0.09378788513818648,"116":-0.0034315909582291093,"117":-0.08495315843755397,"118":-0.03481799578921503,"119":-0.07206411810016707,"120":-0.168508465510503,"121":0.0676373524788887,"122":-0.07716753769397475,"123":0.1269722432625351,"124":0.03901138791844179,"125":-0.02347987592320681,"126":-0.05506145196426475,"127":-0.03330190525788208,"128":0.1734068082024568,"129":-0.0064149202597953425,"130":-0.10569998370897758,"131":-0.13770586368305354,"132":0.07548189764282164,"133":-0.02244209904042717,"134":0.1919769065578086,"135":-0.00574020509407945,"136":-0.058201244368267506,"137":0.06508475864695638,"138":0.10212029082404117,"139":-0.1192109147327584,"140":0.024213818721787926,"141":0.08052905349174955,"142":0.1307749740317883,"143":0.08353577941590129,"144":0.029350584293433582,"145":-0.10195742303649168,"146":0.02662028922240455,"147":0.02498627996569838,"148":0.07161432479782825,"149":0.24744442926546448,"150":0.07223133652128083,"151":0.005856995746979036,"152":-0.014154558433290578,"153":-0.02672363875593616,"154":-0.07409241714673113,"155":0.10754256851298634,"156":0.0546936230197798,"157":0.042262882930282984,"158":0.004633290462886209,"159":-0.09037371899079298,"160":-0.07942559671955729}},{"sx":1,"sy":1,"depth":161,"w":{"0":0.0133950367420664,"1":-0.03637044374120127,"2":0.009642833184852734,"3":-0.041012657480554354,"4":-0.12734601056111872,"5":0.08087071563021665,"6":0.07358127885226105,"7":0.11663102071463398,"8":0.11003503298735001,"9":0.09497042912136772,"10":-0.06407945012084397,"11":0.24225110932133523,"12":-0.04573412934569799,"13":0.030375169445272895,"14":0.09803997033406678,"15":0.15380733870378696,"16":0.12979942658214938,"17":-0.01985649998373997,"18":-0.04228449631826429,"19":0.04569527854717657,"20":0.10811468473537197,"21":-0.061068288810470474,"22":-0.05583864128986284,"23":-0.026156678504505263,"24":-0.028112589054365738,"25":-0.029657718352068152,"26":0.07727674496165549,"27":0.0384172771450892,"28":0.1177684049771578,"29":0.07785967745409468,"30":0.10971923904542093,"31":-0.1007877059033641,"32":0.04781576013388576,"33":0.007989570683187373,"34":0.1887868032753908,"35":0.11014662314849305,"36":0.03200657176422646,"37":-0.07054454266349676,"38":-0.12378681776981423,"39":0.03627705016156863,"40":0.02681402880797136,"41":-0.06508703123064159,"42":-0.06016575369732745,"43":0.10732225385227047,"44":0.12211404053753358,"45":-0.10374150449505855,"46":0.006725605064450083,"47":0.14527306905913845,"48":0.14429923966739672,"49":0.07683797368674261,"50":0.047960581587934294,"51":-0.06715182177461144,"52":0.054674959634064844,"53":-0.06272853962591005,"54":-0.017802953926744518,"55":-0.05808622675369829,"56":0.13116517088364216,"57":0.019469114868509066,"58":-0.002606950124058628,"59":-0.13276343019299297,"60":-0.03998815820174036,"61":-0.09174230427483945,"62":-0.00136300564844901,"63":0.07083902353404455,"64":-0.026146013612210327,"65":0.1319698511141043,"66":-0.06964805171875174,"67":0.14744713903045753,"68":-0.07920232667629308,"69":-0.0474182271375771,"70":0.06520689540757733,"71":0.07049033043727661,"72":-0.10833684046614384,"73":-0.02005266050479696,"74":0.05272159545839883,"75":-0.12586708729145735,"76":0.1216211092481259,"77":0.05647230431274189,"78":0.1292656269296651,"79":-0.059853551482800464,"80":-0.1713608559782232,"81":-0.016101790504748265,"82":-0.022065353083300175,"83":0.1400829541509026,"84":-0.0046237497459230325,"85":0.03101228576062914,"86":-0.06245691214724109,"87":-0.045767204701804835,"88":0.22124697058961507,"89":-0.005667721676023867,"90":0.15192887870706653,"91":0.04094649150338215,"92":0.12353443154545576,"93":-0.002970865544287131,"94":-0.10190960886090288,"95":0.03965556097858611,"96":0.11809304090930872,"97":0.1253430970286352,"98":-0.015255081800494443,"99":-0.00931239267221133,"100":0.03495488702375012,"101":-0.0713406555287934,"102":-0.0062751537243383665,"103":0.14307513252654963,"104":0.20482425826222822,"105":-0.02728366314941092,"106":-0.03234144984251506,"107":-0.11561522572741931,"108":-0.014314757389135962,"109":-0.11941992877267747,"110":-0.09023724673783697,"111":0.20598262242289633,"112":0.1316447069649051,"113":0.018458360189557453,"114":0.059164309918061875,"115":0.05514072400358733,"116":-0.08991348770683295,"117":0.08650235087335197,"118":0.03735985593754844,"119":0.1263649467950953,"120":-0.027267941646779464,"121":-0.09443844193911739,"122":-0.042988656064454095,"123":-0.03653166811591254,"124":0.210467961461156,"125":0.16445230713268008,"126":0.24837635697702473,"127":0.08048935693288958,"128":-0.12264205720543393,"129":0.07279121883913488,"130":0.00784070901203507,"131":0.05487602566238217,"132":0.042014065951119596,"133":0.14340687293580975,"134":0.09712859171813161,"135":-0.060605953925072606,"136":0.10953332362664756,"137":0.000921955041437672,"138":-0.1780628430475401,"139":0.040419610086207085,"140":0.060652539587632164,"141":0.05976039478983757,"142":0.12316878026911263,"143":0.03861649908167121,"144":0.01350660380269329,"145":0.16415816108497797,"146":-0.07093083850509568,"147":0.0020426320530523134,"148":0.05102031742416492,"149":0.019926829450214976,"150":0.05172078891500402,"151":-0.08312177538975077,"152":0.047757025901256946,"153":0.03200554823495635,"154":-0.07226262405445129,"155":-0.01989163685206631,"156":-0.04714350389953241,"157":0.03052898818951376,"158":-0.058680835237226024,"159":0.2912389129146506,"160":0.15095291371325578}},{"sx":1,"sy":1,"depth":161,"w":{"0":0.020008860900522726,"1":-0.011571875173176528,"2":0.1938349361449137,"3":0.004226158305223622,"4":0.11002783647704363,"5":0.00020239207363137337,"6":0.011580213059258144,"7":-0.06790807363702055,"8":-0.08725951273007515,"9":0.07344733104052424,"10":-0.06236564827506268,"11":0.1080384665269725,"12":0.0422489751116629,"13":-0.04454150929435997,"14":-0.15489435203585983,"15":-0.061385129867779394,"16":0.06491172589460449,"17":0.003949535887700557,"18":0.06785891993432176,"19":0.09441457231560776,"20":-0.10953635790498388,"21":-0.08809605814852936,"22":0.0577710886080689,"23":-0.05554080135770892,"24":0.020089956337406407,"25":-0.06727557287971372,"26":-0.12519822328748365,"27":0.008970809402197513,"28":0.07973585074184938,"29":0.0017787016337170156,"30":0.17214809040348963,"31":0.10007947311681767,"32":0.05525172370258017,"33":0.19035370681620892,"34":-0.1288712812657196,"35":-0.008026937713337375,"36":-0.048910911747717015,"37":0.13059122173361418,"38":0.07644512699698383,"39":0.05194742240707265,"40":-0.09411052105937935,"41":0.04152453233614262,"42":0.06991401042532575,"43":0.016125370166430213,"44":-0.002901222863987997,"45":0.17322560767239506,"46":0.08674177104151792,"47":0.10847978992450318,"48":-0.041958577361838216,"49":-0.04851096266115585,"50":-0.10045399846763399,"51":0.1930161523276596,"52":0.0523966752878555,"53":-0.02854312469517028,"54":0.08493177625553996,"55":-0.016320564017395997,"56":0.18403788137051,"57":0.052188849059708074,"58":0.061609608102524,"59":0.11489475561659024,"60":0.13092025340929417,"61":0.01618304097277635,"62":0.0028789360039214442,"63":0.06783169540217249,"64":0.019635981278339532,"65":0.1337608611016158,"66":0.11063971883402124,"67":-0.023540087350220756,"68":-0.17410098570770735,"69":-0.06455398880297264,"70":0.0161208975022847,"71":0.015269441376702995,"72":0.0447298254858397,"73":0.020262317455154805,"74":-0.10959163111583164,"75":-0.12330387930743543,"76":0.10445494097399292,"77":0.0023476661023265413,"78":-0.006396304655594346,"79":0.04180528035904607,"80":0.00795599432411868,"81":0.030564720263156767,"82":-0.004802067043654369,"83":-0.0030967436041014016,"84":0.17579773656506245,"85":0.11839509696258421,"86":-0.05400680508665308,"87":0.014080698299434405,"88":0.011438880814344174,"89":0.08536921616209595,"90":-0.033091327435010115,"91":0.025909727532674093,"92":-0.04278954630786993,"93":0.01917192248582118,"94":-0.11275075127270733,"95":-0.08165281582845633,"96":-0.0682348771281367,"97":-0.0239776207067677,"98":0.14086357898727983,"99":-0.02163657361137487,"100":-0.02351075503261496,"101":0.15378884195654385,"102":0.16147421824993374,"103":0.10761407614461438,"104":0.015891269614828805,"105":-0.0499742937965413,"106":-0.0445523798491103,"107":0.11113802366538457,"108":0.00003850223503173482,"109":0.06236337281406993,"110":0.05875097633285466,"111":-0.011458142295722323,"112":0.015884109469662615,"113":0.011199333888637307,"114":0.16733002846540512,"115":0.03706363353340787,"116":-0.09541004186825192,"117":-0.012853303559447008,"118":-0.0796258181388815,"119":0.04272367765218431,"120":0.11240146535899663,"121":0.11701562748919946,"122":-0.014642685664205502,"123":0.15916799020707575,"124":-0.03298288870357272,"125":-0.12397220836337067,"126":-0.023760192489405505,"127":0.055449838730293965,"128":0.16792636828699503,"129":-0.08723965775052576,"130":0.004029919407951877,"131":-0.0068635463551152635,"132":-0.002094521822306653,"133":0.021019519263540308,"134":-0.02106169522574907,"135":0.21148279739873715,"136":0.13143881599286542,"137":-0.0749614058980485,"138":-0.04923838450989171,"139":-0.12799206731279247,"140":-0.0682787661103049,"141":0.2105616281602866,"142":0.2094140306124485,"143":-0.04073816208973546,"144":-0.014315473010995635,"145":0.06375632503868045,"146":-0.11447944925064663,"147":-0.015427948088602955,"148":0.04485014040998559,"149":0.09519578429791845,"150":0.0018531329995410979,"151":0.03950570235550479,"152":-0.027347031240942923,"153":-0.0007337561367167093,"154":0.13659545161932493,"155":-0.056875693646895605,"156":0.2386815085551608,"157":0.1242592832079018,"158":0.04471695090685921,"159":-0.028277163561775957,"160":-0.09137261625039583}},{"sx":1,"sy":1,"depth":161,"w":{"0":-0.11083971595388992,"1":0.028013449331082168,"2":0.002728896148224183,"3":0.1516179935651671,"4":0.034133639575321104,"5":0.04772914184610883,"6":0.05987625573855858,"7":-0.004658615868987521,"8":-0.03425410403173101,"9":-0.1802436656915962,"10":0.06656426845102975,"11":0.024603604341722214,"12":-0.008874371198531582,"13":0.08112560143262905,"14":-0.03403669522358776,"15":0.11115706907845839,"16":0.017154314460347108,"17":-0.0831248863647185,"18":-0.07798961796515542,"19":0.06233883788826976,"20":0.05064338017961382,"21":-0.153492055805608,"22":-0.05416314400044667,"23":0.10286520749291196,"24":-0.02184429290581492,"25":0.23680022452342356,"26":-0.0641678773383162,"27":-0.0371710650321318,"28":-0.033168200943839765,"29":0.10500951152420403,"30":-0.00003714135477856215,"31":-0.08245076821985775,"32":-0.04427960296944067,"33":-0.05825265101862511,"34":-0.02264487692074795,"35":0.07468901880090675,"36":-0.03780355799943224,"37":0.0014055307747161778,"38":-0.06851259971330124,"39":0.05223514756210023,"40":0.043464461584178084,"41":0.002333674238987168,"42":0.06907489297497879,"43":0.04262580537778967,"44":0.19568444383248085,"45":0.09585838920713494,"46":0.007564466678810234,"47":0.06515664297521882,"48":0.021047480723830083,"49":-0.06428661257208029,"50":-0.02048967957652789,"51":0.10133470189309221,"52":0.19053445941274283,"53":0.014880221721081497,"54":-0.03582467661231755,"55":0.0045106856301538704,"56":-0.0030039527343424734,"57":-0.14505704539349829,"58":0.039557672155176984,"59":0.1083782013887773,"60":-0.0889930197650399,"61":0.030552046772159922,"62":-0.056437632464273385,"63":0.05969967682092129,"64":-0.02140464656534529,"65":0.011472221624285586,"66":0.05626777664563572,"67":-0.08338795218863286,"68":0.1118475476353037,"69":-0.03430555996052555,"70":-0.025337916223941208,"71":-0.04505423018240557,"72":-0.12008551037495799,"73":-0.03643507261757984,"74":0.11017594533240502,"75":0.053192739470760565,"76":-0.04149786080379563,"77":-0.05367475435235394,"78":-0.02211486917207332,"79":-0.037430501032703865,"80":0.14660450383476906,"81":0.05905710834676218,"82":-0.10645282475245677,"83":-0.10823007744841874,"84":-0.004710243246483727,"85":0.057441199394181,"86":0.2146228466317372,"87":0.07748348744604525,"88":-0.08670727692259468,"89":0.13367792985573615,"90":-0.10475191058958097,"91":-0.1192865765132674,"92":-0.10500440386155191,"93":0.11023853617729092,"94":0.04132639477325991,"95":-0.018473222669868408,"96":0.06698273139680766,"97":0.04055999729793496,"98":-0.016267959143154372,"99":-0.018883772584314378,"100":0.009915613342425978,"101":0.08638029728682702,"102":0.06627843484918704,"103":0.03129429044693408,"104":-0.07054391176002786,"105":0.07942683573881626,"106":0.05359038967718633,"107":-0.052261104348500204,"108":0.032265985566486036,"109":0.010354417510635676,"110":0.06740456061473077,"111":0.020408586185105305,"112":-0.07343869594539744,"113":-0.04676218164325009,"114":-0.05666976335058023,"115":-0.036731883921651796,"116":0.08506217018778951,"117":-0.05375217664863609,"118":-0.016573882947973503,"119":0.00004389712549343954,"120":0.0265137119446166,"121":0.1054800060376854,"122":-0.20026047321446144,"123":-0.10193949675544811,"124":0.026871942592616885,"125":0.13744433979583362,"126":-0.0257775087703186,"127":-0.01996971448082578,"128":-0.0472612127619984,"129":0.09119788158509433,"130":0.1260465326967857,"131":-0.08063330384347597,"132":-0.03385200253689056,"133":0.029009599289465633,"134":0.009851967502084454,"135":0.02633964435963105,"136":0.010718779067484108,"137":-0.0661045851655682,"138":-0.003194907306706171,"139":0.008748234687727011,"140":-0.07044296111964263,"141":-0.01594339412534539,"142":-0.030533443064866706,"143":0.1375447218640045,"144":-0.005022079863665812,"145":-0.13948311545574962,"146":0.08600219058305385,"147":0.07963323016936126,"148":0.04052481669877254,"149":0.11726002702694313,"150":0.09658453046533898,"151":-0.13362405708671457,"152":0.07813813565556318,"153":-0.013802097350018817,"154":0.06714957810562962,"155":0.1487210157353277,"156":-0.02777987689105465,"157":-0.006018131230010497,"158":0.0018504408497846576,"159":-0.0031741714794272535,"160":0.016679614992803665}},{"sx":1,"sy":1,"depth":161,"w":{"0":-0.07814727088619228,"1":0.020102415366152926,"2":-0.042531499450483845,"3":-0.2328014090722278,"4":-0.058066141019236434,"5":0.01651658679612124,"6":0.03086973673996725,"7":0.08152893003387367,"8":0.09790481163395776,"9":0.14973683300477236,"10":-0.10006544666130147,"11":0.021052423914668113,"12":0.0751623495228443,"13":0.08975938020274335,"14":0.05336921018146937,"15":0.17509984576470808,"16":0.09317674020506576,"17":0.10351563136101662,"18":-0.043323456327857626,"19":0.025940520073354997,"20":0.18255978061919823,"21":0.03685363727974505,"22":-0.05094343259584893,"23":0.2319770562459951,"24":-0.04827220402390124,"25":-0.21699916712776446,"26":0.13192710484711231,"27":0.032995345846813046,"28":-0.0032168347189391808,"29":-0.0656966935667964,"30":-0.07427226764957619,"31":0.07767043997354352,"32":-0.18857441420570395,"33":0.01938058117950448,"34":0.0454437461372576,"35":0.08691017234421437,"36":-0.07672091335370401,"37":-0.09392412309638716,"38":0.09121068299337799,"39":-0.03976417484055373,"40":0.06590257097695225,"41":-0.01025941458603075,"42":0.07695576504705938,"43":0.04241501427310495,"44":-0.028343482234922893,"45":-0.00739291854211919,"46":0.11216577564819599,"47":0.007337205576383871,"48":-0.026864150618859148,"49":0.05530694562316163,"50":-0.07423346561275751,"51":-0.06879903411065853,"52":0.0838574881702271,"53":-0.039621181059512435,"54":-0.012084399395040581,"55":0.07432291786485222,"56":-0.0584000679806289,"57":-0.022895889707966445,"58":0.004780446781441344,"59":0.009083980621866529,"60":-0.04299926615102045,"61":0.0012298028827126735,"62":0.18881763583105218,"63":0.07905351019279179,"64":-0.0846067451381306,"65":0.09296305399392267,"66":-0.03450361588066814,"67":-0.21306741371044435,"68":0.11621212541784172,"69":0.04039499347443184,"70":0.014337287178184223,"71":-0.034953470972740486,"72":-0.059045946481604224,"73":0.0008697651559998148,"74":-0.11527190840294754,"75":0.07152560915549684,"76":0.019901562472714934,"77":-0.018857793568414383,"78":0.035624500709164834,"79":-0.08292179520547961,"80":-0.04630193139951934,"81":-0.056889779065089054,"82":0.013226853953109161,"83":0.15610183065865177,"84":-0.13978588100920125,"85":0.053147159790937364,"86":0.026455772538745533,"87":-0.0936415980323966,"88":-0.15883993270170227,"89":0.07713366236999143,"90":0.16198115583103068,"91":0.06256040598975983,"92":0.01703864901380287,"93":0.026040183426957277,"94":-0.13207758671249129,"95":-0.04365111248016224,"96":0.14842901039279063,"97":0.049355292337645774,"98":0.14191008955081696,"99":-0.1624061809931504,"100":-0.007990208252003972,"101":-0.1576275367633169,"102":-0.0020293515608316463,"103":0.10834813062221556,"104":-0.10064184674914832,"105":0.09436608819458557,"106":-0.026723902879924166,"107":-0.003222821277803045,"108":-0.07456465590905871,"109":0.017836636648009597,"110":0.007580028803366629,"111":0.028438434859483254,"112":0.12472406060069118,"113":-0.016677381773724263,"114":-0.14446923060465766,"115":-0.13397196222425214,"116":-0.16570389208172287,"117":0.05171230020489003,"118":0.03816449713871003,"119":0.11971526003339994,"120":-0.01570185837640773,"121":0.0378567020374452,"122":0.03589140064308209,"123":0.006201433788245704,"124":0.1449887977757268,"125":0.0942793615097386,"126":-0.0041626850433250555,"127":0.006692235279241918,"128":-0.04117188797050612,"129":0.16563960584435536,"130":0.1615491706489401,"131":0.05810727641310628,"132":0.14913248881367352,"133":-0.025549551064490094,"134":-0.06170514448329779,"135":-0.028867382887132306,"136":0.0971429718586794,"137":0.16891627113182364,"138":0.11861479063577564,"139":-0.04123329576186048,"140":-0.1384193775621292,"141":-0.04115567492849893,"142":-0.03893953185649005,"143":-0.21408980965251004,"144":0.14240620489727515,"145":0.12909814778734963,"146":0.09224840811829896,"147":-0.14782071407843905,"148":-0.04879546855424804,"149":-0.06849176925020534,"150":-0.30879185262695685,"151":0.11904053846228986,"152":0.13789394930348317,"153":0.05796311322908591,"154":-0.04018830702521546,"155":-0.19241253627141047,"156":0.018682813966560612,"157":-0.21600136366699565,"158":0.428157666621907,"159":0.1419937759318152,"160":0.01788526842166154}},{"sx":1,"sy":1,"depth":161,"w":{"0":-0.002804300942092345,"1":-0.003224339656709266,"2":-0.009332246388943822,"3":-0.004485954727603824,"4":-0.006696757095702308,"5":-0.002642794756920215,"6":0.008452933412639564,"7":-0.0020728674519437636,"8":-0.0026747792874434622,"9":-0.006353883764869621,"10":-0.006017226641043642,"11":-0.00460081706498953,"12":-0.00418250076661526,"13":0.004242059382118027,"14":-0.002102945017991811,"15":-0.0030544344036754355,"16":-0.004064097494563015,"17":-0.007811349758234869,"18":-0.007410090408799686,"19":-0.0005051549042854127,"20":0.009388365206733104,"21":-0.0020005778482156053,"22":-0.003263654951384632,"23":-0.0033738974208924757,"24":0.00011062188243036203,"25":-0.012666233647569214,"26":-0.0025685619993806533,"27":0.007924831769672158,"28":-0.0017704907849674443,"29":-0.0032625931934010793,"30":-0.003777364271217102,"31":0.0008956709153429457,"32":0.0015146357923821892,"33":-0.0036835743181130847,"34":0.007775201665026589,"35":-0.00318305379610502,"36":-0.005752245863509482,"37":-0.004092518044707065,"38":-0.008847266970075268,"39":-0.0024502442218586446,"40":-0.0005537833564160624,"41":0.003962100713484844,"42":-0.0026775264171344155,"43":-0.004650466747914254,"44":-0.005446896808523913,"45":-0.005176219828755597,"46":-0.0046005426938458115,"47":0.0003123107947508728,"48":0.0037676112125570303,"49":-0.0022690444807596023,"50":-0.004283053485227221,"51":-0.0066603939184526825,"52":-0.01068597233630057,"53":-0.0012724722539849,"54":0.0017609438793117491,"55":0.0023085172066748274,"56":-0.0012074158845503864,"57":-0.0051418139736498555,"58":-0.005210468003134341,"59":-0.007811739611326122,"60":-0.0010321714750707407,"61":0.0008677968969378176,"62":-0.00413069726948683,"63":-0.0008785317626702244,"64":-0.005226848398900527,"65":-0.005592084142327012,"66":-0.005595054227614436,"67":-0.0041064339589552785,"68":0.004832323686823212,"69":-0.0010614306350390644,"70":-0.0011331197171768942,"71":-0.008284820852989462,"72":-0.00377215087169295,"73":-0.004121255187276724,"74":-0.004828725458992001,"75":0.005118064314760701,"76":-0.0013780500277253058,"77":-0.0016839132996984893,"78":-0.009400834024314032,"79":-0.003913835483037583,"80":-0.002133816072707966,"81":-0.005082931053494586,"82":0.0036613536447001613,"83":0.0006394569193690497,"84":-0.002445037954822744,"85":-0.009346586860730028,"86":-0.0055429411487890375,"87":-0.003154178021521921,"88":-0.003039985924778473,"89":0.00047496659073863136,"90":0.003241851712264969,"91":-0.0022296653406015873,"92":-0.00844362838229493,"93":-0.007388852344390181,"94":-0.005157070357005069,"95":-0.006062161187505498,"96":-0.001684407111554294,"97":0.0008562346222053,"98":-0.0024369299748819104,"99":-0.004174175947621454,"100":-0.006840976605866519,"101":-0.012220856036763794,"102":-0.0058282014074916505,"103":-0.003133673762819933,"104":0.007949158212242602,"105":-0.002900084015814398,"106":-0.00355194647745578,"107":-0.006649773650244987,"108":-0.008074638007000052,"109":-0.007151629639454167,"110":-0.009674342509359724,"111":0.006598616054130574,"112":-0.0026462756314341172,"113":-0.0036832094175910947,"114":-0.009567893885008942,"115":-0.013506832722537073,"116":-0.009264275707281246,"117":-0.00447912628590324,"118":0.0016723881709679678,"119":-0.0017140755857432588,"120":-0.0029563185422566956,"121":-0.006804574037760085,"122":0.008718556808093747,"123":-0.006812133159678863,"124":-0.002626976270076477,"125":0.012082509964744526,"126":-0.0008685048095214038,"127":-0.005326134769644958,"128":-0.006145900471331064,"129":-0.019028327817420657,"130":-0.0016245149675737306,"131":0.0009764815117652715,"132":0.0050210116494876075,"133":-0.0004496385498283295,"134":-0.0037575174474824245,"135":-0.008208089607075784,"136":0.00036511279086285975,"137":0.002548239310988167,"138":0.0000316439271879545,"139":0.008469707863442913,"140":-0.0019382647218755206,"141":-0.004119578452994025,"142":-0.003863876177381674,"143":0.02738677423553914,"144":-0.00910046608435114,"145":-0.0034618553285119796,"146":0.006785505468034654,"147":-0.003056803919252287,"148":-0.0044798256172892,"149":-0.004730219201308675,"150":-0.07201967913699597,"151":-0.009180911253780413,"152":-0.008308689121170955,"153":-0.002964985910713713,"154":-0.005294711005726303,"155":-0.002843422322652979,"156":-0.003055177922021722,"157":0.009281863069378839,"158":-0.0026465302927186204,"159":-0.007942223755373021,"160":0.008349838311361752}},{"sx":1,"sy":1,"depth":161,"w":{"0":-0.04370881024546633,"1":-0.06619535476553039,"2":-0.05880190252865222,"3":-0.048547418661214405,"4":-0.09191950456427184,"5":0.0042871720742065815,"6":-0.08265524721693887,"7":-0.014615667661844516,"8":-0.01945881923754626,"9":0.06518380609820529,"10":0.0193363042485333,"11":-0.11718729018797715,"12":-0.11258423058723142,"13":-0.09941512014664133,"14":0.05383128884570989,"15":-0.029961932563578167,"16":0.1648187394341017,"17":0.1608013403100904,"18":0.136581973488212,"19":0.04418403838604469,"20":-0.07110743027859687,"21":-0.08662410012572985,"22":0.17327809157821086,"23":0.025149299106288815,"24":0.05370570518760587,"25":-0.07770582765473734,"26":0.009265504858213244,"27":-0.031522220899798586,"28":-0.038883403555663686,